{"learner":{"attributes":{"scikit_learn":"{\"_estimator_type\": \"classifier\"}"},"feature_names":[],"feature_types":[],"gradient_booster":{"model":{"cats":{"enc":[],"feature_segments":[],"sorted_idx":[]},"gbtree_model_param":{"num_parallel_tree":"1","num_trees":"100"},"iteration_indptr":[0,1,2,3,4,5,6,7,8,9,10,11,12,13,14,15,16,17,18,19,20,21,22,23,24,25,26,27,28,29,30,31,32,33,34,35,36,37,38,39,40,41,42,43,44,45,46,47,48,49,50,51,52,53,54,55,56,57,58,59,60,61,62,63,64,65,66,67,68,69,70,71,72,73,74,75,76,77,78,79,80,81,82,83,84,85,86,87,88,89,90,91,92,93,94,95,96,97,98,99,100],"tree_info":[0,0,0,0,0,0,0,0,0,0,0,0,0,0,0,0,0,0,0,0,0,0,0,0,0,0,0,0,0,0,0,0,0,0,0,0,0,0,0,0,0,0,0,0,0,0,0,0,0,0,0,0,0,0,0,0,0,0,0,0,0,0,0,0,0,0,0,0,0,0,0,0,0,0,0,0,0,0,0,0,0,0,0,0,0,0,0,0,0,0,0,0,0,0,0,0,0,0,0,0],"trees":[{"base_weights":[-6.1746425E-4,1.8972955E0,-7.125291E-1,1.3691399E0,2.0848298E0,4.361574E-1,-9.3481946E-1,1.4294306E0,-8.972081E-2,-8.715907E-2,2.0938423E0,9.542401E-1,-2.8235045E-1,-4.2308345E-2,-1.080457E0,-8.92516E-2,1.4761647E0,2.1553192E0,1.7659372E0,1.6643882E0,6.4821845E-1,5.8427077E-2,-9.0942584E-2,9.6189344E-1,-4.410241E-1,-4.716296E-1,-1.2778798E0,8.972925E-2,6.1306693E-2,1.0785272E-1,-7.075172E-2,9.261227E-2,-8.863791E-2,8.8208124E-2,-8.790207E-2,-6.329249E-2,5.058236E-2,-6.822567E-2,2.414255E-2,2.178907E-2,9.023101E-2,-5.351478E-2,3.460594E-2,2.380765E-3,-6.859349E-2,-5.1035173E-2,-7.9368055E-2],"categories":[],"categories_nodes":[],"categories_segments":[],"categories_sizes":[],"default_left":[0,0,0,0,0,0,0,0,0,0,0,0,0,0,0,0,0,0,0,0,0,0,0,0,0,0,0,0,0,0,0,0,0,0,0,0,0,0,0,0,0,0,0,0,0,0,0],"id":0,"left_children":[1,3,5,7,9,11,13,15,-1,-1,17,19,21,23,25,-1,27,29,31,33,35,37,-1,39,41,43,45,-1,-1,-1,-1,-1,-1,-1,-1,-1,-1,-1,-1,-1,-1,-1,-1,-1,-1,-1,-1],"loss_changes":[6.358743E4,1.2686758E3,8.739293E3,6.4472363E2,3.3042188E2,2.0661646E3,3.7272773E3,4.9903418E2,0E0,0E0,1.866914E2,6.997551E2,1.2179703E3,1.6115165E3,2.9625566E3,0E0,2.5715137E2,5.2320312E1,4.6066016E2,3.3451318E2,1.570158E3,1.150947E3,0E0,5.063816E2,2.05498E3,2.822577E3,1.4800078E3,0E0,0E0,0E0,0E0,0E0,0E0,0E0,0E0,0E0,0E0,0E0,0E0,0E0,0E0,0E0,0E0,0E0,0E0,0E0,0E0],"parents":[2147483647,0,0,1,1,2,2,3,3,4,4,5,5,6,6,7,7,10,10,11,11,12,12,13,13,14,14,16,16,17,17,18,18,19,19,20,20,21,21,23,23,24,24,25,25,26,26],"right_children":[2,4,6,8,10,12,14,16,-1,-1,18,20,22,24,26,-1,28,30,32,34,36,38,-1,40,42,44,46,-1,-1,-1,-1,-1,-1,-1,-1,-1,-1,-1,-1,-1,-1,-1,-1,-1,-1,-1,-1],"split_conditions":[5E-1,2E-1,1.5E0,1.3E0,-1.2E0,1.6E1,1.7E0,-2.5490196E-2,-8.972081E-2,-8.715907E-2,5.4E-1,1.1333333E0,1E-1,4E0,6E0,-8.92516E-2,5E0,2E0,2.9E0,1.1111111E-2,6.244998E-1,7.4E0,-9.0942584E-2,4.2857144E-2,2.2666667E0,5.1E1,1.44E2,8.972925E-2,6.1306693E-2,1.0785272E-1,-7.075172E-2,9.261227E-2,-8.863791E-2,8.8208124E-2,-8.790207E-2,-6.329249E-2,5.058236E-2,-6.822567E-2,2.414255E-2,2.178907E-2,9.023101E-2,-5.351478E-2,3.460594E-2,2.380765E-3,-6.859349E-2,-5.1035173E-2,-7.9368055E-2],"split_indices":[33,46,18,21,43,45,52,55,0,0,52,24,23,45,30,0,30,15,19,44,25,17,0,44,24,45,56,0,0,0,0,0,0,0,0,0,0,0,0,0,0,0,0,0,0,0,0],"split_type":[0,0,0,0,0,0,0,0,0,0,0,0,0,0,0,0,0,0,0,0,0,0,0,0,0,0,0,0,0,0,0,0,0,0,0,0,0,0,0,0,0,0,0,0,0,0,0],"sum_hessian":[4.705984E4,1.2836596E4,3.4223246E4,3.3657864E3,9.470809E3,5.548805E3,2.867444E4,3.303379E3,6.240734E1,2.179304E1,9.449016E3,3.223884E3,2.3249211E3,4.0227969E3,2.4651643E4,4.6805508E1,3.2565735E3,7.952478E3,1.496538E3,9.695426E2,2.2543413E3,1.9036715E3,4.2124954E2,1.1428964E3,2.8799006E3,6.0371675E3,1.8614475E4,1.4296729E3,1.8269006E3,7.949011E3,3.4670744E0,1.4613718E3,3.5166042E1,9.4254895E2,2.6993652E1,3.593375E2,1.8950038E3,4.3685138E2,1.4668202E3,7.045591E2,4.3833728E2,1.8516654E3,1.0282352E3,3.8293838E3,2.2077834E3,1.0168682E4,8.445794E3],"tree_param":{"num_deleted":"0","num_feature":"57","num_nodes":"47","size_leaf_vector":"1"}},{"base_weights":[-8.358181E-4,1.789836E0,-6.800227E-1,1.2936522E0,1.9656451E0,4.1364196E-1,-8.930718E-1,1.3502579E0,-8.622993E-2,-8.383615E-2,1.9740735E0,9.0310353E-1,-2.6898292E-1,-3.0257398E-1,-1.0951105E0,-8.579165E-2,1.3941202E0,2.0316713E0,1.6665174E0,1.0721629E0,-3.2439482E-1,5.5408485E-2,-8.7370895E-2,1.9480173E-1,-1.2255003E0,-1.2662509E-1,-1.2307509E0,7.085803E-2,-9.0009324E-2,1.016651E-1,-6.844508E-2,8.736692E-2,-8.5218295E-2,-9.0333454E-2,5.7157945E-2,-5.6348365E-2,8.573162E-2,-6.533909E-2,2.2884585E-2,-3.280088E-2,3.0173628E-2,2.3004659E-2,-7.9088196E-2,2.925983E-2,-3.8154546E-2,4.6216052E-2,-6.324417E-2],"categories":[],"categories_nodes":[],"categories_segments":[],"categories_sizes":[],"default_left":[0,0,0,0,0,0,0,0,0,0,0,0,0,0,0,0,0,0,0,0,0,0,0,0,0,0,0,0,0,0,0,0,0,0,0,0,0,0,0,0,0,0,0,0,0,0,0],"id":1,"left_children":[1,3,5,7,9,11,13,15,-1,-1,17,19,21,23,25,-1,27,29,31,33,35,37,-1,39,41,43,45,-1,-1,-1,-1,-1,-1,-1,-1,-1,-1,-1,-1,-1,-1,-1,-1,-1,-1,-1,-1],"loss_changes":[5.7163836E4,1.1249609E3,7.9404287E3,5.805586E2,2.9623047E2,1.8568212E3,3.4023496E3,4.492461E2,0E0,0E0,1.6525781E2,6.7197144E2,1.1133328E3,3.3384814E3,2.791371E3,0E0,2.4368604E2,4.723047E1,4.1360205E2,5.835178E2,6.443294E2,1.0442478E3,0E0,1.6437944E3,1.5301157E3,1.1836565E3,1.3722441E3,0E0,0E0,0E0,0E0,0E0,0E0,0E0,0E0,0E0,0E0,0E0,0E0,0E0,0E0,0E0,0E0,0E0,0E0,0E0,0E0],"parents":[2147483647,0,0,1,1,2,2,3,3,4,4,5,5,6,6,7,7,10,10,11,11,12,12,13,13,14,14,16,16,17,17,18,18,19,19,20,20,21,21,23,23,24,24,25,25,26,26],"right_children":[2,4,6,8,10,12,14,16,-1,-1,18,20,22,24,26,-1,28,30,32,34,36,38,-1,40,42,44,46,-1,-1,-1,-1,-1,-1,-1,-1,-1,-1,-1,-1,-1,-1,-1,-1,-1,-1,-1,-1],"split_conditions":[5E-1,2E-1,1.5E0,1.3E0,-1.2E0,1.6E1,6E0,-2.5490196E-2,-8.622993E-2,-8.383615E-2,5.4E-1,2.91E2,1E-1,5.1E1,-2.6570049E-3,-8.579165E-2,5E-2,2E0,2.9E0,5E2,4.9816E2,7.4E0,-8.7370895E-2,3E0,4.2E0,1.62E0,1.4333333E0,7.085803E-2,-9.0009324E-2,1.016651E-1,-6.844508E-2,8.736692E-2,-8.5218295E-2,-9.0333454E-2,5.7157945E-2,-5.6348365E-2,8.573162E-2,-6.533909E-2,2.2884585E-2,-3.280088E-2,3.0173628E-2,2.3004659E-2,-7.9088196E-2,2.925983E-2,-3.8154546E-2,4.6216052E-2,-6.324417E-2],"split_indices":[33,46,18,21,43,45,30,55,0,0,52,12,23,45,55,0,43,15,19,13,11,17,0,30,37,52,24,0,0,0,0,0,0,0,0,0,0,0,0,0,0,0,0,0,0,0,0],"split_type":[0,0,0,0,0,0,0,0,0,0,0,0,0,0,0,0,0,0,0,0,0,0,0,0,0,0,0,0,0,0,0,0,0,0,0,0,0,0,0,0,0,0,0,0,0,0,0],"sum_hessian":[4.699997E4,1.2924079E4,3.4075887E4,3.3834275E3,9.540651E3,5.5556436E3,2.8520244E4,3.3216838E3,6.1743813E1,2.15691E1,9.519083E3,3.235427E3,2.3202168E3,7.271208E3,2.1249037E4,4.631093E1,3.2753728E3,8.0128643E3,1.5062184E3,2.8438757E3,3.9155115E2,1.9035181E3,4.1669867E2,4.7254155E3,2.5457922E3,2.6106533E3,1.8638383E4,3.2524692E3,2.2903624E1,8.0094253E3,3.4391084E0,1.4714209E3,3.479746E1,6.785768E1,2.776018E3,2.8128363E2,1.1026752E2,4.3347144E2,1.4700466E3,1.5330745E3,3.1923413E3,4.4413937E2,2.1016528E3,1.2324099E3,1.3782434E3,2.901899E2,1.8348193E4],"tree_param":{"num_deleted":"0","num_feature":"57","num_nodes":"47","size_leaf_vector":"1"}},{"base_weights":[-9.980092E-4,1.6968074E0,-6.49822E-1,1.2258192E0,1.8637844E0,3.9280647E-1,-8.5426897E-1,1.2791116E0,-8.315223E-2,-8.088843E-2,1.8717221E0,8.559285E-1,-2.565791E-1,-2.9224627E-2,-9.9033046E-1,-8.273771E-2,1.3203925E0,1.8761135E0,-8.4019795E-2,1.5147811E0,5.710782E-1,5.2571412E-2,-8.423143E-2,4.0107033E-1,-8.909666E-1,-7.0300657E-1,-1.347E0,8.093541E-2,5.430026E-2,9.639963E-2,7.988948E-2,8.054377E-2,-9.001731E-2,-6.1540164E-2,4.5458987E-2,-2.7583499E-2,4.4071224E-2,-8.9158155E-2,2.8001234E-2,1.2391444E-2,-6.770965E-2,2.1830615E-2,-4.5493353E-2,5.1666398E-2,-6.969183E-2],"categories":[],"categories_nodes":[],"categories_segments":[],"categories_sizes":[],"default_left":[0,0,0,0,0,0,0,0,0,0,0,0,0,0,0,0,0,0,0,0,0,0,0,0,0,0,0,0,0,0,0,0,0,0,0,0,0,0,0,0,0,0,0,0,0],"id":2,"left_children":[1,3,5,7,9,11,13,15,-1,-1,17,19,21,23,25,-1,27,29,-1,31,33,35,-1,37,39,41,43,-1,-1,-1,-1,-1,-1,-1,-1,-1,-1,-1,-1,-1,-1,-1,-1,-1,-1],"loss_changes":[5.1597625E4,1.01622266E3,7.2241816E3,5.244321E2,2.671953E2,1.6713018E3,3.1805977E3,4.056958E2,0E0,0E0,1.519375E2,6.0787964E2,1.0216155E3,1.4880706E3,2.4915996E3,0E0,2.2800635E2,1.3447656E2,0E0,3.1460303E2,1.381708E3,9.535883E2,0E0,9.3031006E2,7.053646E2,3.1765005E3,1.2111289E3,0E0,0E0,0E0,0E0,0E0,0E0,0E0,0E0,0E0,0E0,0E0,0E0,0E0,0E0,0E0,0E0,0E0,0E0],"parents":[2147483647,0,0,1,1,2,2,3,3,4,4,5,5,6,6,7,7,10,10,11,11,12,12,13,13,14,14,16,16,17,17,19,19,20,20,21,21,23,23,24,24,25,25,26,26],"right_children":[2,4,6,8,10,12,14,16,-1,-1,18,20,22,24,26,-1,28,30,-1,32,34,36,-1,38,40,42,44,-1,-1,-1,-1,-1,-1,-1,-1,-1,-1,-1,-1,-1,-1,-1,-1,-1,-1],"split_conditions":[5E-1,2E-1,1.5E0,1.3E0,-1.2E0,1.6E1,1.7E0,-2.5490196E-2,-8.315223E-2,-8.088843E-2,2E0,1.1333333E0,1E-1,1.6E2,1.44E2,-8.273771E-2,5E0,5.4E-1,-8.4019795E-2,2.41E2,6.244998E-1,9.291573E-1,-8.423143E-2,-3.3333335E-2,-1.5789473E-2,4E0,3.4E0,8.093541E-2,5.430026E-2,9.639963E-2,7.988948E-2,8.054377E-2,-9.001731E-2,-6.1540164E-2,4.5458987E-2,-2.7583499E-2,4.4071224E-2,-8.9158155E-2,2.8001234E-2,1.2391444E-2,-6.770965E-2,2.1830615E-2,-4.5493353E-2,5.1666398E-2,-6.969183E-2],"split_indices":[33,46,18,21,43,45,52,55,0,0,15,24,23,11,56,0,30,52,0,56,25,25,0,44,42,45,37,0,0,0,0,0,0,0,0,0,0,0,0,0,0,0,0,0,0],"split_type":[0,0,0,0,0,0,0,0,0,0,0,0,0,0,0,0,0,0,0,0,0,0,0,0,0,0,0,0,0,0,0,0,0,0,0,0,0,0,0,0,0,0,0,0,0],"sum_hessian":[4.683779E4,1.2949822E4,3.3887965E4,3.3915906E3,9.558231E3,5.55548E3,2.8332486E4,3.3307046E3,6.0886017E1,2.1280968E1,9.536951E3,3.2426226E3,2.3128577E3,4.0111365E3,2.432135E4,4.5672096E1,3.2850325E3,9.525646E3,1.130447E1,9.774602E2,2.2651624E3,1.9020554E3,4.1080222E2,2.6756396E3,1.3354968E3,1.3471789E4,1.0849561E4,1.4428032E3,1.8422292E3,8.024053E3,1.501593E3,9.5042474E2,2.7035494E1,3.5746185E2,1.9077006E3,1.1002776E3,8.0177783E2,1.8081366E2,2.4948262E3,3.8629486E2,9.4920197E2,2.069509E3,1.140228E4,2.0895547E2,1.0640605E4],"tree_param":{"num_deleted":"0","num_feature":"57","num_nodes":"45","size_leaf_vector":"1"}},{"base_weights":[-1.099833E-3,1.6152861E0,-6.2147313E-1,1.7900147E0,1.2012467E0,2.978412E-1,-8.341894E-1,-7.764313E-2,1.796764E0,1.2481345E0,-8.118414E-2,7.799288E-1,-3.6730742E-1,-2.2867666E-1,-1.0061122E0,1.8005843E0,-7.983855E-2,1.27766E0,-9.043327E-2,1.2654424E0,4.2221886E-1,-7.9855904E-2,-8.2143955E-2,5.134046E-1,-5.4489183E-1,-5.453017E-1,-1.2189418E0,9.018696E-2,-8.115711E-2,6.493601E-2,-8.998895E-2,6.5983646E-2,-8.687166E-2,7.5112656E-2,-7.6232776E-3,-3.0275691E-2,3.928023E-2,-8.645659E-2,3.5746202E-2,-5.3760856E-2,9.8920136E-5,3.5775997E-2,-3.8663164E-2,-6.2543586E-2,4.0546875E-2],"categories":[],"categories_nodes":[],"categories_segments":[],"categories_sizes":[],"default_left":[0,0,0,0,0,0,0,0,0,0,0,0,0,0,0,0,0,0,0,0,0,0,0,0,0,0,0,0,0,0,0,0,0,0,0,0,0,0,0,0,0,0,0,0,0],"id":3,"left_children":[1,3,5,7,9,11,13,-1,15,17,-1,19,21,23,25,27,-1,29,-1,31,33,35,-1,37,39,41,43,-1,-1,-1,-1,-1,-1,-1,-1,-1,-1,-1,-1,-1,-1,-1,-1,-1,-1],"loss_changes":[4.672861E4,9.328789E2,6.585544E3,2.0780664E2,5.1047852E2,2.0295957E3,2.8467031E3,0E0,1.20447266E2,3.4316064E2,0E0,6.3675977E2,9.752114E2,1.4197189E3,2.0882832E3,1.0078516E2,0E0,2.447998E2,0E0,2.5571045E2,1.3125537E3,9.8854596E2,0E0,8.182663E2,1.2302793E3,1.9352347E3,9.4532227E2,0E0,0E0,0E0,0E0,0E0,0E0,0E0,0E0,0E0,0E0,0E0,0E0,0E0,0E0,0E0,0E0,0E0,0E0],"parents":[2147483647,0,0,1,1,2,2,3,3,4,4,5,5,6,6,8,8,9,9,11,11,12,12,13,13,14,14,15,15,17,17,19,19,20,20,21,21,23,23,24,24,25,25,26,26],"right_children":[2,4,6,8,10,12,14,-1,16,18,-1,20,22,24,26,28,-1,30,-1,32,34,36,-1,38,40,42,44,-1,-1,-1,-1,-1,-1,-1,-1,-1,-1,-1,-1,-1,-1,-1,-1,-1,-1],"split_conditions":[5E-1,3E0,1.6E0,-1.2E0,1.3E0,1.6E1,-5E-1,-7.764313E-2,2E0,1.6772994E0,-8.118414E-2,6E0,1E-1,1.15E2,7.3E1,2.5E0,-7.983855E-2,5E-2,-9.043327E-2,4.72E2,1.1333333E0,9.291573E-1,-8.2143955E-2,-1.4285714E-2,6.928203E-1,4E0,1E0,9.018696E-2,-8.115711E-2,6.493601E-2,-8.998895E-2,6.5983646E-2,-8.687166E-2,7.5112656E-2,-7.6232776E-3,-3.0275691E-2,3.928023E-2,-8.645659E-2,3.5746202E-2,-5.3760856E-2,9.8920136E-5,3.5775997E-2,-3.8663164E-2,-6.2543586E-2,4.0546875E-2],"split_indices":[33,45,18,43,21,45,40,0,15,25,0,30,23,12,56,24,0,43,0,12,24,25,0,44,25,45,41,0,0,0,0,0,0,0,0,0,0,0,0,0,0,0,0,0,0],"split_type":[0,0,0,0,0,0,0,0,0,0,0,0,0,0,0,0,0,0,0,0,0,0,0,0,0,0,0,0,0,0,0,0,0,0,0,0,0,0,0,0,0,0,0,0,0],"sum_hessian":[4.6597863E4,1.2923643E4,3.3674223E4,9.085955E3,3.837687E3,6.327541E3,2.734668E4,1.7845776E1,9.068109E3,3.7755789E3,6.210831E1,3.6685037E3,2.6590374E3,6.0479854E3,2.1298695E4,9.058382E3,9.72816E0,3.740036E3,3.5542805E1,1.5551659E3,2.1133376E3,2.1708877E3,4.8814948E2,1.80693E3,4.241055E3,6.7302246E3,1.4568471E4,9.050515E3,7.866776E0,3.7151892E3,2.4846664E1,1.5281292E3,2.7036724E1,7.3340247E2,1.3799353E3,1.3507675E3,8.201203E2,1.4836154E2,1.6585685E3,2.152607E3,2.0884482E3,1.0302007E3,5.700024E3,1.4343235E4,2.2523488E2],"tree_param":{"num_deleted":"0","num_feature":"57","num_nodes":"45","size_leaf_vector":"1"}},{"base_weights":[-1.1682106E-3,1.5429358E0,-5.948339E-1,1.1068597E0,1.6986792E0,3.5718834E-1,-7.8375596E-1,1.1543634E0,-7.795888E-2,-7.6472744E-2,1.7058907E0,7.7342993E-1,-2.3090906E-1,-2.2514726E-1,-9.77066E-1,-8.0837175E-2,1.1929199E0,1.7590629E0,1.4234595E0,9.290791E-1,-3.6379713E-1,5.0781988E-2,-7.8958824E-2,1.9537069E-1,-1.2007791E0,-9.844223E-2,-1.1026338E0,7.390451E-2,4.84776E-2,8.802747E-2,-8.288678E-2,7.495487E-2,-8.5955106E-2,-8.811241E-2,4.9732458E-2,-5.5267658E-2,7.53833E-2,-6.157459E-2,2.115955E-2,-2.3750355E-2,2.7484868E-2,-7.65786E-2,-7.4457604E-4,2.6878646E-2,-3.3874944E-2,4.5243252E-2,-5.6766886E-2],"categories":[],"categories_nodes":[],"categories_segments":[],"categories_sizes":[],"default_left":[0,0,0,0,0,0,0,0,0,0,0,0,0,0,0,0,0,0,0,0,0,0,0,0,0,0,0,0,0,0,0,0,0,0,0,0,0,0,0,0,0,0,0,0,0,0,0],"id":4,"left_children":[1,3,5,7,9,11,13,15,-1,-1,17,19,21,23,25,-1,27,29,31,33,35,37,-1,39,41,43,45,-1,-1,-1,-1,-1,-1,-1,-1,-1,-1,-1,-1,-1,-1,-1,-1,-1,-1,-1,-1],"loss_changes":[4.2435477E4,8.712207E2,6.014175E3,4.3061914E2,2.2308008E2,1.3556577E3,3.0126172E3,3.574253E2,0E0,0E0,1.3941016E2,5.743115E2,8.719629E2,2.9436143E3,2.2866777E3,0E0,2.0763281E2,4.3289062E1,3.5971045E2,5.0514136E2,5.4443146E2,9.077795E2,0E0,1.1913047E3,8.477041E2,9.553098E2,1.1916758E3,0E0,0E0,0E0,0E0,0E0,0E0,0E0,0E0,0E0,0E0,0E0,0E0,0E0,0E0,0E0,0E0,0E0,0E0,0E0,0E0],"parents":[2147483647,0,0,1,1,2,2,3,3,4,4,5,5,6,6,7,7,10,10,11,11,12,12,13,13,14,14,16,16,17,17,18,18,19,19,20,20,21,21,23,23,24,24,25,25,26,26],"right_children":[2,4,6,8,10,12,14,16,-1,-1,18,20,22,24,26,-1,28,30,32,34,36,38,-1,40,42,44,46,-1,-1,-1,-1,-1,-1,-1,-1,-1,-1,-1,-1,-1,-1,-1,-1,-1,-1,-1,-1],"split_conditions":[5E-1,2E-1,1.5E0,1.3E0,-1.2E0,1.6E1,6E0,-2.5490196E-2,-7.795888E-2,-7.6472744E-2,5.4E-1,2.91E2,1E-1,6E1,-2.6570049E-3,-8.0837175E-2,5E0,7.766667E0,2.9E0,5E2,4.9816E2,7.4E0,-7.8958824E-2,3E0,2E-2,1.62E0,1.4333333E0,7.390451E-2,4.84776E-2,8.802747E-2,-8.288678E-2,7.495487E-2,-8.5955106E-2,-8.811241E-2,4.9732458E-2,-5.5267658E-2,7.53833E-2,-6.157459E-2,2.115955E-2,-2.3750355E-2,2.7484868E-2,-7.65786E-2,-7.4457604E-4,2.6878646E-2,-3.3874944E-2,4.5243252E-2,-5.6766886E-2],"split_indices":[33,46,18,21,43,45,30,55,0,0,52,12,23,45,55,0,30,22,19,13,11,17,0,30,44,52,24,0,0,0,0,0,0,0,0,0,0,0,0,0,0,0,0,0,0,0,0],"split_type":[0,0,0,0,0,0,0,0,0,0,0,0,0,0,0,0,0,0,0,0,0,0,0,0,0,0,0,0,0,0,0,0,0,0,0,0,0,0,0,0,0,0,0,0,0,0,0],"sum_hessian":[4.629049E4,1.2854577E4,3.343591E4,3.3849458E3,9.469631E3,5.536302E3,2.789961E4,3.3262454E3,5.8700436E1,2.0637001E1,9.448994E3,3.241634E3,2.2946677E3,7.173238E3,2.0726371E4,4.5083736E1,3.2811616E3,7.947517E3,1.5014773E3,2.8515352E3,3.9009888E2,1.898897E3,3.9577075E2,5.0132295E3,2.160008E3,2.591926E3,1.8134445E4,1.4387347E3,1.842427E3,7.9445454E3,2.9715173E0,1.4666985E3,3.4778736E1,6.720548E1,2.7843296E3,2.796848E2,1.1041406E2,4.2685358E2,1.4720433E3,1.733378E3,3.2798516E3,1.6886754E3,4.7133273E2,1.2352467E3,1.3566793E3,2.9026282E2,1.7844182E4],"tree_param":{"num_deleted":"0","num_feature":"57","num_nodes":"47","size_leaf_vector":"1"}},{"base_weights":[-1.2158885E-3,1.4786365E0,-5.699502E-1,1.0557325E0,1.6306187E0,3.4023112E-1,-7.516762E-1,1.1007352E0,-7.5771295E-2,-7.428556E-2,1.6375141E0,4.501325E-1,-1.7225446E0,-2.149038E-1,-9.3876E-1,-7.833138E-2,1.1373008E0,1.6895214E0,1.3622491E0,5.1861185E-1,-8.755057E-2,-8.9657046E-2,-7.596558E-2,1.8548211E-1,-1.1571552E0,-9.381765E-2,-1.060695E0,5.1082387E-3,5.9875418E-2,8.454852E-2,-7.939628E-2,7.172476E-2,-8.286117E-2,-5.2296616E-2,3.0038027E-2,-1.6903322E-2,3.0268535E-2,-7.408115E-2,-7.0751895E-4,-8.411344E-2,6.6669765E-3,4.2827114E-2,-5.4621793E-2],"categories":[],"categories_nodes":[],"categories_segments":[],"categories_sizes":[],"default_left":[0,0,0,0,0,0,0,0,0,0,0,0,0,0,0,0,0,0,0,0,0,0,0,0,0,0,0,0,0,0,0,0,0,0,0,0,0,0,0,0,0,0,0],"id":5,"left_children":[1,3,5,7,9,11,13,15,-1,-1,17,19,21,23,25,-1,27,29,31,33,-1,-1,-1,35,37,39,41,-1,-1,-1,-1,-1,-1,-1,-1,-1,-1,-1,-1,-1,-1,-1,-1],"loss_changes":[3.8642566E4,8.175488E2,5.4861455E3,3.919126E2,2.0388867E2,1.2523093E3,2.7761553E3,3.2512573E2,0E0,0E0,1.3161914E2,7.910742E2,1.2852173E0,2.6964468E3,2.1121074E3,0E0,2.0373291E2,4.002539E1,3.2779053E2,6.5414844E2,0E0,0E0,0E0,1.1029758E3,7.904387E2,9.3352734E2,1.0911895E3,0E0,0E0,0E0,0E0,0E0,0E0,0E0,0E0,0E0,0E0,0E0,0E0,0E0,0E0,0E0,0E0],"parents":[2147483647,0,0,1,1,2,2,3,3,4,4,5,5,6,6,7,7,10,10,11,11,12,12,13,13,14,14,16,16,17,17,18,18,19,19,23,23,24,24,25,25,26,26],"right_children":[2,4,6,8,10,12,14,16,-1,-1,18,20,22,24,26,-1,28,30,32,34,-1,-1,-1,36,38,40,42,-1,-1,-1,-1,-1,-1,-1,-1,-1,-1,-1,-1,-1,-1,-1,-1],"split_conditions":[5E-1,2E-1,1.5E0,1.3E0,-1.2E0,1.74E2,6E0,-2.5490196E-2,-7.5771295E-2,-7.428556E-2,5.4E-1,2E-1,1E-1,6E1,-2.6570049E-3,-7.833138E-2,7.266667E0,7.766667E0,2.9E0,-1E-1,-8.755057E-2,-8.9657046E-2,-7.596558E-2,4.7258157E-1,2E-2,-1.4285714E-2,1.4333333E0,5.1082387E-3,5.9875418E-2,8.454852E-2,-7.939628E-2,7.172476E-2,-8.286117E-2,-5.2296616E-2,3.0038027E-2,-1.6903322E-2,3.0268535E-2,-7.408115E-2,-7.0751895E-4,-8.411344E-2,6.6669765E-3,4.2827114E-2,-5.4621793E-2],"split_indices":[33,46,18,21,43,45,30,55,0,0,52,28,23,45,55,0,22,22,19,39,0,0,0,25,44,44,24,0,0,0,0,0,0,0,0,0,0,0,0,0,0,0,0],"split_type":[0,0,0,0,0,0,0,0,0,0,0,0,0,0,0,0,0,0,0,0,0,0,0,0,0,0,0,0,0,0,0,0,0,0,0,0,0,0,0,0,0,0,0],"sum_hessian":[4.591125E4,1.2745564E4,3.3165688E4,3.3716343E3,9.373931E3,5.5196157E3,2.764607E4,3.3141982E3,5.7436226E1,2.0222298E1,9.353708E3,5.241157E3,2.7845862E2,7.145802E3,2.050027E4,4.4252556E1,3.2699456E3,7.862976E3,1.4907318E3,5.083761E3,1.5739557E2,2.0086255E2,7.759606E1,5.0154263E3,2.1303755E3,2.585559E3,1.791471E4,1.7988657E2,3.090059E3,7.859986E3,2.990471E0,1.4564097E3,3.4322136E1,2.5302869E2,4.830733E3,2.2322654E3,2.783161E3,1.6591047E3,4.7127078E2,3.22687E2,2.262872E3,2.9133328E2,1.7623377E4],"tree_param":{"num_deleted":"0","num_feature":"57","num_nodes":"43","size_leaf_vector":"1"}},{"base_weights":[-1.2469038E-3,1.4207588E0,-5.462016E-1,1.5836507E0,1.0415549E0,2.5762856E-1,-7.3605853E-1,-7.1213715E-2,1.5895442E0,1.1709485E0,2.1432264E-1,6.8895376E-1,-3.4301585E-1,-1.8281533E-1,-8.971753E-1,1.593235E0,-8.058267E-2,1.5011019E0,9.60276E-1,-6.598229E-1,1.3146876E0,1.1465616E0,3.5084528E-1,-7.680217E-1,4.0333685E-1,4.4040805E-1,-5.7779396E-1,-1.0285869E0,-3.2637504E-1,7.980454E-2,-7.629619E-2,7.6356344E-2,-8.593044E-2,-1.0200013E-1,5.206811E-2,6.0950138E-2,-9.814282E-2,-9.7087495E-2,8.43189E-2,7.284435E-2,3.2394078E-2,3.0658055E-2,-9.153767E-2,-5.905554E-3,-6.3373365E-2,-8.302969E-2,3.7606485E-2,3.0389769E-2,-8.147407E-2,-5.047933E-2,2.3760194E-2,-2.815648E-2,-6.0232896E-2,2.1533607E-2,-4.0354382E-2],"categories":[],"categories_nodes":[],"categories_segments":[],"categories_sizes":[],"default_left":[0,0,0,0,0,0,0,0,0,0,0,0,0,0,0,0,0,0,0,0,0,0,0,0,0,0,0,0,0,0,0,0,0,0,0,0,0,0,0,0,0,0,0,0,0,0,0,0,0,0,0,0,0,0,0],"id":6,"left_children":[1,3,5,7,9,11,13,-1,15,17,19,21,23,25,27,29,-1,31,33,35,37,39,41,43,45,47,49,51,53,-1,-1,-1,-1,-1,-1,-1,-1,-1,-1,-1,-1,-1,-1,-1,-1,-1,-1,-1,-1,-1,-1,-1,-1,-1,-1],"loss_changes":[3.5259496E4,7.7701953E2,5.0202725E3,1.5854492E2,4.055161E2,1.6286708E3,2.3717314E3,0E0,1.0653516E2,2.2654883E2,4.9525064E2,5.6569055E2,8.3386694E2,1.4779017E3,1.5454531E3,8.0734375E1,0E0,1.0946777E2,4.896101E2,7.052561E2,2.7909644E2,2.3957654E2,1.2060752E3,5.4345306E2,6.881001E2,8.079812E2,1.6712506E3,1.3721113E3,1.4043608E3,0E0,0E0,0E0,0E0,0E0,0E0,0E0,0E0,0E0,0E0,0E0,0E0,0E0,0E0,0E0,0E0,0E0,0E0,0E0,0E0,0E0,0E0,0E0,0E0,0E0,0E0],"parents":[2147483647,0,0,1,1,2,2,3,3,4,4,5,5,6,6,8,8,9,9,10,10,11,11,12,12,13,13,14,14,15,15,17,17,18,18,19,19,20,20,21,21,22,22,23,23,24,24,25,25,26,26,27,27,28,28],"right_children":[2,4,6,8,10,12,14,-1,16,18,20,22,24,26,28,30,-1,32,34,36,38,40,42,44,46,48,50,52,54,-1,-1,-1,-1,-1,-1,-1,-1,-1,-1,-1,-1,-1,-1,-1,-1,-1,-1,-1,-1,-1,-1,-1,-1,-1,-1],"split_conditions":[5E-1,3E0,1.6E0,-1.2E0,6.666667E-1,1.6E1,8.7E1,-7.1213715E-2,2E0,9.6666664E-1,1E0,6E0,9.291573E-1,1.9E0,6.8068594E-1,2.5E0,-8.058267E-2,5E-2,7.266667E0,4.2E1,-1.125E-1,2.0578E2,2.2E2,1.4333333E0,7.366667E0,1.16E2,7E0,6.3E1,1.3E0,7.980454E-2,-7.629619E-2,7.6356344E-2,-8.593044E-2,-1.0200013E-1,5.206811E-2,6.0950138E-2,-9.814282E-2,-9.7087495E-2,8.43189E-2,7.284435E-2,3.2394078E-2,3.0658055E-2,-9.153767E-2,-5.905554E-3,-6.3373365E-2,-8.302969E-2,3.7606485E-2,3.0389769E-2,-8.147407E-2,-5.047933E-2,2.3760194E-2,-2.815648E-2,-6.0232896E-2,2.1533607E-2,-4.0354382E-2],"split_indices":[33,45,18,43,26,45,11,0,15,24,8,30,25,33,25,24,0,43,22,11,43,12,56,24,22,45,29,56,33,0,0,0,0,0,0,0,0,0,0,0,0,0,0,0,0,0,0,0,0,0,0,0,0,0,0],"split_type":[0,0,0,0,0,0,0,0,0,0,0,0,0,0,0,0,0,0,0,0,0,0,0,0,0,0,0,0,0,0,0,0,0,0,0,0,0,0,0,0,0,0,0,0,0,0,0,0,0,0,0,0,0,0,0],"sum_hessian":[4.549831E4,1.2605053E4,3.2893254E4,8.815196E3,3.789856E3,6.284619E3,2.6608635E4,1.6767221E1,8.79843E3,3.2768796E3,5.129764E2,3.657795E3,2.6268242E3,6.001794E3,2.0606842E4,8.788799E3,9.630847E0,1.2740845E3,2.002795E3,2.8609714E2,2.2687927E2,1.5532205E3,2.1045745E3,1.6737109E3,9.531133E2,2.3281577E3,3.6736362E3,1.6749836E4,3.8570051E3,8.781247E3,7.5515075E0,1.26439E3,9.694417E0,5.206787E1,1.9507272E3,1.1718878E2,1.6890836E2,2.2810322E1,2.0406894E2,9.5623816E2,5.9698236E2,1.8793231E3,2.2525122E2,7.2783795E2,9.4587305E2,1.3724213E2,8.1587115E2,2.1546245E3,1.7353328E2,2.6053337E3,1.0683025E3,4.598239E3,1.2151598E4,1.4979974E3,2.3590076E3],"tree_param":{"num_deleted":"0","num_feature":"57","num_nodes":"55","size_leaf_vector":"1"}},{"base_weights":[-1.255053E-3,1.3681587E0,-5.237343E-1,1.5290768E0,9.9678195E-1,6.167421E-1,-6.491004E-1,-6.946601E-2,1.5347513E0,1.1206276E0,2.0504978E-1,9.760738E-1,-3.7327495E-1,-8.6712664E-1,-4.1565206E-2,1.5383295E0,-7.7836744E-2,-8.8293724E-2,1.1440121E0,-6.307101E-1,1.2602344E0,1.0867568E0,-6.328586E-1,1.1897984E0,-1.3492715E0,-6.2990683E-1,-1.1607482E0,1.9777763E-1,-8.276754E-1,7.8967854E-2,6.4974226E-2,7.275071E-2,4.7255963E-2,5.8222413E-2,-9.3872875E-2,-9.271512E-2,8.090016E-2,-8.560964E-2,5.721405E-2,7.783129E-2,-8.757728E-2,8.7452106E-2,-8.2377695E-2,-8.46343E-2,8.669699E-2,1.7183935E-2,-3.8560707E-2,-3.713093E-2,-6.763053E-2,2.1342952E-2,-2.1130921E-2,-9.406369E-3,-7.300209E-2],"categories":[],"categories_nodes":[],"categories_segments":[],"categories_sizes":[],"default_left":[0,0,0,0,0,0,0,0,0,0,0,0,0,0,0,0,0,0,0,0,0,0,0,0,0,0,0,0,0,0,0,0,0,0,0,0,0,0,0,0,0,0,0,0,0,0,0,0,0,0,0,0,0],"id":7,"left_children":[1,3,5,7,9,11,13,-1,15,17,19,21,23,25,27,29,-1,-1,31,33,35,37,39,41,43,45,47,49,51,-1,-1,-1,-1,-1,-1,-1,-1,-1,-1,-1,-1,-1,-1,-1,-1,-1,-1,-1,-1,-1,-1,-1,-1],"loss_changes":[3.2230467E4,7.419297E2,4.6623486E3,1.4583984E2,3.6881494E2,1.1493346E3,3.8912666E3,0E0,9.820508E1,2.2169043E2,4.5084183E2,4.2273218E2,1.3148165E3,1.5050928E3,1.4601094E3,8.272656E1,0E0,0E0,1.9834961E2,6.4102905E2,2.5470331E2,3.5903833E2,3.7790283E2,5.2876776E2,5.645224E2,1.6456855E3,7.739385E2,8.456894E2,7.3225574E2,0E0,0E0,0E0,0E0,0E0,0E0,0E0,0E0,0E0,0E0,0E0,0E0,0E0,0E0,0E0,0E0,0E0,0E0,0E0,0E0,0E0,0E0,0E0,0E0],"parents":[2147483647,0,0,1,1,2,2,3,3,4,4,5,5,6,6,8,8,9,9,10,10,11,11,12,12,13,13,14,14,15,15,18,18,19,19,20,20,21,21,22,22,23,23,24,24,25,25,26,26,27,27,28,28],"right_children":[2,4,6,8,10,12,14,-1,16,18,20,22,24,26,28,30,-1,-1,32,34,36,38,40,42,44,46,48,50,52,-1,-1,-1,-1,-1,-1,-1,-1,-1,-1,-1,-1,-1,-1,-1,-1,-1,-1,-1,-1,-1,-1,-1,-1],"split_conditions":[5E-1,3E0,1.5E0,-1.2E0,6.666667E-1,2.3E1,7.023769E-1,-6.946601E-2,2E0,7.56E0,1E0,3.5E2,1E0,1.44E2,1.605E2,5.4E-1,-7.7836744E-2,-8.8293724E-2,9.6666664E-1,4.2E1,-1.125E-1,5E2,4E-1,2.8430316E-8,2.5E0,4E0,8E2,5E-1,8.660254E-1,7.8967854E-2,6.4974226E-2,7.275071E-2,4.7255963E-2,5.8222413E-2,-9.3872875E-2,-9.271512E-2,8.090016E-2,-8.560964E-2,5.721405E-2,7.783129E-2,-8.757728E-2,8.7452106E-2,-8.2377695E-2,-8.46343E-2,8.669699E-2,1.7183935E-2,-3.8560707E-2,-3.713093E-2,-6.763053E-2,2.1342952E-2,-2.1130921E-2,-9.406369E-3,-7.300209E-2],"split_indices":[33,45,24,43,26,45,25,0,15,12,8,12,32,56,11,52,0,0,24,11,43,13,19,23,19,45,13,21,25,0,0,0,0,0,0,0,0,0,0,0,0,0,0,0,0,0,0,0,0,0,0,0,0],"split_type":[0,0,0,0,0,0,0,0,0,0,0,0,0,0,0,0,0,0,0,0,0,0,0,0,0,0,0,0,0,0,0,0,0,0,0,0,0,0,0,0,0,0,0,0,0,0,0,0,0,0,0,0,0],"sum_hessian":[4.5044684E4,1.2439428E4,3.2605256E4,8.676689E3,3.762738E3,3.2287617E3,2.9376494E4,1.636497E1,8.660324E3,3.2534116E3,5.0932626E2,2.3689524E3,8.5980927E2,2.161801E4,7.7584834E3,8.650814E3,9.510353E0,2.554626E1,3.2278655E3,2.8443863E2,2.2488762E2,2.2167786E3,1.5217398E2,3.3041904E2,5.293902E2,1.19592E4,9.658811E3,5.948211E3,1.8102721E3,7.37787E3,1.2729441E3,1.2566185E3,1.971247E3,1.16606316E2,1.6783232E2,2.2740301E1,2.0214732E2,4.4062653E1,2.1727158E3,5.1326576E1,1.00847404E2,2.7633655E2,5.4082504E1,4.767408E2,5.264938E1,1.5155889E3,1.0443611E4,3.039543E3,6.6192676E3,4.344365E3,1.603846E3,9.006704E2,9.096017E2],"tree_param":{"num_deleted":"0","num_feature":"57","num_nodes":"53","size_leaf_vector":"1"}},{"base_weights":[-1.2398942E-3,1.320331E0,-5.0223714E-1,1.4799521E0,9.554268E-1,4.0973124E-1,-6.4693356E-1,-6.786423E-2,1.4854316E0,1.073924E0,1.9672999E-1,5.021791E-1,-8.107101E-2,6.610151E-2,-7.8265625E-1,1.4889089E0,-7.5356364E-2,1.2423971E0,6.9220704E-1,-6.046443E-1,1.2117113E0,5.791226E-1,-8.9489E-2,8.6428577E-1,-2.5357598E-1,-5.067111E-1,-1.1383909E0,7.650255E-2,6.254551E-2,6.3494585E-2,-1.0968178E-1,4.387128E-2,-1.070004E-1,5.5697914E-2,-9.013088E-2,-8.8880345E-2,7.784865E-2,3.1999204E-2,-8.402042E-2,-8.7273404E-2,4.837438E-2,-4.3722857E-2,2.2417827E-2,7.9395453E-4,-4.455603E-2,5.0989337E-2,-5.9167784E-2],"categories":[],"categories_nodes":[],"categories_segments":[],"categories_sizes":[],"default_left":[0,0,0,0,0,0,0,0,0,0,0,0,0,0,0,0,0,0,0,0,0,0,0,0,0,0,0,0,0,0,0,0,0,0,0,0,0,0,0,0,0,0,0,0,0,0,0],"id":8,"left_children":[1,3,5,7,9,11,13,-1,15,17,19,21,-1,23,25,27,-1,29,31,33,35,37,-1,39,41,43,45,-1,-1,-1,-1,-1,-1,-1,-1,-1,-1,-1,-1,-1,-1,-1,-1,-1,-1,-1,-1],"loss_changes":[2.9509809E4,7.1219727E2,4.2649287E3,1.3449414E2,3.3523315E2,8.319401E2,2.6994014E3,0E0,9.075391E1,2.0665991E2,4.1169672E2,7.4775146E2,0E0,1.1385526E3,2.299664E3,8.127539E1,0E0,2.1417114E2,5.2140283E2,5.8466785E2,2.3318408E2,5.645525E2,0E0,3.453595E2,1.3889965E3,2.6513713E3,9.9449414E2,0E0,0E0,0E0,0E0,0E0,0E0,0E0,0E0,0E0,0E0,0E0,0E0,0E0,0E0,0E0,0E0,0E0,0E0,0E0,0E0],"parents":[2147483647,0,0,1,1,2,2,3,3,4,4,5,5,6,6,8,8,9,9,10,10,11,11,13,13,14,14,15,15,17,17,18,18,19,19,20,20,21,21,23,23,24,24,25,25,26,26],"right_children":[2,4,6,8,10,12,14,-1,16,18,20,22,-1,24,26,28,-1,30,32,34,36,38,-1,40,42,44,46,-1,-1,-1,-1,-1,-1,-1,-1,-1,-1,-1,-1,-1,-1,-1,-1,-1,-1,-1,-1],"split_conditions":[5E-1,3E0,1.3E0,-1.2E0,6.666667E-1,1.74E2,1.7E0,-6.786423E-2,2E0,1.4333333E0,1E0,2E0,-8.107101E-2,4E0,1.44E2,5.4E-1,-7.5356364E-2,7.633333E0,9E0,4.2E1,-1.125E-1,2E-1,-8.9489E-2,2E-1,2.5E0,2.5E1,3.4E0,7.650255E-2,6.254551E-2,6.3494585E-2,-1.0968178E-1,4.387128E-2,-1.070004E-1,5.5697914E-2,-9.013088E-2,-8.8880345E-2,7.784865E-2,3.1999204E-2,-8.402042E-2,-8.7273404E-2,4.837438E-2,-4.3722857E-2,2.2417827E-2,7.9395453E-4,-4.455603E-2,5.0989337E-2,-5.9167784E-2],"split_indices":[33,45,18,43,26,45,52,0,15,24,8,27,0,45,56,52,0,22,30,11,43,28,0,26,19,45,37,0,0,0,0,0,0,0,0,0,0,0,0,0,0,0,0,0,0,0,0],"split_type":[0,0,0,0,0,0,0,0,0,0,0,0,0,0,0,0,0,0,0,0,0,0,0,0,0,0,0,0,0,0,0,0,0,0,0,0,0,0,0,0,0,0,0,0,0,0,0],"sum_hessian":[4.4567785E4,1.2250581E4,3.2317205E4,8.520415E3,3.7301655E3,4.4251665E3,2.7892037E4,1.5947846E1,8.504468E3,3.225911E3,5.0425473E2,4.2332437E3,1.9192326E2,4.4602266E3,2.343181E4,8.495099E3,9.36869E0,2.236544E3,9.893668E2,2.8200397E2,2.2225076E2,4.096468E3,1.3677551E2,1.2750142E3,3.1852126E3,1.31971455E4,1.0234665E4,7.238393E3,1.2567057E3,2.219415E3,1.7128984E1,9.2928455E2,6.008226E1,1.1586094E2,1.6614302E2,2.258225E1,1.9966852E2,3.9897197E3,1.06748116E2,4.7896683E1,1.2271174E3,1.690058E3,1.4951547E3,5.5936914E3,7.603454E3,2.0844061E2,1.0026225E4],"tree_param":{"num_deleted":"0","num_feature":"57","num_nodes":"47","size_leaf_vector":"1"}},{"base_weights":[-1.226063E-3,1.276555E0,-4.8186278E-1,1.435432E0,9.170366E-1,5.801107E-1,-5.9999186E-1,-6.63905E-2,1.4407363E0,1.0303882E0,1.8920906E-1,9.128291E-1,-3.44138E-1,-8.0651563E-1,-3.4863416E-2,1.4843009E0,1.1917096E0,1.4854048E0,8.908062E-1,-1.753576E0,5.8281744E-1,4.9148998E-1,1.3140917E0,1.1471752E0,-1.2943252E0,-5.827674E-1,-1.088742E0,1.8978806E-1,-7.8161037E-1,-9.834885E-2,7.429085E-2,6.261325E-2,-8.458228E-2,7.5541906E-2,-1.00832835E-1,-1.0392232E-1,4.8577126E-2,-9.415332E-2,-6.8393014E-2,4.5088403E-2,-8.666921E-2,5.6816675E-2,-1.8866567E-2,7.1752705E-2,-4.913492E-3,8.3543375E-2,-7.918016E-2,-8.1297465E-2,8.134832E-2,1.598511E-2,-3.582651E-2,-3.3618912E-2,-6.410646E-2,6.673146E-2,3.7058627E-3,4.422425E-2,-5.0890524E-2],"categories":[],"categories_nodes":[],"categories_segments":[],"categories_sizes":[],"default_left":[0,0,0,0,0,0,0,0,0,0,0,0,0,0,0,0,0,0,0,0,0,0,0,0,0,0,0,0,0,0,0,0,0,0,0,0,0,0,0,0,0,0,0,0,0,0,0,0,0,0,0,0,0,0,0,0,0],"id":9,"left_children":[1,3,5,7,9,11,13,-1,15,17,19,21,23,25,27,29,31,33,35,37,39,41,43,45,47,49,51,53,55,-1,-1,-1,-1,-1,-1,-1,-1,-1,-1,-1,-1,-1,-1,-1,-1,-1,-1,-1,-1,-1,-1,-1,-1,-1,-1,-1,-1],"loss_changes":[2.706058E4,6.866074E2,4.0170405E3,1.243125E2,3.0455225E2,9.860708E2,3.3628916E3,0E0,8.865625E1,2.0165552E2,3.8259695E2,3.9790125E2,1.2048754E3,1.3319082E3,1.2940146E3,4.0021484E1,2.196958E2,6.9736084E1,5.889082E2,1.6354065E0,3.086449E2,6.455571E2,2.0631934E2,4.7605832E2,5.0562994E2,1.4213801E3,7.5041797E2,7.8515607E2,7.029149E2,0E0,0E0,0E0,0E0,0E0,0E0,0E0,0E0,0E0,0E0,0E0,0E0,0E0,0E0,0E0,0E0,0E0,0E0,0E0,0E0,0E0,0E0,0E0,0E0,0E0,0E0,0E0,0E0],"parents":[2147483647,0,0,1,1,2,2,3,3,4,4,5,5,6,6,8,8,9,9,10,10,11,11,12,12,13,13,14,14,15,15,16,16,17,17,18,18,19,19,20,20,21,21,22,22,23,23,24,24,25,25,26,26,27,27,28,28],"right_children":[2,4,6,8,10,12,14,-1,16,18,20,22,24,26,28,30,32,34,36,38,40,42,44,46,48,50,52,54,56,-1,-1,-1,-1,-1,-1,-1,-1,-1,-1,-1,-1,-1,-1,-1,-1,-1,-1,-1,-1,-1,-1,-1,-1,-1,-1,-1,-1],"split_conditions":[5E-1,3E0,1.5E0,-1.2E0,6.666667E-1,2.3E1,7.023769E-1,-6.63905E-2,5.4E-1,7E-1,2E0,5.7735026E-1,1E0,1.44E2,1.605E2,3E0,2.9E0,1E0,7.266667E0,1.3E0,8E0,0E0,6.333333E-1,2.8430316E-8,2.5E0,4E0,8E2,7E0,1.6666666E0,-9.834885E-2,7.429085E-2,6.261325E-2,-8.458228E-2,7.5541906E-2,-1.00832835E-1,-1.0392232E-1,4.8577126E-2,-9.415332E-2,-6.8393014E-2,4.5088403E-2,-8.666921E-2,5.6816675E-2,-1.8866567E-2,7.1752705E-2,-4.913492E-3,8.3543375E-2,-7.918016E-2,-8.1297465E-2,8.134832E-2,1.598511E-2,-3.582651E-2,-3.3618912E-2,-6.410646E-2,6.673146E-2,3.7058627E-3,4.422425E-2,-5.0890524E-2],"split_indices":[33,45,24,43,26,45,25,0,52,19,32,25,32,56,11,56,19,9,22,21,30,41,26,23,19,45,13,12,24,0,0,0,0,0,0,0,0,0,0,0,0,0,0,0,0,0,0,0,0,0,0,0,0,0,0,0,0],"split_type":[0,0,0,0,0,0,0,0,0,0,0,0,0,0,0,0,0,0,0,0,0,0,0,0,0,0,0,0,0,0,0,0,0,0,0,0,0,0,0,0,0,0,0,0,0,0,0,0,0,0,0,0,0,0,0,0,0],"sum_hessian":[4.405995E4,1.2042663E4,3.2017285E4,8.349772E3,3.6928904E3,3.204561E3,2.8812725E4,1.5519816E1,8.334253E3,3.1949019E3,4.9798874E2,2.3563247E3,8.482362E2,2.1101021E4,7.7117046E3,7.0891245E3,1.2451287E3,7.477396E2,2.447162E3,8.331327E1,4.1467545E2,1.1504932E3,1.2058315E3,3.3003732E2,5.181989E2,1.17716E4,9.329421E3,5.9288223E3,1.7828821E3,2.5436046E0,7.0865806E3,1.2200708E3,2.5057875E1,7.429129E2,4.8267136E0,6.4123856E1,2.3830383E3,5.9467247E1,2.3846022E1,3.650212E2,4.965426E1,6.6018945E2,4.9030374E2,1.11069E3,9.514161E1,2.7725513E2,5.2782185E1,4.6576846E2,5.243046E1,1.5193654E3,1.0252234E4,2.9603152E3,6.3691055E3,5.43091E2,5.3857314E3,2.210323E2,1.5618499E3],"tree_param":{"num_deleted":"0","num_feature":"57","num_nodes":"57","size_leaf_vector":"1"}},{"base_weights":[-1.1880728E-3,1.2360293E0,-4.6243662E-1,1.3950064E0,8.804895E-1,1.5938042E-1,-6.481621E-1,-6.502961E-2,1.4001535E0,9.896856E-1,1.808361E-1,6.9519246E-1,-2.7211684E-1,-1.4556068E-1,-8.2445073E-1,1.4439877E0,1.151293E0,-8.796828E-2,1.0124868E0,-5.768585E-1,1.1448362E0,8.813528E-1,-7.563439E-1,-7.2625595E-1,2.0961809E-1,1.409757E-1,-1.2007687E0,-1.0369037E-1,-9.357888E-1,-9.315894E-2,7.227504E-2,6.003627E-2,-1.1821717E-1,5.1511116E-2,-1.1329037E-1,5.224802E-2,-8.572989E-2,-8.403803E-2,7.370586E-2,4.6796422E-2,-9.29341E-2,-8.790683E-2,4.181203E-2,-7.1788416E-3,-7.025631E-2,2.0942839E-2,-7.850399E-2,1.664587E-2,-4.551401E-2,-6.6538624E-2,9.107011E-2,-7.872832E-2,5.3387033E-3,5.4704428E-2,-4.8234634E-2],"categories":[],"categories_nodes":[],"categories_segments":[],"categories_sizes":[],"default_left":[0,0,0,0,0,0,0,0,0,0,0,0,0,0,0,0,0,0,0,0,0,0,0,0,0,0,0,0,0,0,0,0,0,0,0,0,0,0,0,0,0,0,0,0,0,0,0,0,0,0,0,0,0,0,0],"id":10,"left_children":[1,3,5,7,9,11,13,-1,15,17,19,21,23,25,27,29,31,-1,33,35,37,39,41,43,45,47,49,51,53,-1,-1,-1,-1,-1,-1,-1,-1,-1,-1,-1,-1,-1,-1,-1,-1,-1,-1,-1,-1,-1,-1,-1,-1,-1,-1],"loss_changes":[2.4843162E4,6.670039E2,3.6623633E3,1.15143555E2,2.791084E2,1.686585E3,2.163414E3,0E0,8.727051E1,1.9997388E2,3.6202646E2,8.799608E2,8.8422986E2,1.9176967E3,1.4505771E3,3.736035E1,2.1588025E2,0E0,1.8469702E2,5.141613E2,2.0536679E2,4.330979E2,5.9246643E2,8.226981E2,7.311655E2,1.0068815E3,5.3458374E2,7.4930396E2,9.197539E2,0E0,0E0,0E0,0E0,0E0,0E0,0E0,0E0,0E0,0E0,0E0,0E0,0E0,0E0,0E0,0E0,0E0,0E0,0E0,0E0,0E0,0E0,0E0,0E0,0E0,0E0],"parents":[2147483647,0,0,1,1,2,2,3,3,4,4,5,5,6,6,8,8,9,9,10,10,11,11,12,12,13,13,14,14,15,15,16,16,18,18,19,19,20,20,21,21,22,22,23,23,24,24,25,25,26,26,27,27,28,28],"right_children":[2,4,6,8,10,12,14,-1,16,18,20,22,24,26,28,30,32,-1,34,36,38,40,42,44,46,48,50,52,54,-1,-1,-1,-1,-1,-1,-1,-1,-1,-1,-1,-1,-1,-1,-1,-1,-1,-1,-1,-1,-1,-1,-1,-1,-1,-1],"split_conditions":[5E-1,3E0,1.8E0,-1.2E0,6.666667E-1,8E0,6E0,-6.502961E-2,5.4E-1,7.56E0,1E0,2.41E2,7.023769E-1,8.8E1,-2.6570049E-3,3E0,1E0,-8.796828E-2,1.1E1,4.2E1,-1.125E-1,2.5166115E-1,1.25E-2,1.9607843E-4,1.1547005E-1,1E0,2.1E0,-1.4285714E-2,3.3E0,-9.315894E-2,7.227504E-2,6.003627E-2,-1.1821717E-1,5.1511116E-2,-1.1329037E-1,5.224802E-2,-8.572989E-2,-8.403803E-2,7.370586E-2,4.6796422E-2,-9.29341E-2,-8.790683E-2,4.181203E-2,-7.1788416E-3,-7.025631E-2,2.0942839E-2,-7.850399E-2,1.664587E-2,-4.551401E-2,-6.6538624E-2,9.107011E-2,-7.872832E-2,5.3387033E-3,5.4704428E-2,-4.8234634E-2],"split_indices":[33,45,18,43,26,45,30,0,52,12,8,56,25,45,55,56,46,0,29,11,43,23,44,55,23,8,41,44,37,0,0,0,0,0,0,0,0,0,0,0,0,0,0,0,0,0,0,0,0,0,0,0,0,0,0],"split_type":[0,0,0,0,0,0,0,0,0,0,0,0,0,0,0,0,0,0,0,0,0,0,0,0,0,0,0,0,0,0,0,0,0,0,0,0,0,0,0,0,0,0,0,0,0,0,0,0,0,0,0,0,0,0,0],"sum_hessian":[4.353173E4,1.1821357E4,3.1710373E4,8.1667334E3,3.6546238E3,7.2930547E3,2.4417318E4,1.5084352E1,8.151649E3,3.1608848E3,4.9373898E2,3.2530127E3,4.0400417E3,6.340963E3,1.8076355E4,6.926767E3,1.2248821E3,2.5374895E1,3.1355098E3,2.7667596E2,2.17063E2,2.8835842E3,3.6942853E2,2.0793232E3,1.9607185E3,4.987499E3,1.3534636E3,2.4189465E3,1.5657408E4,2.6050875E0,6.924162E3,1.2085475E3,1.6334574E1,3.1193203E3,1.6189657E1,1.1410446E2,1.625715E2,2.2226929E1,1.9483607E2,2.8279165E3,5.5667614E1,2.267136E2,1.4271494E2,1.119586E3,9.5973724E2,1.7551326E3,2.0558589E2,4.218039E3,7.694598E2,1.2981799E3,5.528373E1,3.0198413E2,2.1169624E3,2.1930159E2,1.5438106E4],"tree_param":{"num_deleted":"0","num_feature":"57","num_nodes":"55","size_leaf_vector":"1"}},{"base_weights":[-1.1782106E-3,1.1985648E0,-4.4403955E-1,1.3741316E0,8.759041E-1,5.454877E-1,-5.5519366E-1,-1.1273026E-1,1.3782594E0,9.110832E-1,-1.9527304E0,8.5086155E-1,-3.1129658E-1,-7.515575E-1,-2.7987948E-2,1.3808755E0,-1.1413194E-1,1.3554975E0,7.3927176E-1,-1.09565474E-1,-6.2332433E-2,9.5410687E-1,-6.686791E-1,1.10948E0,-1.2390355E0,-5.318782E-1,-1.032517E0,4.5539457E-1,-3.3939275E-1,6.916767E-2,-1.0192893E-1,6.8767354E-2,-1.0984552E-1,1.795106E-2,4.7349073E-2,5.025216E-2,-9.452374E-2,6.98487E-2,-8.496112E-2,7.983236E-2,-7.599253E-2,-7.806658E-2,7.7085294E-2,1.5753742E-2,-3.299941E-2,-3.1029437E-2,-6.134289E-2,4.5535803E-2,-1.2006507E-2,1.9340435E-3,-6.1383244E-2],"categories":[],"categories_nodes":[],"categories_segments":[],"categories_sizes":[],"default_left":[0,0,0,0,0,0,0,0,0,0,0,0,0,0,0,0,0,0,0,0,0,0,0,0,0,0,0,0,0,0,0,0,0,0,0,0,0,0,0,0,0,0,0,0,0,0,0,0,0,0,0],"id":11,"left_children":[1,3,5,7,9,11,13,-1,15,17,19,21,23,25,27,29,-1,31,33,-1,-1,35,37,39,41,43,45,47,49,-1,-1,-1,-1,-1,-1,-1,-1,-1,-1,-1,-1,-1,-1,-1,-1,-1,-1,-1,-1,-1,-1],"loss_changes":[2.2837246E4,6.5525977E2,3.4533003E3,1.1549512E2,4.0840283E2,8.298848E2,2.921833E3,0E0,7.493359E1,3.0722876E2,5.7776947E0,3.674259E2,1.1005718E3,1.2687051E3,1.1532711E3,6.629004E1,0E0,8.230054E1,2.2977173E2,0E0,0E0,3.1915625E2,3.2026474E2,4.250704E2,4.5496948E2,1.2526428E3,7.215342E2,9.508756E2,1.564898E3,0E0,0E0,0E0,0E0,0E0,0E0,0E0,0E0,0E0,0E0,0E0,0E0,0E0,0E0,0E0,0E0,0E0,0E0,0E0,0E0,0E0,0E0],"parents":[2147483647,0,0,1,1,2,2,3,3,4,4,5,5,6,6,8,8,9,9,10,10,11,11,12,12,13,13,14,14,15,15,17,17,18,18,21,21,22,22,23,23,24,24,25,25,26,26,27,27,28,28],"right_children":[2,4,6,8,10,12,14,-1,16,18,20,22,24,26,28,30,-1,32,34,-1,-1,36,38,40,42,44,46,48,50,-1,-1,-1,-1,-1,-1,-1,-1,-1,-1,-1,-1,-1,-1,-1,-1,-1,-1,-1,-1,-1,-1],"split_conditions":[5E-1,9.6666664E-1,1.5E0,-5.5555557E-3,2.17E2,2.3E1,7.023769E-1,-1.1273026E-1,2.6666668E-1,3.9E-1,1.3E0,3.5E2,1E0,1.44E2,6E0,3.89E2,-1.1413194E-1,7.7E0,-1.3043479E-3,-1.09565474E-1,-6.2332433E-2,7.1428575E-2,4E-1,2.8430316E-8,2.5E0,4E0,8E2,1.7E1,1E-1,6.916767E-2,-1.0192893E-1,6.8767354E-2,-1.0984552E-1,1.795106E-2,4.7349073E-2,5.025216E-2,-9.452374E-2,6.98487E-2,-8.496112E-2,7.983236E-2,-7.599253E-2,-7.806658E-2,7.7085294E-2,1.5753742E-2,-3.299941E-2,-3.1029437E-2,-6.134289E-2,4.5535803E-2,-1.2006507E-2,1.9340435E-3,-6.1383244E-2],"split_indices":[33,24,24,55,45,45,25,0,43,52,21,12,32,56,30,56,0,16,55,0,0,42,19,23,19,45,13,45,23,0,0,0,0,0,0,0,0,0,0,0,0,0,0,0,0,0,0,0,0,0,0],"split_type":[0,0,0,0,0,0,0,0,0,0,0,0,0,0,0,0,0,0,0,0,0,0,0,0,0,0,0,0,0,0,0,0,0,0,0,0,0,0,0,0,0,0,0,0,0,0,0,0,0,0,0],"sum_hessian":[4.2980113E4,1.1587376E4,3.1392736E4,7.5020737E3,4.0853025E3,3.169852E3,2.8222885E4,7.9048E0,7.494169E3,4.035788E3,4.9514393E1,2.3369329E3,8.3291925E2,2.0563387E4,7.659497E3,7.48944E3,4.729003E0,1.1233077E3,2.9124805E3,3.5437035E1,1.4077357E1,2.1886E3,1.4833257E2,3.2895242E2,5.0396683E2,1.1541835E4,9.021552E3,3.0008784E3,4.6586187E3,7.4846113E3,4.828546E0,1.1176754E3,5.632328E0,1.0298606E3,1.8826198E3,2.1507349E3,3.786525E1,4.925292E1,9.907965E1,2.7786234E2,5.1090088E1,4.5201544E2,5.195139E1,1.5162491E3,1.0025586E4,2.893221E3,6.1283306E3,1.8134221E3,1.1874563E3,3.2684365E3,1.3901821E3],"tree_param":{"num_deleted":"0","num_feature":"57","num_nodes":"51","size_leaf_vector":"1"}},{"base_weights":[-1.1434982E-3,1.1625181E0,-4.2651758E-1,1.3245077E0,8.088961E-1,-6.390602E-1,5.157871E-2,-6.4244896E-2,1.3296462E0,8.372944E-1,-8.914464E-2,-4.0995124E-1,-9.9164903E-1,9.5819324E-1,-1.19056754E-1,1.3748146E0,1.077684E0,8.6736006E-1,-6.830072E-2,-4.7728524E-1,1.3312383E0,1.6665758E0,-1.0301552E0,1.1468861E0,-1.7869524E0,1.2704639E-1,-9.5553076E-1,6.8813734E-2,-1.0209079E-1,5.692145E-2,-8.400829E-2,4.4391286E-2,-9.702227E-2,-1.650582E-2,-5.2543607E-2,-7.651555E-2,8.0921106E-2,1.1251845E-1,-7.609849E-2,-5.417027E-2,5.0251186E-2,2.4109531E-2,7.560861E-2,-1.0086986E-1,-7.89148E-2,1.7247021E-2,-2.2904364E-2,-2.3806363E-2,-7.9041325E-2],"categories":[],"categories_nodes":[],"categories_segments":[],"categories_sizes":[],"default_left":[0,0,0,0,0,0,0,0,0,0,0,0,0,0,0,0,0,0,0,0,0,0,0,0,0,0,0,0,0,0,0,0,0,0,0,0,0,0,0,0,0,0,0,0,0,0,0,0,0],"id":12,"left_children":[1,3,5,7,9,11,13,-1,15,17,-1,19,21,23,25,27,29,31,-1,33,35,37,39,41,43,45,47,-1,-1,-1,-1,-1,-1,-1,-1,-1,-1,-1,-1,-1,-1,-1,-1,-1,-1,-1,-1,-1,-1],"loss_changes":[2.0999379E4,6.4946484E2,3.1569492E3,1.0612012E2,2.6428638E2,1.7369062E3,1.4793271E3,0E0,8.697266E1,2.3518652E2,0E0,1.5291726E3,8.686748E2,7.8664185E2,1.6568928E3,3.5668945E1,2.0062012E2,2.020122E2,0E0,1.059292E3,4.0159644E2,2.2925928E2,9.05959E2,3.435376E2,1.5190125E0,7.931131E2,5.477335E2,0E0,0E0,0E0,0E0,0E0,0E0,0E0,0E0,0E0,0E0,0E0,0E0,0E0,0E0,0E0,0E0,0E0,0E0,0E0,0E0,0E0,0E0],"parents":[2147483647,0,0,1,1,2,2,3,3,4,4,5,5,6,6,8,8,9,9,11,11,12,12,13,13,14,14,15,15,16,16,17,17,19,19,20,20,21,21,22,22,23,23,24,24,25,25,26,26],"right_children":[2,4,6,8,10,12,14,-1,16,18,-1,20,22,24,26,28,30,32,-1,34,36,38,40,42,44,46,48,-1,-1,-1,-1,-1,-1,-1,-1,-1,-1,-1,-1,-1,-1,-1,-1,-1,-1,-1,-1,-1,-1],"split_conditions":[5E-1,3E0,6.506407E-1,-1.2E0,1.6772994E0,2.61E0,1.6E0,-6.4244896E-2,5.4E-1,1.3E0,-8.914464E-2,1.4E0,2E0,6.333333E-1,1.605E2,4.2E0,2.9E0,5E-2,-6.830072E-2,7E-1,2E0,4.3333334E-1,1E1,3.3333334E-1,1.5E1,5E-1,8.660254E-1,6.8813734E-2,-1.0209079E-1,5.692145E-2,-8.400829E-2,4.4391286E-2,-9.702227E-2,-1.650582E-2,-5.2543607E-2,-7.651555E-2,8.0921106E-2,1.1251845E-1,-7.609849E-2,-5.417027E-2,5.0251186E-2,2.4109531E-2,7.560861E-2,-1.0086986E-1,-7.89148E-2,1.7247021E-2,-2.2904364E-2,-2.3806363E-2,-7.9041325E-2],"split_indices":[33,45,25,43,25,52,24,0,52,21,0,26,56,26,11,19,19,43,0,20,32,26,29,26,45,21,25,0,0,0,0,0,0,0,0,0,0,0,0,0,0,0,0,0,0,0,0,0,0],"split_type":[0,0,0,0,0,0,0,0,0,0,0,0,0,0,0,0,0,0,0,0,0,0,0,0,0,0,0,0,0,0,0,0,0,0,0,0,0,0,0,0,0,0,0,0,0,0,0,0,0],"sum_hessian":[4.242171E4,1.135554E4,3.1066172E4,7.78609E3,3.5694507E3,2.1505393E4,9.56078E3,1.481269E1,7.771277E3,3.5314336E3,3.801706E1,1.3036535E4,8.468856E3,1.5136884E3,8.0470923E3,6.5861436E3,1.1851332E3,3.4844917E3,4.6941883E1,1.2551864E4,4.8467065E2,1.2032159E2,8.348535E3,1.4168787E3,9.680967E1,6.2183955E3,1.8286968E3,6.5839272E3,2.2162879E0,1.1601664E3,2.4966833E1,3.4599563E3,2.453531E1,9.990192E3,2.561672E3,4.3810158E1,4.408605E2,1.0194975E2,1.8371832E1,8.136122E3,2.1241312E2,5.033231E2,9.1355554E2,4.1883762E1,5.4925907E1,4.531391E3,1.6870043E3,1.0360989E3,7.925979E2],"tree_param":{"num_deleted":"0","num_feature":"57","num_nodes":"49","size_leaf_vector":"1"}},{"base_weights":[-1.0988162E-3,1.1293302E0,-4.0915716E-1,7.460705E-1,1.2797434E0,5.1580256E-1,-5.138618E-1,-7.942623E-2,7.8027767E-1,1.3388287E0,9.865018E-1,5.2651122E-2,1.0155809E0,-1.2055454E-2,-7.075248E-1,1.0823606E0,5.522067E-1,-5.8498036E-2,1.3410827E0,1.0632044E0,-8.180558E-2,5.387701E-1,-9.750582E-1,1.0918417E0,-7.373936E-2,3.6516383E-1,-8.464822E-1,-8.0507565E-1,-8.575119E-4,5.6298513E-2,-1.22115515E-1,3.517703E-2,-5.387807E-2,6.713658E-2,-9.077124E-2,5.516946E-2,-1.3289991E-1,3.941058E-2,-8.195149E-2,7.959505E-2,-6.304644E-2,5.6539994E-2,-8.661049E-2,-2.0287134E-2,3.4191057E-2,-5.4741304E-2,3.5276778E-2,-1.4488514E-2,-4.5595527E-2,-4.236917E-2,3.4277707E-2],"categories":[],"categories_nodes":[],"categories_segments":[],"categories_sizes":[],"default_left":[0,0,0,0,0,0,0,0,0,0,0,0,0,0,0,0,0,0,0,0,0,0,0,0,0,0,0,0,0,0,0,0,0,0,0,0,0,0,0,0,0,0,0,0,0,0,0,0,0,0,0],"id":13,"left_children":[1,3,5,7,9,11,13,-1,15,17,19,21,23,25,27,29,31,-1,33,35,-1,37,39,41,-1,43,45,47,49,-1,-1,-1,-1,-1,-1,-1,-1,-1,-1,-1,-1,-1,-1,-1,-1,-1,-1,-1,-1,-1,-1],"loss_changes":[1.9325703E4,6.3963184E2,2.9815796E3,2.5154468E2,1.3692383E2,7.2464777E2,2.68742E3,0E0,2.1227234E2,3.910547E1,2.7166858E2,8.1286176E2,2.8759033E2,2.424475E3,1.3754902E3,2.0689905E2,4.3547656E2,0E0,3.6958984E1,1.9797607E2,0E0,6.0129944E2,3.85426E2,1.627688E2,0E0,1.3033708E3,9.2505164E2,9.649668E2,1.4075148E3,0E0,0E0,0E0,0E0,0E0,0E0,0E0,0E0,0E0,0E0,0E0,0E0,0E0,0E0,0E0,0E0,0E0,0E0,0E0,0E0,0E0,0E0],"parents":[2147483647,0,0,1,1,2,2,3,3,4,4,5,5,6,6,8,8,9,9,10,10,11,11,12,12,13,13,14,14,15,15,16,16,18,18,19,19,21,21,22,22,23,23,25,25,26,26,27,27,28,28],"right_children":[2,4,6,8,10,12,14,-1,16,18,20,22,24,26,28,30,32,-1,34,36,-1,38,40,42,-1,44,46,48,50,-1,-1,-1,-1,-1,-1,-1,-1,-1,-1,-1,-1,-1,-1,-1,-1,-1,-1,-1,-1,-1,-1],"split_conditions":[5E-1,2E-1,1.5E0,-2.5490196E-2,5.4E-1,5.7735026E-1,6E0,-7.942623E-2,5E0,-1.2E0,2.9E0,8E-1,1.48E2,5.1E1,1.0016652E0,4.845E2,1.76E2,-5.8498036E-2,7.766667E0,3.06E2,-8.180558E-2,2.115E2,-1.3227513E-2,6.25E-2,-7.373936E-2,3E0,5E-2,6.4E2,1E0,5.6298513E-2,-1.22115515E-1,3.517703E-2,-5.387807E-2,6.713658E-2,-9.077124E-2,5.516946E-2,-1.3289991E-1,3.941058E-2,-8.195149E-2,7.959505E-2,-6.304644E-2,5.6539994E-2,-8.661049E-2,-2.0287134E-2,3.4191057E-2,-5.4741304E-2,3.5276778E-2,-1.4488514E-2,-4.5595527E-2,-4.236917E-2,3.4277707E-2],"split_indices":[33,46,24,55,52,25,30,0,30,43,19,33,45,45,25,12,56,0,22,56,0,11,55,44,0,30,44,13,6,0,0,0,0,0,0,0,0,0,0,0,0,0,0,0,0,0,0,0,0,0,0],"split_type":[0,0,0,0,0,0,0,0,0,0,0,0,0,0,0,0,0,0,0,0,0,0,0,0,0,0,0,0,0,0,0,0,0,0,0,0,0,0,0,0,0,0,0,0,0,0,0,0,0,0,0],"sum_hessian":[4.1893734E4,1.1111151E4,3.0782582E4,3.1333066E3,7.9778447E3,3.1298228E3,2.765276E4,4.4590973E1,3.0887158E3,6.6369917E3,1.3408531E3,1.6250095E3,1.5048132E3,7.7005874E3,1.9952172E4,1.3271469E3,1.7615688E3,5.4925117E0,6.631499E3,1.3033297E3,3.7523415E1,1.1035111E3,5.2149835E2,1.4606465E3,4.4166782E1,5.303567E3,2.3970208E3,1.7531871E4,2.4203013E3,1.3115994E3,1.5547466E1,1.6124147E3,1.4915417E2,6.628611E3,2.8881993E0,1.2901017E3,1.3228112E1,9.906786E2,1.1283257E2,5.179945E1,4.696989E2,1.4413623E3,1.9284206E1,1.5510182E3,3.7525486E3,2.066627E3,3.3039383E2,3.0112373E3,1.4520633E4,1.0836462E3,1.336655E3],"tree_param":{"num_deleted":"0","num_feature":"57","num_nodes":"51","size_leaf_vector":"1"}},{"base_weights":[-1.0595481E-3,1.098057E0,-3.9309815E-1,1.2789087E0,7.747746E-1,1.5619548E-1,-5.587807E-1,-1.1142329E-1,1.2832025E0,8.09237E-1,-1.8883165E0,5.7051367E-1,-6.28836E-1,-7.066451E-1,-9.052014E-2,1.3352515E0,1.0770078E0,1.2592613E0,6.4255023E-1,-1.05069935E-1,-6.0773045E-2,1.0991588E0,2.8050968E-1,2.5421274E-1,-1.1855485E0,-8.7625706E-1,-2.721676E-1,3.8545313E-1,-3.755556E-1,6.68459E-2,-8.8675134E-2,5.5171635E-2,-1.1534151E-1,6.399256E-2,-1.06317535E-1,1.3915837E-2,4.2195935E-2,-8.860675E-2,6.6371255E-2,-4.8021454E-2,2.9484916E-2,4.4487026E-2,-7.818824E-2,9.5410785E-3,-7.270875E-2,4.377682E-2,-4.721595E-2,3.607234E-2,-2.5120512E-2,-8.557054E-2,2.6722645E-2,-2.8980998E-2,3.7406646E-2],"categories":[],"categories_nodes":[],"categories_segments":[],"categories_sizes":[],"default_left":[0,0,0,0,0,0,0,0,0,0,0,0,0,0,0,0,0,0,0,0,0,0,0,0,0,0,0,0,0,0,0,0,0,0,0,0,0,0,0,0,0,0,0,0,0,0,0,0,0,0,0,0,0],"id":14,"left_children":[1,3,5,7,9,11,13,-1,15,17,19,21,23,25,27,29,31,33,35,-1,-1,37,39,41,43,45,47,49,51,-1,-1,-1,-1,-1,-1,-1,-1,-1,-1,-1,-1,-1,-1,-1,-1,-1,-1,-1,-1,-1,-1,-1,-1],"loss_changes":[1.7805527E4,6.341836E2,2.7720317E3,1.0775293E2,3.5944238E2,2.2962827E3,1.6201475E3,0E0,7.322754E1,2.880454E2,4.632019E0,7.081189E2,1.1993176E3,1.3103271E3,7.6219763E2,3.1129883E1,1.2839197E2,7.520154E1,2.0601001E2,0E0,0E0,1.075011E3,1.145981E3,1.0919574E3,5.5342236E2,1.5258398E3,1.1430311E3,6.583767E2,8.0613153E2,0E0,0E0,0E0,0E0,0E0,0E0,0E0,0E0,0E0,0E0,0E0,0E0,0E0,0E0,0E0,0E0,0E0,0E0,0E0,0E0,0E0,0E0,0E0,0E0],"parents":[2147483647,0,0,1,1,2,2,3,3,4,4,5,5,6,6,8,8,9,9,10,10,11,11,12,12,13,13,14,14,15,15,16,16,17,17,18,18,21,21,22,22,23,23,24,24,25,25,26,26,27,27,28,28],"right_children":[2,4,6,8,10,12,14,-1,16,18,20,22,24,26,28,30,32,34,36,-1,-1,38,40,42,44,46,48,50,52,-1,-1,-1,-1,-1,-1,-1,-1,-1,-1,-1,-1,-1,-1,-1,-1,-1,-1,-1,-1,-1,-1,-1,-1],"split_conditions":[5E-1,9.6666664E-1,4E0,-5.5555557E-3,2.17E2,1.84E2,7.023769E-1,-1.1142329E-1,1E-1,3.9E-1,1.3E0,6E0,1.7E0,7.5E0,1.5E0,3.89E2,7.5666666E0,7.7E0,-1.3043479E-3,-1.05069935E-1,-6.0773045E-2,3E0,2E0,1.6E2,2.8430316E-8,1E0,6.4E2,4.3E0,1E-1,6.68459E-2,-8.8675134E-2,5.5171635E-2,-1.1534151E-1,6.399256E-2,-1.06317535E-1,1.3915837E-2,4.2195935E-2,-8.860675E-2,6.6371255E-2,-4.8021454E-2,2.9484916E-2,4.4487026E-2,-7.818824E-2,9.5410785E-3,-7.270875E-2,4.377682E-2,-4.721595E-2,3.607234E-2,-2.5120512E-2,-8.557054E-2,2.6722645E-2,-2.8980998E-2,3.7406646E-2],"split_indices":[33,24,45,55,45,56,25,0,33,52,21,30,33,16,18,56,22,16,55,0,0,30,32,11,23,19,13,37,44,0,0,0,0,0,0,0,0,0,0,0,0,0,0,0,0,0,0,0,0,0,0,0,0],"split_type":[0,0,0,0,0,0,0,0,0,0,0,0,0,0,0,0,0,0,0,0,0,0,0,0,0,0,0,0,0,0,0,0,0,0,0,0,0,0,0,0,0,0,0,0,0,0,0,0,0,0,0,0,0],"sum_hessian":[4.132009E4,1.0862963E4,3.0457125E4,6.964116E3,3.898847E3,7.0578916E3,2.3399234E4,7.8817215E0,6.9562344E3,3.8497246E3,4.9122158E1,4.619905E3,2.4379866E3,1.7783244E4,5.6159897E3,5.5498364E3,1.4063982E3,1.0387451E3,2.8109795E3,3.5695038E1,1.3427123E1,1.635599E3,2.984306E3,9.4290643E2,1.4950801E3,1.278946E4,4.9937847E3,2.1033345E3,3.5126555E3,5.5474326E3,2.4040444E0,1.3961692E3,1.0229005E1,1.0330844E3,5.6608434E0,1.00162714E3,1.8093524E3,1.1995511E2,1.5156438E3,5.9482996E2,2.389476E3,6.9904517E2,2.4386131E2,2.4419254E2,1.2508876E3,4.7787775E2,1.2311582E4,9.390729E2,4.0547117E3,1.3884813E2,1.9644863E3,2.9732E3,5.394555E2],"tree_param":{"num_deleted":"0","num_feature":"57","num_nodes":"53","size_leaf_vector":"1"}},{"base_weights":[-1.0379044E-3,1.06807E0,-3.7778082E-1,1.2367332E0,7.162515E-1,4.8625165E-1,-4.7642797E-1,1.2853814E0,9.540961E-1,8.2317567E-1,4.1600328E-2,7.570185E-1,-2.7889514E-1,3.6480458E-4,-6.626712E-1,1.2905427E0,-9.293214E-2,1.0248779E0,-2.5376136E0,1.287085E0,6.8420464E-1,-6.738605E-1,9.9055374E-1,8.5025126E-1,-6.437259E-1,1.0609801E0,-1.1850232E0,3.530934E-1,-7.981458E-1,-7.5628E-1,-1.6898477E-4,-1.2095473E-1,6.466026E-2,5.2807737E-2,-9.898183E-2,-4.357476E-2,-1.3269185E-1,6.570282E-2,-1.0778922E-1,-1.0648191E-1,3.827053E-2,4.490718E-2,-8.695545E-2,-8.369996E-2,6.6091776E-2,-8.505623E-2,4.5196034E-2,6.4510725E-2,-8.009887E-2,-7.9031475E-2,7.5058505E-2,-7.453682E-2,7.0209146E-2,-1.76912E-2,3.209047E-2,-5.2187193E-2,3.420395E-2,-1.3199434E-2,-4.3024E-2,-4.0503982E-2,3.2431304E-2],"categories":[],"categories_nodes":[],"categories_segments":[],"categories_sizes":[],"default_left":[0,0,0,0,0,0,0,0,0,0,0,0,0,0,0,0,0,0,0,0,0,0,0,0,0,0,0,0,0,0,0,0,0,0,0,0,0,0,0,0,0,0,0,0,0,0,0,0,0,0,0,0,0,0,0,0,0,0,0,0,0],"id":15,"left_children":[1,3,5,7,9,11,13,15,17,19,21,23,25,27,29,31,-1,33,35,37,39,41,43,45,47,49,51,53,55,57,59,-1,-1,-1,-1,-1,-1,-1,-1,-1,-1,-1,-1,-1,-1,-1,-1,-1,-1,-1,-1,-1,-1,-1,-1,-1,-1,-1,-1,-1,-1],"loss_changes":[1.6412033E4,6.2913574E2,2.56831E3,9.743457E1,2.4832898E2,6.399552E2,2.4013774E3,1.0169043E2,2.6397833E2,1.9071692E2,3.2117462E2,2.9844434E2,9.820677E2,2.140076E3,1.2059971E3,6.347168E1,0E0,9.95647E1,1.8117828E0,6.63407E1,5.246609E2,4.532663E2,1.8169394E2,2.9445312E2,2.6692834E2,3.8196887E2,3.8394183E2,1.0758558E3,8.4817957E2,8.7381934E2,1.266132E3,0E0,0E0,0E0,0E0,0E0,0E0,0E0,0E0,0E0,0E0,0E0,0E0,0E0,0E0,0E0,0E0,0E0,0E0,0E0,0E0,0E0,0E0,0E0,0E0,0E0,0E0,0E0,0E0,0E0,0E0],"parents":[2147483647,0,0,1,1,2,2,3,3,4,4,5,5,6,6,7,7,8,8,9,9,10,10,11,11,12,12,13,13,14,14,15,15,17,17,18,18,19,19,20,20,21,21,22,22,23,23,24,24,25,25,26,26,27,27,28,28,29,29,30,30],"right_children":[2,4,6,8,10,12,14,16,18,20,22,24,26,28,30,32,-1,34,36,38,40,42,44,46,48,50,52,54,56,58,60,-1,-1,-1,-1,-1,-1,-1,-1,-1,-1,-1,-1,-1,-1,-1,-1,-1,-1,-1,-1,-1,-1,-1,-1,-1,-1,-1,-1,-1,-1],"split_conditions":[5E-1,3E0,1.5E0,1.3E0,6.666667E-1,2.3E1,6E0,1.4666667E0,2.54E2,7E-1,1E0,3.5E2,1E0,5.1E1,1.0016652E0,2E0,-9.293214E-2,8.75E-2,-1.2E0,1E0,7.266667E0,4.2E1,-1.125E-1,5E2,4E-1,1.3666667E0,2.5E0,3E0,5E-2,6.4E2,1E0,-1.2095473E-1,6.466026E-2,5.2807737E-2,-9.898183E-2,-4.357476E-2,-1.3269185E-1,6.570282E-2,-1.0778922E-1,-1.0648191E-1,3.827053E-2,4.490718E-2,-8.695545E-2,-8.369996E-2,6.6091776E-2,-8.505623E-2,4.5196034E-2,6.4510725E-2,-8.009887E-2,-7.9031475E-2,7.5058505E-2,-7.453682E-2,7.0209146E-2,-1.76912E-2,3.209047E-2,-5.2187193E-2,3.420395E-2,-1.3199434E-2,-4.3024E-2,-4.0503982E-2,3.2431304E-2],"split_indices":[33,45,24,18,26,45,30,24,56,19,8,12,32,45,25,56,0,42,43,9,22,11,43,13,19,24,19,30,44,13,6,0,0,0,0,0,0,0,0,0,0,0,0,0,0,0,0,0,0,0,0,0,0,0,0,0,0,0,0,0,0],"split_type":[0,0,0,0,0,0,0,0,0,0,0,0,0,0,0,0,0,0,0,0,0,0,0,0,0,0,0,0,0,0,0,0,0,0,0,0,0,0,0,0,0,0,0,0,0,0,0,0,0,0,0,0,0,0,0,0,0,0,0,0,0],"sum_hessian":[4.0745004E4,1.0616378E4,3.0128625E4,7.17442E3,3.4419585E3,3.0869207E3,2.7041705E4,6.117851E3,1.0565688E3,2.970888E3,4.7107062E2,2.28007E3,8.0685065E2,7.5961494E3,1.9445555E4,6.108413E3,9.4381695E0,1.0362687E3,2.0300114E1,6.829202E2,2.2879675E3,2.687427E2,2.0232793E2,2.138149E3,1.4192105E2,3.2544708E2,4.8140356E2,5.2691494E3,2.327E3,1.7038014E4,2.407541E3,3.7300713E0,6.1046826E3,1.0262341E3,1.0034572E1,1.8779E0,1.8422213E1,6.7822534E2,4.694852E0,6.3469803E1,2.2244978E3,1.0861487E2,1.6012782E2,2.192539E1,1.8040253E2,4.3417934E1,2.094731E3,4.6907013E1,9.501403E1,4.61153E1,2.7933176E2,4.309452E2,5.0458366E1,1.5278942E3,3.741255E3,1.9964868E3,3.305133E2,2.9769565E3,1.4061058E4,1.0707021E3,1.3368387E3],"tree_param":{"num_deleted":"0","num_feature":"57","num_nodes":"61","size_leaf_vector":"1"}},{"base_weights":[-9.989776E-4,1.0406368E0,-3.6316603E-1,1.2108135E0,6.908164E-1,1.5439361E-1,-5.204737E-1,1.2629253E0,9.3314093E-1,7.1819526E-1,-8.751186E-2,5.423933E-1,-5.932054E-1,-6.621525E-1,-8.0125555E-2,-9.858483E-2,1.2646539E0,-1.9715903E0,9.9763954E-1,8.1507033E-1,9.0500854E-2,2.1273157E-1,9.824274E-1,1.1368694E-1,-1.2531954E0,-8.3059525E-1,-2.3642418E-1,-9.4957125E-1,6.374396E-2,6.333324E-2,-7.182191E-2,-6.1204787E-2,-1.1805647E-1,5.22252E-2,-1.1853989E-1,-2.9528856E-2,4.2937897E-2,-8.516193E-2,2.2754546E-2,-8.328187E-2,1.9558422E-2,5.7267506E-2,-1.1029401E-2,2.9855033E-2,-7.435219E-2,1.2838255E-2,-7.07294E-2,4.0726047E-2,-4.480857E-2,6.8761194E-3,-4.034289E-2,-6.949107E-4,-7.814854E-2,2.512216E-2,-1.1152389E-2],"categories":[],"categories_nodes":[],"categories_segments":[],"categories_sizes":[],"default_left":[0,0,0,0,0,0,0,0,0,0,0,0,0,0,0,0,0,0,0,0,0,0,0,0,0,0,0,0,0,0,0,0,0,0,0,0,0,0,0,0,0,0,0,0,0,0,0,0,0,0,0,0,0,0,0],"id":16,"left_children":[1,3,5,7,9,11,13,15,17,19,-1,21,23,25,27,-1,29,31,33,35,37,39,41,43,45,47,49,51,53,-1,-1,-1,-1,-1,-1,-1,-1,-1,-1,-1,-1,-1,-1,-1,-1,-1,-1,-1,-1,-1,-1,-1,-1,-1,-1],"loss_changes":[1.514785E4,6.1586426E2,2.4258318E3,9.964453E1,2.2799255E2,2.0150466E3,1.4254995E3,3.5280273E1,2.0896179E2,2.0397534E2,0E0,6.631736E2,1.1075315E3,1.2395039E3,6.9595605E2,0E0,3.365625E1,4.1958466E0,1.732041E2,1.7901514E2,2.949178E2,8.7735706E2,3.840924E2,8.8845325E2,2.9952783E2,1.3369609E3,1.0458206E3,4.5335492E2,6.008007E2,0E0,0E0,0E0,0E0,0E0,0E0,0E0,0E0,0E0,0E0,0E0,0E0,0E0,0E0,0E0,0E0,0E0,0E0,0E0,0E0,0E0,0E0,0E0,0E0,0E0,0E0],"parents":[2147483647,0,0,1,1,2,2,3,3,4,4,5,5,6,6,7,7,8,8,9,9,11,11,12,12,13,13,14,14,16,16,17,17,18,18,19,19,20,20,21,21,22,22,23,23,24,24,25,25,26,26,27,27,28,28],"right_children":[2,4,6,8,10,12,14,16,18,20,-1,22,24,26,28,-1,30,32,34,36,38,40,42,44,46,48,50,52,54,-1,-1,-1,-1,-1,-1,-1,-1,-1,-1,-1,-1,-1,-1,-1,-1,-1,-1,-1,-1,-1,-1,-1,-1,-1,-1],"split_conditions":[5E-1,3E0,4E0,5.4E-1,1.6772994E0,1.84E2,7.023769E-1,3E0,-6.666667E-1,6.666667E-1,-8.751186E-2,4E0,2E0,7.5E0,7.3E0,-9.858483E-2,2E0,-1.2E0,1E0,1E-1,2E0,-3.3333335E-2,2.9166667E-2,1.91E2,1.3333334E-1,1E0,2.2E0,6E0,1.5E0,6.333324E-2,-7.182191E-2,-6.1204787E-2,-1.1805647E-1,5.22252E-2,-1.1853989E-1,-2.9528856E-2,4.2937897E-2,-8.516193E-2,2.2754546E-2,-8.328187E-2,1.9558422E-2,5.7267506E-2,-1.1029401E-2,2.9855033E-2,-7.435219E-2,1.2838255E-2,-7.07294E-2,4.0726047E-2,-4.480857E-2,6.8761194E-3,-4.034289E-2,-6.949107E-4,-7.814854E-2,2.512216E-2,-1.1152389E-2],"split_indices":[33,45,45,52,25,56,25,56,43,26,0,32,33,16,17,0,15,43,46,20,32,42,42,11,26,19,33,30,18,0,0,0,0,0,0,0,0,0,0,0,0,0,0,0,0,0,0,0,0,0,0,0,0,0,0],"split_type":[0,0,0,0,0,0,0,0,0,0,0,0,0,0,0,0,0,0,0,0,0,0,0,0,0,0,0,0,0,0,0,0,0,0,0,0,0,0,0,0,0,0,0,0,0,0,0,0,0,0,0,0,0,0,0],"sum_hessian":[4.015175E4,1.0358266E4,2.9793484E4,6.966714E3,3.391552E3,6.944694E3,2.2848791E4,5.862864E3,1.1038505E3,3.354632E3,3.691978E1,4.572083E3,2.372611E3,1.7286486E4,5.5623037E3,2.522816E0,5.860341E3,2.3335918E1,1.0805145E3,2.9058586E3,4.487735E2,2.6147017E3,1.9573811E3,1.1459991E3,1.2266119E3,1.2385225E4,4.9012617E3,7.8893536E2,4.7733687E3,5.8565117E3,3.8289852E0,9.413869E0,1.3922049E1,1.0663683E3,1.4146258E1,8.721449E1,2.8186443E3,7.5187645E1,3.7358588E2,2.2611372E2,2.388588E3,1.7239562E3,2.33425E2,8.8066815E2,2.65331E2,1.183895E2,1.1082224E3,4.743262E2,1.1910898E4,2.9609656E3,1.940296E3,3.128064E2,4.7612897E2,1.8866493E3,2.8867192E3],"tree_param":{"num_deleted":"0","num_feature":"57","num_nodes":"55","size_leaf_vector":"1"}},{"base_weights":[-9.893794E-4,1.0139072E0,-3.489491E-1,1.2017541E0,6.8933064E-1,-2.1160655E-1,-9.092296E-1,-1.0978724E-1,1.2062858E0,8.097723E-1,-4.268882E-2,2.6926282E-1,-4.245354E-1,-1.1335869E0,-2.9837358E-1,1.263134E0,9.8855996E-1,-1.8311148E0,8.4561324E-1,3.455759E-1,-2.294115E0,-1.9997282E-1,5.560938E-1,6.205525E-1,-5.2991027E-1,-1.2094939E0,4.6579918E-1,3.976537E-1,-9.372537E-1,6.324417E-2,-8.743642E-2,5.0768044E-2,-1.2917747E-1,-6.280519E-2,-1.03589766E-1,4.332642E-2,-1.2118167E-1,3.0255944E-2,-8.158893E-2,-1.2572962E-1,-8.013715E-2,-2.5220135E-2,8.157321E-2,-8.11814E-2,2.9852862E-2,3.8783457E-2,-8.475626E-2,-2.0598367E-2,-5.7373878E-2,3.7832025E-3,-6.3840315E-2,9.7400315E-2,-7.1654744E-2,-6.8767995E-2,5.14894E-2,-5.700128E-2,9.969906E-2],"categories":[],"categories_nodes":[],"categories_segments":[],"categories_sizes":[],"default_left":[0,0,0,0,0,0,0,0,0,0,0,0,0,0,0,0,0,0,0,0,0,0,0,0,0,0,0,0,0,0,0,0,0,0,0,0,0,0,0,0,0,0,0,0,0,0,0,0,0,0,0,0,0,0,0,0,0],"id":17,"left_children":[1,3,5,7,9,11,13,-1,15,17,19,21,23,25,27,29,31,33,35,37,39,41,43,45,47,49,51,53,55,-1,-1,-1,-1,-1,-1,-1,-1,-1,-1,-1,-1,-1,-1,-1,-1,-1,-1,-1,-1,-1,-1,-1,-1,-1,-1,-1,-1],"loss_changes":[1.3980198E4,6.154297E2,2.2683396E3,1.0120117E2,3.2691626E2,2.4245156E3,7.95042E2,0E0,7.787988E1,3.0290137E2,4.595321E2,9.7824396E2,1.807656E3,5.1583496E2,6.942174E2,2.8903809E1,1.2978052E2,3.341156E0,2.1692969E2,2.3114282E2,7.755829E0,1.5384175E3,4.0371802E2,5.414234E2,1.0854502E3,3.506421E2,5.460784E2,8.3916626E2,4.8600995E2,0E0,0E0,0E0,0E0,0E0,0E0,0E0,0E0,0E0,0E0,0E0,0E0,0E0,0E0,0E0,0E0,0E0,0E0,0E0,0E0,0E0,0E0,0E0,0E0,0E0,0E0,0E0,0E0],"parents":[2147483647,0,0,1,1,2,2,3,3,4,4,5,5,6,6,8,8,9,9,10,10,11,11,12,12,13,13,14,14,15,15,16,16,17,17,18,18,19,19,20,20,21,21,22,22,23,23,24,24,25,25,26,26,27,27,28,28],"right_children":[2,4,6,8,10,12,14,-1,16,18,20,22,24,26,28,30,32,34,36,38,40,42,44,46,48,50,52,54,56,-1,-1,-1,-1,-1,-1,-1,-1,-1,-1,-1,-1,-1,-1,-1,-1,-1,-1,-1,-1,-1,-1,-1,-1,-1,-1,-1,-1],"split_conditions":[5E-1,9.6666664E-1,1.16E2,-5.5555557E-3,6.5E1,6E0,7.5E0,-1.0978724E-1,1E-1,-1.2E0,-8E-1,4.7258157E-1,1.4E0,1.5E-1,1.3333334E-1,3.89E2,3.06E2,3E0,7.7E0,7E-1,7.3333335E-1,1.2E0,1E-1,1.94E2,2.22E2,1.4333333E0,7.6E2,1E-1,2.1E0,6.324417E-2,-8.743642E-2,5.0768044E-2,-1.2917747E-1,-6.280519E-2,-1.03589766E-1,4.332642E-2,-1.2118167E-1,3.0255944E-2,-8.158893E-2,-1.2572962E-1,-8.013715E-2,-2.5220135E-2,8.157321E-2,-8.11814E-2,2.9852862E-2,3.8783457E-2,-8.475626E-2,-2.0598367E-2,-5.7373878E-2,3.7832025E-3,-6.3840315E-2,9.7400315E-2,-7.1654744E-2,-6.8767995E-2,5.14894E-2,-5.700128E-2,9.969906E-2],"split_indices":[33,24,45,55,45,30,17,0,33,43,40,25,24,44,26,56,56,45,16,21,26,21,21,56,11,24,13,26,41,0,0,0,0,0,0,0,0,0,0,0,0,0,0,0,0,0,0,0,0,0,0,0,0,0,0,0,0],"split_type":[0,0,0,0,0,0,0,0,0,0,0,0,0,0,0,0,0,0,0,0,0,0,0,0,0,0,0,0,0,0,0,0,0,0,0,0,0,0,0,0,0,0,0,0,0,0,0,0,0,0,0,0,0,0,0,0,0],"sum_hessian":[3.958591E4,1.0106448E4,2.947946E4,6.399861E3,3.7065874E3,2.367688E4,5.8025786E3,7.8811255E0,6.3919795E3,3.1828037E3,5.237837E2,7.2664277E3,1.6410453E4,4.243248E3,1.5593306E3,5.0647686E3,1.3272108E3,4.1946487E1,3.1408572E3,4.474638E2,7.631988E1,2.7567988E3,4.509629E3,1.5026425E3,1.4907812E4,4.0512205E3,1.9202765E2,7.464686E2,8.1286194E2,5.062408E3,2.3603964E0,1.3180376E3,9.173246E0,1.4211846E1,2.773464E1,3.1216213E3,1.9235718E1,3.961589E2,5.130492E1,5.58669E1,2.0452972E1,2.3644875E3,3.9231137E2,8.247318E1,4.427156E3,1.4089298E3,9.371272E1,1.2518666E4,2.3891458E3,2.0162254E2,3.849598E3,1.0783205E2,8.41956E1,1.95882E2,5.505867E2,7.608409E2,5.202104E1],"tree_param":{"num_deleted":"0","num_feature":"57","num_nodes":"57","size_leaf_vector":"1"}},{"base_weights":[-9.908202E-4,9.881439E-1,-3.3519232E-1,1.164505E0,6.370232E-1,-2.0262733E-1,-8.842558E-1,1.219316E0,8.7895834E-1,6.633887E-1,-8.468731E-2,9.303217E-2,-5.35296E-1,-1.1076411E0,-2.8680325E-1,-9.581414E-2,1.2211152E0,-1.9111857E0,9.424138E-1,6.8539935E-1,-9.661173E-2,5.339886E-1,-1.4441547E-1,-6.139618E-1,1.5921707E0,-1.1831309E0,4.4305512E-1,3.8836983E-1,-9.165155E-1,6.1159622E-2,-7.094215E-2,-5.898089E-2,-1.131297E-1,4.9476415E-2,-1.1323595E-1,4.9575195E-2,2.548778E-2,-7.688734E-2,2.9453948E-2,-1.90626E-2,2.3063738E-2,-3.5452995E-2,3.1817604E-2,8.929282E-2,-7.650121E-2,3.5931368E-3,-6.2544934E-2,9.100064E-2,-7.0152715E-2,7.972359E-2,-2.7486844E-2,-5.7370253E-2,7.769009E-2],"categories":[],"categories_nodes":[],"categories_segments":[],"categories_sizes":[],"default_left":[0,0,0,0,0,0,0,0,0,0,0,0,0,0,0,0,0,0,0,0,0,0,0,0,0,0,0,0,0,0,0,0,0,0,0,0,0,0,0,0,0,0,0,0,0,0,0,0,0,0,0,0,0],"id":18,"left_children":[1,3,5,7,9,11,13,15,17,19,-1,21,23,25,27,-1,29,31,33,35,-1,37,39,41,43,45,47,49,51,-1,-1,-1,-1,-1,-1,-1,-1,-1,-1,-1,-1,-1,-1,-1,-1,-1,-1,-1,-1,-1,-1,-1,-1],"loss_changes":[1.2904917E4,6.097627E2,2.1236914E3,1.0162109E2,2.0382227E2,2.312003E3,7.570249E2,3.33833E1,1.8951501E2,1.8770471E2,0E0,1.303226E3,1.8521013E3,4.8398242E2,6.575121E2,0E0,3.1893555E1,3.4768982E0,1.5898315E2,1.7345898E2,0E0,4.981167E2,1.1607666E3,1.2687974E3,2.4140631E2,3.3505225E2,4.9175195E2,8.456223E2,4.581059E2,0E0,0E0,0E0,0E0,0E0,0E0,0E0,0E0,0E0,0E0,0E0,0E0,0E0,0E0,0E0,0E0,0E0,0E0,0E0,0E0,0E0,0E0,0E0,0E0],"parents":[2147483647,0,0,1,1,2,2,3,3,4,4,5,5,6,6,7,7,8,8,9,9,11,11,12,12,13,13,14,14,16,16,17,17,18,18,19,19,21,21,22,22,23,23,24,24,25,25,26,26,27,27,28,28],"right_children":[2,4,6,8,10,12,14,16,18,20,-1,22,24,26,28,-1,30,32,34,36,-1,38,40,42,44,46,48,50,52,-1,-1,-1,-1,-1,-1,-1,-1,-1,-1,-1,-1,-1,-1,-1,-1,-1,-1,-1,-1,-1,-1,-1,-1],"split_conditions":[5E-1,3E0,1.16E2,5.4E-1,1.6772994E0,2.4666667E0,7.5E0,3E0,-6.666667E-1,5E-2,-8.468731E-2,6E0,1.3E1,1.5E-1,2E0,-9.581414E-2,2E0,-1.2E0,1E0,9.6666664E-1,-9.661173E-2,1E-1,2.5E0,1.1333333E0,4.7E0,1.4333333E0,7.6E2,1.7320508E-1,1.2E1,6.1159622E-2,-7.094215E-2,-5.898089E-2,-1.131297E-1,4.9476415E-2,-1.1323595E-1,4.9575195E-2,2.548778E-2,-7.688734E-2,2.9453948E-2,-1.90626E-2,2.3063738E-2,-3.5452995E-2,3.1817604E-2,8.929282E-2,-7.650121E-2,3.5931368E-3,-6.2544934E-2,9.100064E-2,-7.0152715E-2,7.972359E-2,-2.7486844E-2,-5.7370253E-2,7.769009E-2],"split_indices":[33,45,45,52,25,24,17,56,43,43,0,30,29,44,32,0,15,43,46,24,0,21,19,26,37,24,13,25,30,0,0,0,0,0,0,0,0,0,0,0,0,0,0,0,0,0,0,0,0,0,0,0,0],"split_type":[0,0,0,0,0,0,0,0,0,0,0,0,0,0,0,0,0,0,0,0,0,0,0,0,0,0,0,0,0,0,0,0,0,0,0,0,0,0,0,0,0,0,0,0,0,0,0,0,0,0,0,0,0],"sum_hessian":[3.9036336E4,9.857925E3,2.9178412E4,6.5604316E3,3.2974932E3,2.3504816E4,5.673595E3,5.5011997E3,1.0592318E3,3.261317E3,3.6176434E1,1.2445019E4,1.1059799E4,4.128945E3,1.5446504E3,2.5446105E0,5.498655E3,2.2906614E1,1.0363252E3,3.2346235E3,2.6693325E1,4.355433E3,8.0895854E3,1.0666116E4,3.9368204E2,3.9374998E3,1.9144514E2,7.456032E2,7.9904724E2,5.494868E3,3.7868886E0,8.846546E0,1.4060068E1,1.0220029E3,1.4322299E1,1.1776388E3,2.0569846E3,1.12119965E2,4.2433135E3,5.8158477E3,2.2737375E3,9.912604E3,7.5351324E2,3.7108948E2,2.2592558E1,2.0172345E2,3.7357764E3,1.0966411E2,8.178104E1,3.2590067E2,4.1970255E2,7.312373E2,6.780994E1],"tree_param":{"num_deleted":"0","num_feature":"57","num_nodes":"53","size_leaf_vector":"1"}},{"base_weights":[-9.872292E-4,9.6334714E-1,-3.2160705E-1,1.1428436E0,6.1285985E-1,1.5889548E-1,-4.6983916E-1,1.1989783E0,8.538195E-1,7.1256834E-1,-8.667869E-3,5.179861E-1,-5.495583E-1,1.2076191E0,-5.0315624E-1,1.2007151E0,-1.07613884E-1,1.0181117E0,-2.0164704E-1,1.1841956E0,5.753688E-1,-6.897056E-1,9.172049E-1,1.9815904E-1,9.44815E-1,1.24432124E-1,-1.2046554E0,-7.922089E-2,1.4071156E0,-3.2244945E-1,-7.888866E-1,-5.6723427E-2,6.0157068E-2,-1.4240235E-1,5.3240713E-2,5.215317E-2,-1.1298565E-1,6.0633898E-2,-1.0903775E-1,-6.0020924E-2,3.4895446E-2,4.0571146E-2,-8.451223E-2,-8.034722E-2,6.2120724E-2,-8.200296E-2,1.8188603E-2,5.8577735E-2,7.065238E-3,2.8761154E-2,-7.190286E-2,1.5328194E-2,-6.862545E-2,-6.9726005E-2,7.648867E-2,7.336832E-3,-2.7045418E-2,-4.534202E-2,-6.3430206E-3],"categories":[],"categories_nodes":[],"categories_segments":[],"categories_sizes":[],"default_left":[0,0,0,0,0,0,0,0,0,0,0,0,0,0,0,0,0,0,0,0,0,0,0,0,0,0,0,0,0,0,0,0,0,0,0,0,0,0,0,0,0,0,0,0,0,0,0,0,0,0,0,0,0,0,0,0,0,0,0],"id":19,"left_children":[1,3,5,7,9,11,13,15,17,19,21,23,25,27,29,31,-1,33,35,37,39,41,43,45,47,49,51,-1,53,55,57,-1,-1,-1,-1,-1,-1,-1,-1,-1,-1,-1,-1,-1,-1,-1,-1,-1,-1,-1,-1,-1,-1,-1,-1,-1,-1,-1,-1],"loss_changes":[1.1912637E4,6.041113E2,2.0596023E3,1.0210742E2,2.0192004E2,1.7347588E3,1.2356504E3,3.3549316E1,1.8007373E2,1.8099976E2,2.8527664E2,6.175392E2,1.01294507E3,2.4210748E2,1.118582E3,3.149707E1,0E0,1.6512518E2,3.623972E2,6.319568E1,4.7455658E2,3.9288177E2,1.5939865E2,7.8848456E2,3.529214E2,7.978205E2,2.9551135E2,0E0,1.4043896E2,1.3608014E3,6.553789E2,0E0,0E0,0E0,0E0,0E0,0E0,0E0,0E0,0E0,0E0,0E0,0E0,0E0,0E0,0E0,0E0,0E0,0E0,0E0,0E0,0E0,0E0,0E0,0E0,0E0,0E0,0E0,0E0],"parents":[2147483647,0,0,1,1,2,2,3,3,4,4,5,5,6,6,7,7,8,8,9,9,10,10,11,11,12,12,13,13,14,14,15,15,17,17,18,18,19,19,20,20,21,21,22,22,23,23,24,24,25,25,26,26,28,28,29,29,30,30],"right_children":[2,4,6,8,10,12,14,16,18,20,22,24,26,28,30,32,-1,34,36,38,40,42,44,46,48,50,52,-1,54,56,58,-1,-1,-1,-1,-1,-1,-1,-1,-1,-1,-1,-1,-1,-1,-1,-1,-1,-1,-1,-1,-1,-1,-1,-1,-1,-1,-1,-1],"split_conditions":[5E-1,3E0,4E0,5.4E-1,6.666667E-1,1.84E2,5.6E0,4.2E0,1.3666667E0,7E-1,1E0,4E0,2E0,7.3E0,2.61E0,-1.2E0,-1.07613884E-1,-1.6460905E-3,3.35E1,1E0,7.3E0,4.2E1,-1.125E-1,-2E-1,5E-1,1.91E2,1.3333334E-1,-7.922089E-2,3.2145503E-1,8E2,1.3E0,-5.6723427E-2,6.0157068E-2,-1.4240235E-1,5.3240713E-2,5.215317E-2,-1.1298565E-1,6.0633898E-2,-1.0903775E-1,-6.0020924E-2,3.4895446E-2,4.0571146E-2,-8.451223E-2,-8.034722E-2,6.2120724E-2,-8.200296E-2,1.8188603E-2,5.8577735E-2,7.065238E-3,2.8761154E-2,-7.190286E-2,1.5328194E-2,-6.862545E-2,-6.9726005E-2,7.648867E-2,7.336832E-3,-2.7045418E-2,-4.534202E-2,-6.3430206E-3],"split_indices":[33,45,45,52,26,56,12,19,24,19,8,32,33,16,52,43,0,55,11,9,22,11,43,43,20,11,26,0,25,13,40,0,0,0,0,0,0,0,0,0,0,0,0,0,0,0,0,0,0,0,0,0,0,0,0,0,0,0,0],"split_type":[0,0,0,0,0,0,0,0,0,0,0,0,0,0,0,0,0,0,0,0,0,0,0,0,0,0,0,0,0,0,0,0,0,0,0,0,0,0,0,0,0,0,0,0,0,0,0,0,0,0,0,0,0,0,0,0,0,0,0],"sum_hessian":[3.8527184E4,9.612744E3,2.8914438E4,6.355577E3,3.2571672E3,6.816925E3,2.2097514E4,5.319303E3,1.0362738E3,2.8067485E3,4.504188E2,4.52409E3,2.2928352E3,4.2965936E2,2.1667854E4,5.3171895E3,2.1137943E0,8.967262E2,1.3954758E2,6.3078284E2,2.1759656E3,2.5967014E2,1.9074866E2,2.5870513E3,1.9370386E3,1.1305204E3,1.162315E3,2.8189772E1,4.014696E2,1.3274612E4,8.393242E3,5.034655E0,5.312155E3,9.98705E0,8.8673914E2,8.7263885E1,5.2283688E1,6.261227E2,4.6601477E0,1.3989426E2,2.0360714E3,1.0393036E2,1.5573978E2,2.1321135E1,1.6942752E2,2.1307932E2,2.373972E3,1.5103735E3,4.2666504E2,8.778774E2,2.5264296E2,1.1611164E2,1.0462032E3,1.6404484E1,3.8506512E2,4.2173345E3,9.057278E3,7.123646E3,1.269596E3],"tree_param":{"num_deleted":"0","num_feature":"57","num_nodes":"59","size_leaf_vector":"1"}},{"base_weights":[-9.398949E-4,8.626014E-1,-3.3848384E-1,4.0140474E-1,1.0913101E0,-5.637088E-1,1.1780969E-1,1.1186354E-1,7.8515846E-1,1.1895076E0,8.2835686E-1,-3.45046E-1,-8.5733396E-1,5.9973794E-1,-6.720718E-2,7.621307E-1,-5.8967185E-1,8.5452026E-1,-7.671165E-2,-1.2762865E-1,1.1923456E0,9.4021446E-1,-9.638669E-1,4.373084E-1,-4.608772E-1,-4.4121635E-1,-1.0661283E0,-2.9288355E-1,8.528011E-1,1.594816E-1,-8.029448E-1,4.489086E-2,-8.713504E-2,1.9722315E-2,-5.0773647E-2,4.513484E-2,-9.020322E-2,5.97484E-2,-1.1181076E-1,4.9542096E-2,-1.11222506E-1,6.123383E-2,-1.0380979E-1,-1.8692404E-2,6.1667573E-2,4.5002066E-2,-2.7560234E-2,5.039345E-2,-3.4156542E-2,-5.5051472E-2,5.962498E-2,1.3303E-2,-9.6087694E-2,-1.345552E-2,5.040216E-2,3.039441E-2,-9.90845E-3,-6.164938E-2,2.9450817E-2],"categories":[],"categories_nodes":[],"categories_segments":[],"categories_sizes":[],"default_left":[0,0,0,0,0,0,0,0,0,0,0,0,0,0,0,0,0,0,0,0,0,0,0,0,0,0,0,0,0,0,0,0,0,0,0,0,0,0,0,0,0,0,0,0,0,0,0,0,0,0,0,0,0,0,0,0,0,0,0],"id":20,"left_children":[1,3,5,7,9,11,13,15,17,19,21,23,25,27,29,31,33,35,-1,-1,37,39,41,43,45,47,49,51,53,55,57,-1,-1,-1,-1,-1,-1,-1,-1,-1,-1,-1,-1,-1,-1,-1,-1,-1,-1,-1,-1,-1,-1,-1,-1,-1,-1,-1,-1],"loss_changes":[1.107492E4,1.1258579E3,2.8074207E3,3.9340253E2,1.8331445E2,1.1739941E3,8.050642E2,9.2176935E2,2.4628662E2,5.821045E1,3.9062427E2,9.503353E2,6.777412E2,5.660329E2,1.0883568E3,3.579347E2,4.0773734E2,1.9108362E2,0E0,0E0,4.934619E1,2.9545068E2,2.817552E2,8.738773E2,1.1232076E3,9.1558105E2,4.1100195E2,5.0488907E2,3.4019458E2,8.0018726E2,9.207843E2,0E0,0E0,0E0,0E0,0E0,0E0,0E0,0E0,0E0,0E0,0E0,0E0,0E0,0E0,0E0,0E0,0E0,0E0,0E0,0E0,0E0,0E0,0E0,0E0,0E0,0E0,0E0,0E0],"parents":[2147483647,0,0,1,1,2,2,3,3,4,4,5,5,6,6,7,7,8,8,9,9,10,10,11,11,12,12,13,13,14,14,15,15,16,16,17,17,20,20,21,21,22,22,23,23,24,24,25,25,26,26,27,27,28,28,29,29,30,30],"right_children":[2,4,6,8,10,12,14,16,18,20,22,24,26,28,30,32,34,36,-1,-1,38,40,42,44,46,48,50,52,54,56,58,-1,-1,-1,-1,-1,-1,-1,-1,-1,-1,-1,-1,-1,-1,-1,-1,-1,-1,-1,-1,-1,-1,-1,-1,-1,-1,-1,-1],"split_conditions":[1.5E0,2E-1,7.023769E-1,5.7735026E-1,9.3333334E-1,1.44E2,-1.5E0,1E0,1.84E2,1E-1,2.41E2,8.3E1,8E2,2.3333333E-1,2.8E0,5E-2,1E0,1.1E1,-7.671165E-2,-1.2762865E-1,1E0,5.625E-1,6.9E0,5.55E1,5.5E2,1.9E0,3.0550504E-1,-3.6363637E-3,3.2707682E-8,6E0,4.1E0,4.489086E-2,-8.713504E-2,1.9722315E-2,-5.0773647E-2,4.513484E-2,-9.020322E-2,5.97484E-2,-1.1181076E-1,4.9542096E-2,-1.11222506E-1,6.123383E-2,-1.0380979E-1,-1.8692404E-2,6.1667573E-2,4.5002066E-2,-2.7560234E-2,5.039345E-2,-3.4156542E-2,-5.5051472E-2,5.962498E-2,1.3303E-2,-9.6087694E-2,-1.345552E-2,5.040216E-2,3.039441E-2,-9.90845E-3,-6.164938E-2,2.9450817E-2],"split_indices":[24,46,25,25,24,56,40,24,45,21,56,12,13,26,18,43,32,30,0,0,4,43,22,12,13,18,23,55,23,30,19,0,0,0,0,0,0,0,0,0,0,0,0,0,0,0,0,0,0,0,0,0,0,0,0,0,0,0,0],"split_type":[0,0,0,0,0,0,0,0,0,0,0,0,0,0,0,0,0,0,0,0,0,0,0,0,0,0,0,0,0,0,0,0,0,0,0,0,0,0,0,0,0,0,0,0,0,0,0,0,0,0,0,0,0,0,0,0,0,0,0],"sum_hessian":[3.7993062E4,1.0676847E4,2.7316215E4,3.5403677E3,7.136479E3,1.8288727E4,9.027488E3,2.0186174E3,1.5217502E3,5.193495E3,1.9429838E3,1.0483692E4,7.8050337E3,2.5036887E3,6.5238E3,1.0475427E3,9.7107465E2,1.4781768E3,4.357355E1,3.2550356E0,5.19024E3,1.8292882E3,1.1369554E2,1.351633E3,9.13206E3,2.608842E3,5.196192E3,5.5298944E2,1.9506992E3,4.9877905E3,1.5360094E3,9.94322E2,5.3220764E1,2.9329056E2,6.7778406E2,1.452516E3,2.5660765E1,5.1869243E3,3.315785E0,1.8011606E3,2.8127563E1,3.8279118E1,7.541643E1,6.697242E2,6.819089E2,5.678334E2,8.564226E3,3.7276807E2,2.236074E3,5.117625E3,7.856711E1,4.123344E2,1.4065506E2,2.370245E2,1.7136747E3,2.2127908E3,2.7749998E3,1.1735564E3,3.6245294E2],"tree_param":{"num_deleted":"0","num_feature":"57","num_nodes":"59","size_leaf_vector":"1"}},{"base_weights":[-9.2791195E-4,8.397159E-1,-3.2537583E-1,3.8586727E-1,1.0689073E0,-5.4338497E-1,1.12448774E-1,1.0756006E-1,7.547728E-1,1.1698172E0,8.0260384E-1,-3.3051652E-1,-8.3339447E-1,5.7394594E-1,-6.423531E-2,3.7058026E-1,-1.5581186E0,8.211611E-1,-7.495304E-2,-1.1912636E-1,1.172685E0,9.1119826E-1,-9.299012E-1,4.1349906E-1,-4.421932E-1,-4.242578E-1,-1.0420378E0,-2.7994654E-1,8.1669164E-1,1.5178418E-1,-7.7333945E-1,4.3371927E-2,-1.4065698E-2,-8.651161E-2,-7.130165E-2,9.439814E-5,4.843628E-2,5.876655E-2,-1.0523351E-1,4.8036456E-2,-1.0493225E-1,6.004239E-2,-9.945193E-2,-4.4848517E-2,4.3149795E-2,4.2182468E-2,-2.64815E-2,4.7299135E-2,-3.296732E-2,-5.362559E-2,7.6478675E-2,-6.0475886E-2,3.2724667E-2,-1.2764673E-2,4.8330694E-2,2.8937746E-2,-9.427089E-3,-5.9755392E-2,2.7765164E-2],"categories":[],"categories_nodes":[],"categories_segments":[],"categories_sizes":[],"default_left":[0,0,0,0,0,0,0,0,0,0,0,0,0,0,0,0,0,0,0,0,0,0,0,0,0,0,0,0,0,0,0,0,0,0,0,0,0,0,0,0,0,0,0,0,0,0,0,0,0,0,0,0,0,0,0,0,0,0,0],"id":21,"left_children":[1,3,5,7,9,11,13,15,17,19,21,23,25,27,29,31,33,35,-1,-1,37,39,41,43,45,47,49,51,53,55,57,-1,-1,-1,-1,-1,-1,-1,-1,-1,-1,-1,-1,-1,-1,-1,-1,-1,-1,-1,-1,-1,-1,-1,-1,-1,-1,-1,-1],"loss_changes":[1.0213124E4,1.0842529E3,2.5789243E3,3.593141E2,1.8523828E2,1.1132183E3,7.324243E2,8.7522876E2,2.2643475E2,5.3956543E1,3.5963684E2,8.6460803E2,6.512583E2,5.156947E2,9.952078E2,5.5896436E2,3.7264404E0,1.768288E2,0E0,0E0,4.5995117E1,2.6962292E2,2.5735284E2,8.008783E2,1.017521E3,8.317335E2,3.97813E2,4.7959235E2,3.1148828E2,7.237713E2,8.507873E2,0E0,0E0,0E0,0E0,0E0,0E0,0E0,0E0,0E0,0E0,0E0,0E0,0E0,0E0,0E0,0E0,0E0,0E0,0E0,0E0,0E0,0E0,0E0,0E0,0E0,0E0,0E0,0E0],"parents":[2147483647,0,0,1,1,2,2,3,3,4,4,5,5,6,6,7,7,8,8,9,9,10,10,11,11,12,12,13,13,14,14,15,15,16,16,17,17,20,20,21,21,22,22,23,23,24,24,25,25,26,26,27,27,28,28,29,29,30,30],"right_children":[2,4,6,8,10,12,14,16,18,20,22,24,26,28,30,32,34,36,-1,-1,38,40,42,44,46,48,50,52,54,56,58,-1,-1,-1,-1,-1,-1,-1,-1,-1,-1,-1,-1,-1,-1,-1,-1,-1,-1,-1,-1,-1,-1,-1,-1,-1,-1,-1,-1],"split_conditions":[1.5E0,2E-1,7.023769E-1,5.7735026E-1,9.3333334E-1,1.44E2,-1.5E0,5E-2,1.84E2,1E-1,2.41E2,8.3E1,8E2,2.3333333E-1,2.8E0,1E0,2.3E1,5.3E1,-7.495304E-2,-1.1912636E-1,1E0,5.625E-1,6.9E0,3.4E1,5.5E2,1.9E0,2.1E0,7.5E0,3.2707682E-8,6E0,4.1E0,4.3371927E-2,-1.4065698E-2,-8.651161E-2,-7.130165E-2,9.439814E-5,4.843628E-2,5.876655E-2,-1.0523351E-1,4.8036456E-2,-1.0493225E-1,6.004239E-2,-9.945193E-2,-4.4848517E-2,4.3149795E-2,4.2182468E-2,-2.64815E-2,4.7299135E-2,-3.296732E-2,-5.362559E-2,7.6478675E-2,-6.0475886E-2,3.2724667E-2,-1.2764673E-2,4.8330694E-2,2.8937746E-2,-9.427089E-3,-5.9755392E-2,2.7765164E-2],"split_indices":[24,46,25,25,24,56,40,43,45,21,56,12,13,26,18,24,45,56,0,0,4,43,22,12,13,18,41,17,23,30,19,0,0,0,0,0,0,0,0,0,0,0,0,0,0,0,0,0,0,0,0,0,0,0,0,0,0,0,0],"split_type":[0,0,0,0,0,0,0,0,0,0,0,0,0,0,0,0,0,0,0,0,0,0,0,0,0,0,0,0,0,0,0,0,0,0,0,0,0,0,0,0,0,0,0,0,0,0,0,0,0,0,0,0,0,0,0,0,0,0,0],"sum_hessian":[3.7443668E4,1.042665E4,2.7017018E4,3.4995217E3,6.927129E3,1.8035988E4,8.981029E3,1.9954326E3,1.5040892E3,5.021098E3,1.906031E3,1.0402581E4,7.6334067E3,2.4858262E3,6.495203E3,1.7239833E3,2.714493E2,1.4616703E3,4.241888E1,3.3809206E0,5.0177173E3,1.7940529E3,1.1197824E2,1.3572916E3,9.045289E3,2.5790615E3,5.054345E3,5.5021466E2,1.9356115E3,4.979154E3,1.5160494E3,9.781387E2,7.458446E2,1.1261178E2,1.5883752E2,2.2324344E2,1.2384269E3,5.01431E3,3.406889E0,1.7656771E3,2.8375685E1,3.713569E1,7.484255E1,3.4639914E2,1.0108925E3,5.753637E2,8.469926E3,3.7724167E2,2.2018198E3,4.995728E3,5.8617035E1,2.756783E2,2.7453635E2,2.3740411E2,1.6982073E3,2.208138E3,2.7710156E3,1.1508276E3,3.6522177E2],"tree_param":{"num_deleted":"0","num_feature":"57","num_nodes":"59","size_leaf_vector":"1"}},{"base_weights":[-9.101497E-4,8.5332435E-1,-3.0036038E-1,1.0828753E0,4.4101262E-1,-5.106134E-1,1.1485011E-1,1.1287755E0,6.555552E-1,-5.6394416E-1,5.8037066E-1,-3.0136913E-1,-8.0190766E-1,2.1421231E-1,-7.26816E-1,1.1368269E0,-1.1213442E-1,8.9993113E-1,-8.461564E-2,-1.2763095E0,7.550997E-1,6.192497E-1,-1.9031993E0,4.427916E-1,-4.216622E-1,-3.0944148E-1,-9.5910543E-1,4.427604E-1,-1.4303768E-1,4.4493726E-1,-1.3218393E0,-1.368044E-1,5.7173707E-2,-1.6864042E-1,4.7330257E-2,-8.6769156E-2,4.9353134E-2,-8.999487E-2,5.5550296E-2,3.6293965E-2,-1.3157231E-2,-1.19248085E-1,-7.815151E-2,3.6459986E-2,-7.141715E-2,3.909651E-2,-2.5225777E-2,-5.5362433E-2,3.0960454E-2,4.4908874E-2,-5.0366707E-2,-1.8012515E-5,3.1350628E-2,3.928022E-3,-7.70782E-2,-7.579511E-2,5.847794E-2,-7.444743E-2,6.385779E-2],"categories":[],"categories_nodes":[],"categories_segments":[],"categories_sizes":[],"default_left":[0,0,0,0,0,0,0,0,0,0,0,0,0,0,0,0,0,0,0,0,0,0,0,0,0,0,0,0,0,0,0,0,0,0,0,0,0,0,0,0,0,0,0,0,0,0,0,0,0,0,0,0,0,0,0,0,0,0,0],"id":22,"left_children":[1,3,5,7,9,11,13,15,17,19,21,23,25,27,29,31,-1,33,-1,35,37,39,41,43,45,47,49,51,53,55,57,-1,-1,-1,-1,-1,-1,-1,-1,-1,-1,-1,-1,-1,-1,-1,-1,-1,-1,-1,-1,-1,-1,-1,-1,-1,-1,-1,-1],"loss_changes":[9.43778E3,9.0590234E2,2.3849497E3,1.199043E2,4.8021082E2,1.105145E3,7.682206E2,1.5328564E2,3.452053E2,3.935475E2,2.9179584E2,9.451099E2,5.8656104E2,6.708195E2,6.768696E2,1.4576025E2,0E0,1.1151709E2,0E0,2.839832E2,1.358009E2,2.790819E2,3.9148407E0,7.884905E2,9.066028E2,1.3607751E3,5.1559375E2,4.0906757E2,9.936571E2,4.669909E2,2.814054E2,0E0,0E0,0E0,0E0,0E0,0E0,0E0,0E0,0E0,0E0,0E0,0E0,0E0,0E0,0E0,0E0,0E0,0E0,0E0,0E0,0E0,0E0,0E0,0E0,0E0,0E0,0E0,0E0],"parents":[2147483647,0,0,1,1,2,2,3,3,4,4,5,5,6,6,7,7,8,8,9,9,10,10,11,11,12,12,13,13,14,14,15,15,17,17,19,19,20,20,21,21,22,22,23,23,24,24,25,25,26,26,27,27,28,28,29,29,30,30],"right_children":[2,4,6,8,10,12,14,16,18,20,22,24,26,28,30,32,-1,34,-1,36,38,40,42,44,46,48,50,52,54,56,58,-1,-1,-1,-1,-1,-1,-1,-1,-1,-1,-1,-1,-1,-1,-1,-1,-1,-1,-1,-1,-1,-1,-1,-1,-1,-1,-1,-1],"split_conditions":[1.4333333E0,3E0,7.023769E-1,1.94E2,4.4E0,1.44E2,1.3E2,1.4E0,5E-1,1.9E0,7.633333E0,8.3E1,-1.5789473E-2,1E0,7.6E2,-6.222222E-3,-1.1213442E-1,2.14E2,-8.461564E-2,1E1,2.31E2,1E0,5E-1,2.0454545E-3,5.5E2,-4.1666668E-2,3.4E0,9.291573E-1,9E0,2E2,2.4E0,-1.368044E-1,5.7173707E-2,-1.6864042E-1,4.7330257E-2,-8.6769156E-2,4.9353134E-2,-8.999487E-2,5.5550296E-2,3.6293965E-2,-1.3157231E-2,-1.19248085E-1,-7.815151E-2,3.6459986E-2,-7.141715E-2,3.909651E-2,-2.5225777E-2,-5.5362433E-2,3.0960454E-2,4.4908874E-2,-5.0366707E-2,-1.8012515E-5,3.1350628E-2,3.928022E-3,-7.70782E-2,-7.579511E-2,5.847794E-2,-7.444743E-2,6.385779E-2],"split_indices":[24,45,25,56,37,56,45,24,33,19,22,12,42,3,13,55,0,56,0,29,12,8,33,55,13,42,37,25,30,12,41,0,0,0,0,0,0,0,0,0,0,0,0,0,0,0,0,0,0,0,0,0,0,0,0,0,0,0,0],"split_type":[0,0,0,0,0,0,0,0,0,0,0,0,0,0,0,0,0,0,0,0,0,0,0,0,0,0,0,0,0,0,0,0,0,0,0,0,0,0,0,0,0,0,0,0,0,0,0,0,0,0,0,0,0,0,0,0,0,0,0],"sum_hessian":[3.6893047E4,9.575473E3,2.7317572E4,6.1499287E3,3.4255444E3,1.8134467E4,9.183105E3,5.551931E3,5.9799756E2,4.168018E2,3.0087424E3,1.0554751E4,7.579717E3,8.214138E3,9.6896783E2,5.539365E3,1.2565858E1,5.421817E2,5.5815845E1,2.7066068E2,1.4614111E2,2.9631072E3,4.5635315E1,1.4683733E3,9.086377E3,1.8347657E3,5.7449507E3,5.0092603E3,3.2048774E3,3.264185E2,6.425493E2,8.78757E0,5.5305776E3,5.0885687E0,5.3709314E2,2.2521434E2,4.544634E1,1.7372114E1,1.2876901E2,2.6438042E3,3.193031E2,1.6399101E1,2.9236216E1,1.2739799E3,1.9439339E2,5.846634E2,8.501714E3,9.868053E2,8.479605E2,1.4495903E2,5.5999917E3,1.4714551E3,3.5378054E3,2.767334E3,4.375435E2,8.778328E1,2.3863521E2,6.0413214E2,3.8417152E1],"tree_param":{"num_deleted":"0","num_feature":"57","num_nodes":"59","size_leaf_vector":"1"}},{"base_weights":[-9.361702E-4,6.083258E-1,-3.9670247E-1,1.5394492E-1,9.7471064E-1,1.025171E-2,-5.6063694E-1,5.6410515E-1,-8.920945E-2,9.9181134E-1,-8.9150235E-2,2.170941E-1,-9.086941E-1,-3.8353577E-1,-9.4246596E-1,6.392553E-1,-9.131281E-2,4.7551563E-1,-5.55556E-1,1.0054694E0,-8.511983E-2,3.4463257E-1,-1.2322378E0,9.500686E-1,-1.1398671E0,1.8676774E-1,-5.4023653E-1,-4.2853647E-1,-1.2135813E0,-9.195321E-2,3.5578575E-2,-1.2880518E-1,2.6423125E-2,-4.5777325E-2,3.0327505E-2,5.811307E-2,4.2355698E-2,4.077024E-2,3.5859693E-3,6.12151E-2,-7.666916E-2,-7.387764E-2,8.578012E-2,-6.4795166E-2,7.74319E-2,4.035608E-2,-2.9658306E-2,6.0789354E-2,-3.0450845E-2,-4.2994123E-2,2.096553E-2,-3.2072645E-2,-6.338284E-2],"categories":[],"categories_nodes":[],"categories_segments":[],"categories_sizes":[],"default_left":[0,0,0,0,0,0,0,0,0,0,0,0,0,0,0,0,0,0,0,0,0,0,0,0,0,0,0,0,0,0,0,0,0,0,0,0,0,0,0,0,0,0,0,0,0,0,0,0,0,0,0,0,0],"id":23,"left_children":[1,3,5,7,9,11,13,15,17,19,-1,21,23,25,27,29,-1,31,33,35,-1,37,39,41,43,45,47,49,51,-1,-1,-1,-1,-1,-1,-1,-1,-1,-1,-1,-1,-1,-1,-1,-1,-1,-1,-1,-1,-1,-1,-1,-1],"loss_changes":[8.771091E3,2.3845234E3,1.4711396E3,6.378817E2,3.75729E2,1.2039911E3,1.0626099E3,4.2877795E2,1.0579111E3,2.9173584E2,0E0,9.561492E2,5.0116187E2,9.599165E2,6.9337354E2,4.150641E2,0E0,2.949328E2,9.2094324E2,1.9373486E2,0E0,6.106055E2,3.1140247E2,2.4278476E2,4.364126E2,1.1209004E3,1.0183655E3,6.299076E2,1.0003418E2,0E0,0E0,0E0,0E0,0E0,0E0,0E0,0E0,0E0,0E0,0E0,0E0,0E0,0E0,0E0,0E0,0E0,0E0,0E0,0E0,0E0,0E0,0E0,0E0],"parents":[2147483647,0,0,1,1,2,2,3,3,4,4,5,5,6,6,7,7,8,8,9,9,11,11,12,12,13,13,14,14,15,15,17,17,18,18,19,19,21,21,22,22,23,23,24,24,25,25,26,26,27,27,28,28],"right_children":[2,4,6,8,10,12,14,16,18,20,-1,22,24,26,28,30,-1,32,34,36,-1,38,40,42,44,46,48,50,52,-1,-1,-1,-1,-1,-1,-1,-1,-1,-1,-1,-1,-1,-1,-1,-1,-1,-1,-1,-1,-1,-1,-1,-1],"split_conditions":[1.7E0,2E-1,6E0,8E2,2.6333334E0,8.8E1,1.76E2,3.1E0,5E-1,2E0,-8.9150235E-2,2E0,1E0,2E-1,2.4E0,1.4E1,-9.131281E-2,7E0,2.2666667E0,6E-1,-8.511983E-2,2.2E0,1.2E0,3.36E2,2.1E0,2.7E0,6E-1,1E1,3.7E1,-9.195321E-2,3.5578575E-2,-1.2880518E-1,2.6423125E-2,-4.5777325E-2,3.0327505E-2,5.811307E-2,4.2355698E-2,4.077024E-2,3.5859693E-3,6.12151E-2,-7.666916E-2,-7.387764E-2,8.578012E-2,-6.4795166E-2,7.74319E-2,4.035608E-2,-2.9658306E-2,6.0789354E-2,-3.0450845E-2,-4.2994123E-2,2.096553E-2,-3.2072645E-2,-6.338284E-2],"split_indices":[52,46,30,13,24,45,56,18,33,15,0,14,18,21,18,56,0,45,24,18,0,24,24,12,41,19,19,30,11,0,0,0,0,0,0,0,0,0,0,0,0,0,0,0,0,0,0,0,0,0,0,0,0],"split_type":[0,0,0,0,0,0,0,0,0,0,0,0,0,0,0,0,0,0,0,0,0,0,0,0,0,0,0,0,0,0,0,0,0,0,0,0,0,0,0,0,0,0,0,0,0,0,0,0,0,0,0,0,0],"sum_hessian":[3.637365E4,1.4323232E4,2.2050418E4,6.3944385E3,7.9287935E3,6.3321924E3,1.5718226E4,2.3794277E3,4.0150107E3,7.880566E3,4.8227367E1,5.1693945E3,1.1627977E3,1.0739159E4,4.9790664E3,2.3076116E3,7.181603E1,1.8159526E3,2.199058E3,7.8414414E3,3.9124886E1,4.7519907E3,4.1740402E2,1.2827596E2,1.0345217E3,2.3147102E3,8.424449E3,1.7204125E3,3.2586538E3,6.473327E1,2.2428784E3,3.0157438E1,1.7857952E3,1.6791217E3,5.1993646E2,3.936987E3,3.904454E3,1.7431274E3,3.0088633E3,4.5246685E1,3.7215732E2,3.0530169E1,9.774579E1,9.78263E2,5.625875E1,1.2892306E3,1.0254797E3,3.1690503E2,8.107544E3,1.1402772E3,5.8013525E2,2.8250967E2,2.976144E3],"tree_param":{"num_deleted":"0","num_feature":"57","num_nodes":"53","size_leaf_vector":"1"}},{"base_weights":[-9.818393E-4,8.9957005E-1,-2.5292233E-1,5.374732E-1,1.0520322E0,-1.3352539E-1,-7.8782004E-1,-2.030215E0,5.8448607E-1,1.1377813E0,8.126877E-1,2.718017E-1,-3.246688E-1,-1.0269862E0,-1.782252E-1,-7.9499155E-2,-1.26826E-1,6.7221254E-1,-2.7831146E-1,-1.1167508E-1,1.1403522E0,8.5263944E-1,-2.04584E0,6.05898E-1,-3.3825878E-2,-2.274071E-1,-1.1972567E0,-1.1039371E0,4.3458778E-1,5.015028E-1,-8.378871E-1,-2.981372E-2,3.6036238E-2,4.183375E-2,-1.16127394E-1,-1.09335445E-1,5.7104778E-2,4.3758906E-2,-1.9429453E-1,-1.515906E-1,-7.534354E-2,3.358769E-2,-7.650034E-2,4.6520545E-3,-7.410184E-2,2.8758267E-2,-1.6443716E-2,-3.2048263E-3,-6.453257E-2,-5.8816392E-2,6.4583505E-3,7.967191E-2,-6.61609E-2,-6.503265E-2,5.3840112E-2,-5.1801663E-2,8.4356286E-2],"categories":[],"categories_nodes":[],"categories_segments":[],"categories_sizes":[],"default_left":[0,0,0,0,0,0,0,0,0,0,0,0,0,0,0,0,0,0,0,0,0,0,0,0,0,0,0,0,0,0,0,0,0,0,0,0,0,0,0,0,0,0,0,0,0,0,0,0,0,0,0,0,0,0,0,0,0],"id":24,"left_children":[1,3,5,7,9,11,13,15,17,19,21,23,25,27,29,-1,-1,31,33,-1,35,37,39,41,43,45,47,49,51,53,55,-1,-1,-1,-1,-1,-1,-1,-1,-1,-1,-1,-1,-1,-1,-1,-1,-1,-1,-1,-1,-1,-1,-1,-1,-1,-1],"loss_changes":[8.133359E3,4.3205762E2,1.788843E3,2.817243E2,1.122334E2,1.7743557E3,7.4502515E2,5.330475E0,1.729856E2,3.7708496E1,1.6822888E2,7.494329E2,1.32052E3,4.1333838E2,6.467766E2,0E0,0E0,1.2796942E2,4.8380652E2,0E0,2.6012207E1,1.5702246E2,6.2657776E0,4.942456E2,7.045446E2,1.1405347E3,1.6506372E2,3.1146875E2,3.775727E2,7.38114E2,3.6794507E2,0E0,0E0,0E0,0E0,0E0,0E0,0E0,0E0,0E0,0E0,0E0,0E0,0E0,0E0,0E0,0E0,0E0,0E0,0E0,0E0,0E0,0E0,0E0,0E0,0E0,0E0],"parents":[2147483647,0,0,1,1,2,2,3,3,4,4,5,5,6,6,7,7,8,8,9,9,10,10,11,11,12,12,13,13,14,14,17,17,18,18,20,20,21,21,22,22,23,23,24,24,25,25,26,26,27,27,28,28,29,29,30,30],"right_children":[2,4,6,8,10,12,14,16,18,20,22,24,26,28,30,-1,-1,32,34,-1,36,38,40,42,44,46,48,50,52,54,56,-1,-1,-1,-1,-1,-1,-1,-1,-1,-1,-1,-1,-1,-1,-1,-1,-1,-1,-1,-1,-1,-1,-1,-1,-1,-1],"split_conditions":[4E-1,2E-1,1.16E2,1.7E1,8.7E1,6E0,7.5E0,-2.5490196E-2,2.8E0,1.4E1,3.1E0,1.7E0,2.75E2,1.5E-1,1.3333334E-1,-7.9499155E-2,-1.26826E-1,-5.7142857E-2,-1.25E-2,-1.1167508E-1,1E-1,3E-1,1E-1,4.845E2,2E0,1.4E0,8E-1,8E-1,7.6E2,1E-1,2.1E0,-2.981372E-2,3.6036238E-2,4.183375E-2,-1.16127394E-1,-1.09335445E-1,5.7104778E-2,4.3758906E-2,-1.9429453E-1,-1.515906E-1,-7.534354E-2,3.358769E-2,-7.650034E-2,4.6520545E-3,-7.410184E-2,2.8758267E-2,-1.6443716E-2,-3.2048263E-3,-6.453257E-2,-5.8816392E-2,6.4583505E-3,7.967191E-2,-6.61609E-2,-6.503265E-2,5.3840112E-2,-5.1801663E-2,8.4356286E-2],"split_indices":[33,46,45,12,56,30,17,55,19,11,19,33,56,44,26,0,0,44,44,0,20,40,33,12,14,24,33,43,13,26,41,0,0,0,0,0,0,0,0,0,0,0,0,0,0,0,0,0,0,0,0,0,0,0,0,0,0],"split_type":[0,0,0,0,0,0,0,0,0,0,0,0,0,0,0,0,0,0,0,0,0,0,0,0,0,0,0,0,0,0,0,0,0,0,0,0,0,0,0,0,0,0,0,0,0,0,0,0,0,0,0,0,0,0,0,0,0],"sum_hessian":[3.584586E4,7.8355186E3,2.801034E4,2.32298E3,5.5125386E3,2.289998E4,5.110359E3,4.100918E1,2.281971E3,4.0557473E3,1.4567915E3,7.3383345E3,1.5561646E4,3.6698562E3,1.4405027E3,2.4150612E1,1.6858568E1,2.071562E3,2.1040884E2,2.4293497E0,4.0533179E3,1.4374036E3,1.938793E1,3.5054143E3,3.8329202E3,1.4002176E4,1.5594711E3,3.486537E3,1.8331908E2,7.09579E2,7.309237E2,7.5891014E1,1.995671E3,1.3653136E2,7.387749E1,1.4663225E0,4.0518516E3,1.4314104E3,5.9931464E0,5.2176824E0,1.4170248E1,3.4012307E3,1.041837E2,3.5250522E3,3.078678E2,1.5710461E3,1.243113E4,1.18872734E2,1.4405983E3,3.2932493E3,1.9328783E2,1.105388E2,7.2780266E1,1.7139966E2,5.381793E2,6.782861E2,5.2637665E1],"tree_param":{"num_deleted":"0","num_feature":"57","num_nodes":"57","size_leaf_vector":"1"}},{"base_weights":[-1.0019335E-3,8.792907E-1,-2.4291714E-1,1.1455449E0,6.6554415E-1,-1.2781581E-1,-7.67856E-1,-1.2235689E-1,1.1480767E0,1.0647982E0,5.177873E-1,2.5865734E-1,-3.1133658E-1,-2.896059E-1,-1.0683542E0,1.1506046E0,-1.1884459E-1,1.0862951E0,-1.1461934E-1,4.6366535E-2,6.7862105E-1,-6.1518088E-2,5.570655E-1,-2.174037E-1,-1.1777749E0,3.218483E-1,-9.0228957E-1,-1.2139826E0,6.9558877E-1,-1.2220224E-1,5.7641905E-2,-1.3610514E-1,5.465628E-2,2.5594244E-2,-6.704831E-2,3.488786E-2,-1.383656E-1,-2.9382551E-2,1.9326752E-2,-4.180316E-2,3.5062596E-2,-5.3203516E-3,-4.5622837E-2,-3.0477894E-3,-6.3660406E-2,7.7916816E-2,-2.4348618E-2,-6.382894E-2,1.9525578E-2,-6.421884E-2,2.2691596E-2,-6.6200964E-2,5.987913E-2],"categories":[],"categories_nodes":[],"categories_segments":[],"categories_sizes":[],"default_left":[0,0,0,0,0,0,0,0,0,0,0,0,0,0,0,0,0,0,0,0,0,0,0,0,0,0,0,0,0,0,0,0,0,0,0,0,0,0,0,0,0,0,0,0,0,0,0,0,0,0,0,0,0],"id":25,"left_children":[1,3,5,7,9,11,13,-1,15,17,19,21,23,25,27,29,-1,31,-1,33,35,37,39,41,43,45,47,49,51,-1,-1,-1,-1,-1,-1,-1,-1,-1,-1,-1,-1,-1,-1,-1,-1,-1,-1,-1,-1,-1,-1,-1,-1],"loss_changes":[7.529528E3,4.3301074E2,1.6756943E3,3.366797E1,2.4900244E2,1.6135477E3,7.164673E2,0E0,3.295117E1,8.488684E1,2.3421881E2,6.9987897E2,1.2551172E3,7.217988E2,7.875686E2,3.0029785E1,0E0,3.2503906E1,0E0,5.0895084E2,1.5383069E2,8.3343036E2,7.621736E2,1.0736008E3,1.6069556E2,9.6552313E2,4.6611932E2,3.3276953E2,2.3902249E2,0E0,0E0,0E0,0E0,0E0,0E0,0E0,0E0,0E0,0E0,0E0,0E0,0E0,0E0,0E0,0E0,0E0,0E0,0E0,0E0,0E0,0E0,0E0,0E0],"parents":[2147483647,0,0,1,1,2,2,3,3,4,4,5,5,6,6,8,8,9,9,10,10,11,11,12,12,13,13,14,14,15,15,17,17,19,19,20,20,21,21,22,22,23,23,24,24,25,25,26,26,27,27,28,28],"right_children":[2,4,6,8,10,12,14,-1,16,18,20,22,24,26,28,30,-1,32,-1,34,36,38,40,42,44,46,48,50,52,-1,-1,-1,-1,-1,-1,-1,-1,-1,-1,-1,-1,-1,-1,-1,-1,-1,-1,-1,-1,-1,-1,-1,-1],"split_conditions":[4E-1,6E-1,1.16E2,1E-1,3.9E-1,6E0,2E-1,-1.2235689E-1,2.6666668E-1,7.7E0,-1.4285714E-3,4E0,2.75E2,2E0,1.5E-1,1.2E0,-1.1884459E-1,3.2E1,-1.1461934E-1,-4.5714285E-3,1.1E1,1E0,-2E-2,2.22E2,8E-1,1.44E2,7.017544E-4,2.081666E-1,2.6E0,-1.2220224E-1,5.7641905E-2,-1.3610514E-1,5.465628E-2,2.5594244E-2,-6.704831E-2,3.488786E-2,-1.383656E-1,-2.9382551E-2,1.9326752E-2,-4.180316E-2,3.5062596E-2,-5.3203516E-3,-4.5622837E-2,-3.0477894E-3,-6.3660406E-2,7.7916816E-2,-2.4348618E-2,-6.382894E-2,1.9525578E-2,-6.421884E-2,2.2691596E-2,-6.6200964E-2,5.987913E-2],"split_indices":[33,24,45,21,52,30,20,0,43,16,55,30,56,32,44,13,0,11,0,55,29,6,44,11,33,56,55,23,19,0,0,0,0,0,0,0,0,0,0,0,0,0,0,0,0,0,0,0,0,0,0,0,0],"split_type":[0,0,0,0,0,0,0,0,0,0,0,0,0,0,0,0,0,0,0,0,0,0,0,0,0,0,0,0,0,0,0,0,0,0,0,0,0,0,0,0,0,0,0,0,0,0,0,0,0,0,0,0,0],"sum_hessian":[3.5355168E4,7.6209727E3,2.7734193E4,3.3917122E3,4.2292603E3,2.2747648E4,4.986546E3,1.7084229E0,3.3900037E3,1.1407183E3,3.088542E3,7.323922E3,1.5423727E4,1.9249329E3,3.0616128E3,3.3882476E3,1.7562886E0,1.1341326E3,6.58569E0,7.859955E2,2.3025464E3,3.5334834E3,3.7904385E3,1.3916276E4,1.5074498E3,9.636707E2,9.6126215E2,2.8284153E3,2.3319768E2,1.4251814E0,3.3868223E3,1.3187788E0,1.1328138E3,5.889911E2,1.9700443E2,2.2906235E3,1.1922859E1,1.6249963E3,1.908487E3,3.5505923E2,3.4353792E3,1.20009375E4,1.9153394E3,1.1880125E2,1.3886486E3,3.8071872E2,5.82952E2,7.454527E2,2.1580946E2,2.71409E3,1.14325035E2,4.609839E1,1.8709929E2],"tree_param":{"num_deleted":"0","num_feature":"57","num_nodes":"53","size_leaf_vector":"1"}},{"base_weights":[-1.0338075E-3,7.766639E-1,-2.6044965E-1,1.0137284E0,3.8346878E-1,-4.515319E-1,1.0797563E-1,1.0632552E0,5.5981976E-1,-6.0068685E-1,5.191414E-1,-2.509565E-1,-7.478691E-1,1.9552737E-1,-6.709681E-1,-1.3361679E-1,1.0709261E0,8.134292E-1,-8.280184E-2,-1.2717326E0,6.7395985E-1,5.5674756E-1,-1.8461884E0,1.5011181E0,-3.0364415E-1,1.8114517E0,-7.9184747E-1,4.0701994E-1,-1.359478E-1,4.3043438E-1,-1.257848E0,5.396385E-2,-1.0557234E-1,-1.601895E-1,4.3221913E-2,-8.5002296E-2,4.5519628E-2,-8.765405E-2,5.1645275E-2,3.306153E-2,-1.4683859E-2,-1.1527195E-1,-7.52092E-2,-7.201486E-2,9.614779E-2,9.708222E-3,-2.4284197E-2,1.1684519E-1,-6.770864E-2,-4.212592E-2,4.487094E-2,-5.1532544E-2,2.3162037E-2,3.4630056E-3,-7.413894E-2,-7.207059E-2,5.4348927E-2,-7.0917405E-2,6.1121173E-2],"categories":[],"categories_nodes":[],"categories_segments":[],"categories_sizes":[],"default_left":[0,0,0,0,0,0,0,0,0,0,0,0,0,0,0,0,0,0,0,0,0,0,0,0,0,0,0,0,0,0,0,0,0,0,0,0,0,0,0,0,0,0,0,0,0,0,0,0,0,0,0,0,0,0,0,0,0,0,0],"id":26,"left_children":[1,3,5,7,9,11,13,15,17,19,21,23,25,27,29,-1,31,33,-1,35,37,39,41,43,45,47,49,51,53,55,57,-1,-1,-1,-1,-1,-1,-1,-1,-1,-1,-1,-1,-1,-1,-1,-1,-1,-1,-1,-1,-1,-1,-1,-1,-1,-1,-1,-1],"loss_changes":[7.0428926E3,8.1354395E2,1.8429324E3,1.21856445E2,4.390744E2,1.0243794E3,6.0988257E2,1.4355762E2,3.0366693E2,3.417844E2,2.5795966E2,9.495464E2,7.845154E2,5.635757E2,5.846372E2,0E0,1.3251758E2,1.0182382E2,0E0,2.4592023E2,1.2213789E2,2.5289972E2,3.668686E0,3.754016E2,9.046677E2,1.9917218E2,5.862803E2,3.9713794E2,8.656598E2,3.8851782E2,2.3650879E2,0E0,0E0,0E0,0E0,0E0,0E0,0E0,0E0,0E0,0E0,0E0,0E0,0E0,0E0,0E0,0E0,0E0,0E0,0E0,0E0,0E0,0E0,0E0,0E0,0E0,0E0,0E0,0E0],"parents":[2147483647,0,0,1,1,2,2,3,3,4,4,5,5,6,6,7,7,8,8,9,9,10,10,11,11,12,12,13,13,14,14,16,16,17,17,19,19,20,20,21,21,22,22,23,23,24,24,25,25,26,26,27,27,28,28,29,29,30,30],"right_children":[2,4,6,8,10,12,14,16,18,20,22,24,26,28,30,-1,32,34,-1,36,38,40,42,44,46,48,50,52,54,56,58,-1,-1,-1,-1,-1,-1,-1,-1,-1,-1,-1,-1,-1,-1,-1,-1,-1,-1,-1,-1,-1,-1,-1,-1,-1,-1,-1,-1],"split_conditions":[1.4333333E0,3E0,7.023769E-1,1.94E2,4.4E0,2.61E0,1.3E2,-6.222222E-3,5E-1,1.9E0,7.633333E0,3.4E0,2E0,1E0,7.6E2,-1.3361679E-1,1.4E0,2.14E2,-8.280184E-2,1E1,2.31E2,1E0,5E-1,2.5666666E0,-1.3636364E-2,4.3333334E-1,1E1,4.5E2,9E0,2E2,2.4E0,5.396385E-2,-1.0557234E-1,-1.601895E-1,4.3221913E-2,-8.5002296E-2,4.5519628E-2,-8.765405E-2,5.1645275E-2,3.306153E-2,-1.4683859E-2,-1.1527195E-1,-7.52092E-2,-7.201486E-2,9.614779E-2,9.708222E-3,-2.4284197E-2,1.1684519E-1,-6.770864E-2,-4.212592E-2,4.487094E-2,-5.1532544E-2,2.3162037E-2,3.4630056E-3,-7.413894E-2,-7.207059E-2,5.4348927E-2,-7.0917405E-2,6.1121173E-2],"split_indices":[24,45,25,56,37,52,45,55,33,19,22,37,56,3,13,0,24,56,0,29,12,8,33,24,42,26,29,13,30,12,41,0,0,0,0,0,0,0,0,0,0,0,0,0,0,0,0,0,0,0,0,0,0,0,0,0,0,0,0],"split_type":[0,0,0,0,0,0,0,0,0,0,0,0,0,0,0,0,0,0,0,0,0,0,0,0,0,0,0,0,0,0,0,0,0,0,0,0,0,0,0,0,0,0,0,0,0,0,0,0,0,0,0,0,0,0,0,0,0,0,0],"sum_hessian":[3.4907508E4,8.731005E3,2.6176504E4,5.4459595E3,3.285046E3,1.7236592E4,8.939912E3,4.9089873E3,5.369718E2,3.9758398E2,2.887462E3,1.0280261E4,6.956331E3,8.037286E3,9.026262E2,9.347811E0,4.8996396E3,4.8239374E2,5.457807E1,2.604636E2,1.3712039E2,2.8430254E3,4.4436405E1,2.99316E2,9.980944E3,1.1683664E2,6.839494E3,4.906526E3,3.1307603E3,3.1386316E2,5.8876306E2,4.887475E3,1.2164519E1,5.273463E0,4.7712027E2,2.1791214E2,4.255145E1,1.716614E1,1.19954254E2,2.5321487E3,3.108767E2,1.6516602E1,2.7919804E1,3.723904E1,2.6207697E2,2.6725322E3,7.3084126E3,1.004286E2,1.6408045E1,6.6407993E3,1.9869508E2,1.8399883E2,4.722527E3,2.7176396E3,4.1312054E2,8.119006E1,2.3267311E2,5.5338153E2,3.538153E1],"tree_param":{"num_deleted":"0","num_feature":"57","num_nodes":"59","size_leaf_vector":"1"}},{"base_weights":[-1.029323E-3,5.468079E-1,-3.4765643E-1,1.3205098E-1,9.0508366E-1,9.751782E-1,-3.932684E-1,-1.2533436E0,1.9875447E-1,9.226593E-1,-8.5329905E-2,-6.861077E-2,1.1919336E0,-5.1987106E-1,7.457094E-2,5.899846E-2,-1.6120198E0,5.9736234E-1,-4.7393158E-2,9.3669623E-1,-8.3236314E-2,-7.970127E-2,1.2776172E0,-4.1856232E-1,-1.1815714E0,7.281763E-1,-3.6738417E-1,-1.1915715E-1,-7.1979456E-2,3.3387672E-2,-8.792092E-2,2.1564936E-2,-2.2494895E-2,5.374158E-2,3.6892604E-2,-7.440251E-2,6.732636E-2,-1.6292345E-2,-5.9232604E-2,8.388389E-2,-6.307232E-2,6.376109E-2,-1.2992431E-2,-6.398607E-3,-6.507384E-2],"categories":[],"categories_nodes":[],"categories_segments":[],"categories_sizes":[],"default_left":[0,0,0,0,0,0,0,0,0,0,0,0,0,0,0,0,0,0,0,0,0,0,0,0,0,0,0,0,0,0,0,0,0,0,0,0,0,0,0,0,0,0,0,0,0],"id":27,"left_children":[1,3,5,7,9,11,13,15,17,19,-1,-1,21,23,25,-1,27,29,31,33,-1,-1,35,37,39,41,43,-1,-1,-1,-1,-1,-1,-1,-1,-1,-1,-1,-1,-1,-1,-1,-1,-1,-1],"loss_changes":[6.541138E3,1.9834612E3,1.2733364E3,5.7207367E2,3.3031738E2,3.5957715E2,1.2080203E3,2.5010272E2,5.7935443E2,2.599546E2,0E0,0E0,1.5589893E2,1.0755239E3,1.2552429E3,0E0,2.9580688E1,3.7498254E2,7.037032E2,1.9358936E2,0E0,0E0,1.2128491E2,9.8844727E2,4.8872314E2,9.477844E2,5.7961975E2,0E0,0E0,0E0,0E0,0E0,0E0,0E0,0E0,0E0,0E0,0E0,0E0,0E0,0E0,0E0,0E0,0E0,0E0],"parents":[2147483647,0,0,1,1,2,2,3,3,4,4,5,5,6,6,7,7,8,8,9,9,12,12,13,13,14,14,16,16,17,17,18,18,19,19,22,22,23,23,24,24,25,25,26,26],"right_children":[2,4,6,8,10,12,14,16,18,20,-1,-1,22,24,26,-1,28,30,32,34,-1,-1,36,38,40,42,44,-1,-1,-1,-1,-1,-1,-1,-1,-1,-1,-1,-1,-1,-1,-1,-1,-1,-1],"split_conditions":[1.7E0,2E-1,7E0,1E-1,2.6333334E0,6.027714E-1,7E0,-4E-1,8E2,2E0,-8.5329905E-2,-6.861077E-2,-2.7272727E-2,3.2E0,1.1E1,5.899846E-2,5E-1,3.1E0,5E-1,1E-1,-8.3236314E-2,-7.970127E-2,3.6E2,2.75E2,2E0,1.23E2,1.1E1,-1.1915715E-1,-7.1979456E-2,3.3387672E-2,-8.792092E-2,2.1564936E-2,-2.2494895E-2,5.374158E-2,3.6892604E-2,-7.440251E-2,6.732636E-2,-1.6292345E-2,-5.9232604E-2,8.388389E-2,-6.307232E-2,6.376109E-2,-1.2992431E-2,-6.398607E-3,-6.507384E-2],"split_indices":[52,46,12,20,24,25,29,39,13,15,0,0,42,18,45,0,33,18,33,33,0,0,13,56,56,56,30,0,0,0,0,0,0,0,0,0,0,0,0,0,0,0,0,0,0],"split_type":[0,0,0,0,0,0,0,0,0,0,0,0,0,0,0,0,0,0,0,0,0,0,0,0,0,0,0,0,0,0,0,0,0,0,0,0,0,0,0,0,0,0,0,0,0],"sum_hessian":[3.444404E4,1.3347696E4,2.1096344E4,6.1868623E3,7.160834E3,7.024875E2,2.0393857E4,2.8338217E2,5.90348E3,7.113609E3,4.7225224E1,5.8932816E1,6.435547E2,1.6050341E4,4.343516E3,3.6110867E1,2.4727132E2,2.2532207E3,3.6502593E3,7.0758594E3,3.7749546E1,1.867702E1,6.248776E2,1.3920668E4,2.1296726E3,1.7519371E3,2.591579E3,4.284488E1,2.0442644E2,2.1885432E3,6.467746E1,1.6672986E3,1.9829607E3,4.1727085E3,2.9031511E3,1.4690451E1,6.101872E2,1.2419083E4,1.5015851E3,5.7333206E1,2.0723396E3,1.1274208E3,6.2451636E2,2.0637644E3,5.278148E2],"tree_param":{"num_deleted":"0","num_feature":"57","num_nodes":"45","size_leaf_vector":"1"}},{"base_weights":[-1.0078385E-3,7.394447E-1,-2.4148892E-1,9.805712E-1,3.5652077E-1,-4.219162E-1,1.0239617E-1,1.0786014E0,7.31255E-1,-6.0336345E-1,4.8751146E-1,-2.2883926E-1,-7.133003E-1,1.845873E-1,-6.471782E-1,-1.3539985E-1,1.0875702E0,-1.4397429E-1,7.605668E-1,-1.249464E0,6.367791E-1,8.403241E-1,2.4536756E-1,-9.431136E-2,-8.972738E-1,-1.9687009E-1,-9.191753E-1,2.310863E-1,-1.2534095E0,4.112545E-1,-1.2284912E0,-1.23913564E-1,5.4676343E-2,-1.5400313E-1,3.936743E-2,-8.300433E-2,4.3404028E-2,-8.5389696E-2,4.965189E-2,4.4753607E-2,-8.835923E-2,-1.502665E-2,3.759117E-2,7.565153E-2,-7.6005817E-3,-5.4824766E-2,7.568396E-3,2.1041742E-2,-4.5621958E-2,-4.706958E-3,-5.0825506E-2,1.3396503E-2,-7.84819E-2,5.378166E-2,-7.701685E-2,-7.042113E-2,5.14606E-2,-6.9276E-2,5.9851855E-2],"categories":[],"categories_nodes":[],"categories_segments":[],"categories_sizes":[],"default_left":[0,0,0,0,0,0,0,0,0,0,0,0,0,0,0,0,0,0,0,0,0,0,0,0,0,0,0,0,0,0,0,0,0,0,0,0,0,0,0,0,0,0,0,0,0,0,0,0,0,0,0,0,0,0,0,0,0,0,0],"id":28,"left_children":[1,3,5,7,9,11,13,15,17,19,21,23,25,27,29,-1,31,-1,33,35,37,39,41,43,45,47,49,51,53,55,57,-1,-1,-1,-1,-1,-1,-1,-1,-1,-1,-1,-1,-1,-1,-1,-1,-1,-1,-1,-1,-1,-1,-1,-1,-1,-1,-1,-1],"loss_changes":[6.0512866E3,7.6890186E2,1.5916757E3,1.2414111E2,4.0524988E2,9.464043E2,5.4401886E2,1.27475586E2,1.5520154E2,3.1102798E2,2.4194934E2,9.1003174E2,7.126914E2,5.323203E2,5.373969E2,0E0,8.0427246E1,0E0,1.500149E2,2.23077E2,1.1302553E2,1.6620996E2,4.6533594E2,7.817375E2,3.543883E2,8.4566486E2,3.8485352E2,5.1183487E2,1.6831274E2,3.5014835E2,2.1628302E2,0E0,0E0,0E0,0E0,0E0,0E0,0E0,0E0,0E0,0E0,0E0,0E0,0E0,0E0,0E0,0E0,0E0,0E0,0E0,0E0,0E0,0E0,0E0,0E0,0E0,0E0,0E0,0E0],"parents":[2147483647,0,0,1,1,2,2,3,3,4,4,5,5,6,6,7,7,8,8,9,9,10,10,11,11,12,12,13,13,14,14,16,16,18,18,19,19,20,20,21,21,22,22,23,23,24,24,25,25,26,26,27,27,28,28,29,29,30,30],"right_children":[2,4,6,8,10,12,14,16,18,20,22,24,26,28,30,-1,32,-1,34,36,38,40,42,44,46,48,50,52,54,56,58,-1,-1,-1,-1,-1,-1,-1,-1,-1,-1,-1,-1,-1,-1,-1,-1,-1,-1,-1,-1,-1,-1,-1,-1,-1,-1,-1,-1],"split_conditions":[1.4333333E0,3E0,7.023769E-1,9.1E1,4.4E0,2.61E0,1.3E2,2E0,1E-1,1.9E0,1E0,2.458E2,5.8E1,3.5E0,7.6E2,-1.3539985E-1,-6.222222E-3,-1.4397429E-1,1.07E2,1E1,2.31E2,6E-1,6.027714E-1,3.4E0,1E0,7.4E0,5.7735026E-2,4.6E0,0E0,2E2,2.4E0,-1.23913564E-1,5.4676343E-2,-1.5400313E-1,3.936743E-2,-8.300433E-2,4.3404028E-2,-8.5389696E-2,4.965189E-2,4.4753607E-2,-8.835923E-2,-1.502665E-2,3.759117E-2,7.565153E-2,-7.6005817E-3,-5.4824766E-2,7.568396E-3,2.1041742E-2,-4.5621958E-2,-4.706958E-3,-5.0825506E-2,1.3396503E-2,-7.84819E-2,5.378166E-2,-7.701685E-2,-7.042113E-2,5.14606E-2,-6.9276E-2,5.9851855E-2],"split_indices":[24,45,25,56,37,52,45,56,19,19,24,11,56,28,13,0,55,0,56,29,12,33,25,37,0,17,25,52,33,12,41,0,0,0,0,0,0,0,0,0,0,0,0,0,0,0,0,0,0,0,0,0,0,0,0,0,0,0,0],"split_type":[0,0,0,0,0,0,0,0,0,0,0,0,0,0,0,0,0,0,0,0,0,0,0,0,0,0,0,0,0,0,0,0,0,0,0,0,0,0,0,0,0,0,0,0,0,0,0,0,0,0,0,0,0,0,0,0,0,0,0],"sum_hessian":[3.3981617E4,8.330266E3,2.5651354E4,5.1105806E3,3.219685E3,1.6824016E4,8.827336E3,3.6658542E3,1.4447264E3,3.8618213E2,2.833503E3,1.0120053E4,6.7039634E3,7.9557397E3,8.7159644E2,7.9511456E0,3.657903E3,1.0850743E1,1.4338756E3,2.5389705E2,1.3228508E2,1.1522141E3,1.681289E3,8.425494E3,1.6945583E3,1.9113546E3,4.792609E3,7.7073545E3,2.4838535E2,3.09097E2,5.6249945E2,5.4080687E0,3.6524949E3,9.140095E0,1.4247356E3,2.1284027E2,4.1056778E1,1.6948917E1,1.1533616E2,1.1291626E3,2.3051495E1,8.093309E2,8.7195807E2,2.9110257E2,8.1343916E3,1.4239836E3,2.7057477E2,1.0260464E3,8.853082E2,5.0595587E2,4.2866533E3,7.553654E3,1.5370052E2,2.6942165E1,2.2144318E2,7.803397E1,2.31063E2,5.2870013E2,3.37993E1],"tree_param":{"num_deleted":"0","num_feature":"57","num_nodes":"59","size_leaf_vector":"1"}},{"base_weights":[-1.0205414E-3,8.071571E-1,-2.0833622E-1,1.0982956E0,5.8933693E-1,-1.0229007E-1,-7.118662E-1,-1.1865663E-1,1.1011754E0,1.0120053E0,4.412065E-1,2.5340554E-1,-2.7428493E-1,-9.624363E-1,-1.01101056E-1,1.1040392E0,-1.1340491E-1,1.0353829E0,-1.1140126E-1,-1.2008613E-2,6.0123426E-1,3.7705094E-1,-4.2638084E-1,-1.8716067E-1,-1.1349101E0,-1.0398698E0,4.187337E-1,-9.3366504E-1,4.383812E-1,-1.2211875E-1,5.5328984E-2,5.2199062E-2,-1.1776649E-1,2.2325732E-2,-6.726806E-2,3.1043941E-2,-1.3254268E-1,2.2571059E-2,-4.095396E-2,-7.053458E-2,6.4396807E-3,-1.9356295E-2,8.706677E-3,-5.0683515E-3,-6.2296074E-2,