{"learner":{"attributes":{"best_iteration":"153","best_score":"0.11749963195117635","scikit_learn":"{\"_estimator_type\": \"regressor\"}"},"feature_names":[],"feature_types":[],"gradient_booster":{"model":{"cats":{"enc":[],"feature_segments":[],"sorted_idx":[]},"gbtree_model_param":{"num_parallel_tree":"1","num_trees":"204"},"iteration_indptr":[0,1,2,3,4,5,6,7,8,9,10,11,12,13,14,15,16,17,18,19,20,21,22,23,24,25,26,27,28,29,30,31,32,33,34,35,36,37,38,39,40,41,42,43,44,45,46,47,48,49,50,51,52,53,54,55,56,57,58,59,60,61,62,63,64,65,66,67,68,69,70,71,72,73,74,75,76,77,78,79,80,81,82,83,84,85,86,87,88,89,90,91,92,93,94,95,96,97,98,99,100,101,102,103,104,105,106,107,108,109,110,111,112,113,114,115,116,117,118,119,120,121,122,123,124,125,126,127,128,129,130,131,132,133,134,135,136,137,138,139,140,141,142,143,144,145,146,147,148,149,150,151,152,153,154,155,156,157,158,159,160,161,162,163,164,165,166,167,168,169,170,171,172,173,174,175,176,177,178,179,180,181,182,183,184,185,186,187,188,189,190,191,192,193,194,195,196,197,198,199,200,201,202,203,204],"tree_info":[0,0,0,0,0,0,0,0,0,0,0,0,0,0,0,0,0,0,0,0,0,0,0,0,0,0,0,0,0,0,0,0,0,0,0,0,0,0,0,0,0,0,0,0,0,0,0,0,0,0,0,0,0,0,0,0,0,0,0,0,0,0,0,0,0,0,0,0,0,0,0,0,0,0,0,0,0,0,0,0,0,0,0,0,0,0,0,0,0,0,0,0,0,0,0,0,0,0,0,0,0,0,0,0,0,0,0,0,0,0,0,0,0,0,0,0,0,0,0,0,0,0,0,0,0,0,0,0,0,0,0,0,0,0,0,0,0,0,0,0,0,0,0,0,0,0,0,0,0,0,0,0,0,0,0,0,0,0,0,0,0,0,0,0,0,0,0,0,0,0,0,0,0,0,0,0,0,0,0,0,0,0,0,0,0,0,0,0,0,0,0,0,0,0,0,0,0,0,0,0,0,0,0,0],"trees":[{"base_weights":[1.9084245E-4,-7.3311515E-2,1.12410225E-1,-4.99384E-2,-2.2615525E-1,7.9343654E-2,2.5759244E-1,-1.0302157E-1,-2.2317193E-2,-3.3743495E-1,-2.0007451E-1,4.928085E-2,1.2550366E-1,2.1319598E-1,3.588683E-1,-1.1348653E-1,-6.2502496E-2,-4.455762E-2,-8.377942E-4,-4.1726604E-1,-3.038775E-1,-2.4309468E-1,-1.7917627E-1,5.772009E-2,-3.886626E-2,1.3491507E-1,-1.2568115E-2,2.3357566E-1,1.05579145E-1,3.8986057E-1,1.8293707E-1,-6.057728E-3,-4.49066E-3,-2.8786259E-3,-5.9705516E-3,-2.0231481E-3,-4.9688593E-3,3.375388E-4,-3.9975406E-3,-3.6901295E-2,-2.0440927E-2,-1.569847E-2,-1.3095038E-2,-1.2208426E-2,3.8913544E-2,-9.876337E-3,-6.671797E-3,2.569637E-3,4.6360446E-3,-5.8871154E-3,-5.295458E-4,4.538326E-3,7.4196286E-3,-7.006196E-3,9.17152E-4,8.275493E-3,1.2697301E-2,6.036182E-3,-1.3561527E-3,1.9566635E-2,-4.6086453E-2,5.49278E-3,1.4063838E-2],"categories":[],"categories_nodes":[],"categories_segments":[],"categories_sizes":[],"default_left":[0,0,0,0,0,0,0,0,0,0,0,0,0,0,0,0,0,0,0,0,0,0,0,0,0,0,0,0,0,0,0,0,0,0,0,0,0,0,0,0,0,0,0,0,0,0,0,0,0,0,0,0,0,0,0,0,0,0,0,0,0,0,0],"id":0,"left_children":[1,3,5,7,9,11,13,15,17,19,21,23,25,27,29,31,33,35,37,39,41,43,45,47,49,51,53,55,57,59,61,-1,-1,-1,-1,-1,-1,-1,-1,-1,-1,-1,-1,-1,-1,-1,-1,-1,-1,-1,-1,-1,-1,-1,-1,-1,-1,-1,-1,-1,-1,-1,-1],"loss_changes":[6.891403E2,1.8030475E2,1.5868509E2,6.4188065E1,1.9309296E1,3.735263E1,2.7441986E1,6.3293915E0,1.375541E1,3.2006378E0,4.79335E0,1.2140026E1,1.3815399E1,9.299789E0,1.0051239E1,2.129303E0,8.3954525E-1,3.1579838E0,8.806657E0,5.915756E-1,2.4060059E-1,2.0779343E0,3.01091E0,3.2784004E0,3.1640215E0,5.87941E0,2.6880326E0,4.888092E0,1.3832555E0,3.3699493E0,1.9566679E0,0E0,0E0,0E0,0E0,0E0,0E0,0E0,0E0,0E0,0E0,0E0,0E0,0E0,0E0,0E0,0E0,0E0,0E0,0E0,0E0,0E0,0E0,0E0,0E0,0E0,0E0,0E0,0E0,0E0,0E0,0E0,0E0],"parents":[2147483647,0,0,1,1,2,2,3,3,4,4,5,5,6,6,7,7,8,8,9,9,10,10,11,11,12,12,13,13,14,14,15,15,16,16,17,17,18,18,19,19,20,20,21,21,22,22,23,23,24,24,25,25,26,26,27,27,28,28,29,29,30,30],"right_children":[2,4,6,8,10,12,14,16,18,20,22,24,26,28,30,32,34,36,38,40,42,44,46,48,50,52,54,56,58,60,62,-1,-1,-1,-1,-1,-1,-1,-1,-1,-1,-1,-1,-1,-1,-1,-1,-1,-1,-1,-1,-1,-1,-1,-1,-1,-1,-1,-1,-1,-1,-1,-1],"split_conditions":[7.4E0,1E0,7.5666666E0,7.266667E0,7.0333333E0,7.4666667E0,7.7E0,1E-1,7.3333335E0,6.9333334E0,-1E-1,2.112676E-2,2.9411765E-2,2E-1,4.5454544E-3,7.233333E0,1.6666668E-2,2.4038462E-2,2.6213592E-2,6E-1,6E0,8.1E0,7.2E0,3E-1,1.7E1,3E-1,1.2E1,4E-1,6.25E-2,1.59E1,1E3,-6.057728E-3,-4.49066E-3,-2.8786259E-3,-5.9705516E-3,-2.0231481E-3,-4.9688593E-3,3.375388E-4,-3.9975406E-3,-3.6901295E-2,-2.0440927E-2,-1.569847E-2,-1.3095038E-2,-1.2208426E-2,3.8913544E-2,-9.876337E-3,-6.671797E-3,2.569637E-3,4.6360446E-3,-5.8871154E-3,-5.295458E-4,4.538326E-3,7.4196286E-3,-7.006196E-3,9.17152E-4,8.275493E-3,1.2697301E-2,6.036182E-3,-1.3561527E-3,1.9566635E-2,-4.6086453E-2,5.49278E-3,1.4063838E-2],"split_indices":[22,48,22,22,22,22,22,35,22,22,38,54,54,28,54,22,54,54,54,18,29,16,22,35,45,35,45,35,54,20,13,0,0,0,0,0,0,0,0,0,0,0,0,0,0,0,0,0,0,0,0,0,0,0,0,0,0,0,0,0,0,0,0],"split_type":[0,0,0,0,0,0,0,0,0,0,0,0,0,0,0,0,0,0,0,0,0,0,0,0,0,0,0,0,0,0,0,0,0,0,0,0,0,0,0,0,0,0,0,0,0,0,0,0,0,0,0,0,0,0,0,0,0,0,0,0,0,0,0],"sum_hessian":[8.3546E4,5.0481E4,3.3065E4,4.3787E4,6.694E3,2.6933E4,6.132E3,1.4984E4,2.8803E4,1.268E3,5.426E3,1.6313E4,1.062E4,4.266E3,1.866E3,1.1905E4,3.079E3,1.4148E4,1.4655E4,3.71E2,8.97E2,1.769E3,3.657E3,1.4889E4,1.424E3,9.943E3,6.77E2,3.585E3,6.81E2,1.585E3,2.81E2,8.986E3,2.919E3,2.837E3,2.42E2,1.3168E4,9.8E2,1.3372E4,1.283E3,7E0,3.64E2,7.16E2,1.81E2,1.768E3,1E0,2.606E3,1.051E3,1.2614E4,2.275E3,3.74E2,1.05E3,2.329E3,7.614E3,1.32E2,5.45E2,8.29E2,2.756E3,6.12E2,6.9E1,1.584E3,1E0,1.63E2,1.18E2],"tree_param":{"num_deleted":"0","num_feature":"57","num_nodes":"63","size_leaf_vector":"1"}},{"base_weights":[1.03224826E-4,-6.982274E-2,1.0697176E-1,-4.7190614E-2,-2.1625642E-1,6.856178E-2,2.2013508E-1,-9.700658E-2,-2.1262873E-2,-1.9650678E-1,-3.4190252E-1,4.7464963E-2,1.1007799E-1,1.76938E-1,3.216446E-1,-1.0713166E-1,-5.7846908E-2,-4.2658553E-2,-7.919373E-4,-2.4524339E-1,-1.7332464E-1,-4.0841055E-1,-3.0258584E-1,5.593707E-2,-2.354298E-2,1.226914E-1,2.5729785E-2,1.9271854E-1,8.8694416E-2,3.4800094E-1,1.7648107E-1,-6.769898E-3,-5.051238E-3,-2.6373607E-3,-5.7122833E-3,-3.2217556E-3,-1.6742982E-3,3.8891524E-4,-2.9856635E-3,-1.3219981E-2,-1.0774776E-2,-9.198622E-3,-7.130626E-3,-4.4566717E-2,-1.9834854E-2,-1.1100509E-2,-1.603218E-2,2.4804822E-3,4.6097217E-3,4.8572817E-4,-3.483229E-3,4.3277983E-3,6.759795E-3,-5.966055E-3,1.9277855E-3,7.743427E-3,1.0838102E-2,7.4395533E-3,3.157122E-3,1.5431501E-2,2.0407375E-2,-3.774377E-3,9.715886E-3],"categories":[],"categories_nodes":[],"categories_segments":[],"categories_sizes":[],"default_left":[0,0,0,0,0,0,0,0,0,0,0,0,0,0,0,0,0,0,0,0,0,0,0,0,0,0,0,0,0,0,0,0,0,0,0,0,0,0,0,0,0,0,0,0,0,0,0,0,0,0,0,0,0,0,0,0,0,0,0,0,0,0,0],"id":1,"left_children":[1,3,5,7,9,11,13,15,17,19,21,23,25,27,29,31,33,35,37,39,41,43,45,47,49,51,53,55,57,59,61,-1,-1,-1,-1,-1,-1,-1,-1,-1,-1,-1,-1,-1,-1,-1,-1,-1,-1,-1,-1,-1,-1,-1,-1,-1,-1,-1,-1,-1,-1,-1,-1],"loss_changes":[6.2696387E2,1.6803505E2,1.4419363E2,5.67229E1,1.6723145E1,2.1680191E1,3.6761597E1,5.9385986E0,1.2650455E1,6.5465393E0,2.2109985E0,9.889828E0,8.861473E0,8.172104E0,9.481659E0,2.0242767E0,8.6687183E-1,2.8094807E0,7.4635606E0,9.7091675E-1,1.2432785E0,1.4295845E0,7.228203E-1,3.3495293E0,2.6925154E0,3.2461472E0,2.0206513E0,4.483139E0,1.3483696E0,4.8249817E0,1.7703285E0,0E0,0E0,0E0,0E0,0E0,0E0,0E0,0E0,0E0,0E0,0E0,0E0,0E0,0E0,0E0,0E0,0E0,0E0,0E0,0E0,0E0,0E0,0E0,0E0,0E0,0E0,0E0,0E0,0E0,0E0,0E0,0E0],"parents":[2147483647,0,0,1,1,2,2,3,3,4,4,5,5,6,6,7,7,8,8,9,9,10,10,11,11,12,12,13,13,14,14,15,15,16,16,17,17,18,18,19,19,20,20,21,21,22,22,23,23,24,24,25,25,26,26,27,27,28,28,29,29,30,30],"right_children":[2,4,6,8,10,12,14,16,18,20,22,24,26,28,30,32,34,36,38,40,42,44,46,48,50,52,54,56,58,60,62,-1,-1,-1,-1,-1,-1,-1,-1,-1,-1,-1,-1,-1,-1,-1,-1,-1,-1,-1,-1,-1,-1,-1,-1,-1,-1,-1,-1,-1,-1,-1,-1],"split_conditions":[7.4E0,1E0,7.5333333E0,7.266667E0,3E-1,7.4666667E0,7.6666665E0,1E-1,7.3333335E0,7.1E0,6.9333334E0,2E-1,5E-1,2E-1,2E-1,7.2E0,1.2E0,1E-1,2E-1,-1E-1,7.233333E0,3E0,4.7E0,3E-1,3E-1,3E-1,7E0,4E-1,2E-1,7.766667E0,6.5E1,-6.769898E-3,-5.051238E-3,-2.6373607E-3,-5.7122833E-3,-3.2217556E-3,-1.6742982E-3,3.8891524E-4,-2.9856635E-3,-1.3219981E-2,-1.0774776E-2,-9.198622E-3,-7.130626E-3,-4.4566717E-2,-1.9834854E-2,-1.1100509E-2,-1.603218E-2,2.4804822E-3,4.6097217E-3,4.8572817E-4,-3.483229E-3,4.3277983E-3,6.759795E-3,-5.966055E-3,1.9277855E-3,7.743427E-3,1.0838102E-2,7.4395533E-3,3.157122E-3,1.5431501E-2,2.0407375E-2,-3.774377E-3,9.715886E-3],"split_indices":[22,48,22,22,50,22,22,35,22,22,22,28,28,28,28,22,28,35,28,35,22,37,37,35,35,35,45,35,20,22,12,0,0,0,0,0,0,0,0,0,0,0,0,0,0,0,0,0,0,0,0,0,0,0,0,0,0,0,0,0,0,0,0],"split_type":[0,0,0,0,0,0,0,0,0,0,0,0,0,0,0,0,0,0,0,0,0,0,0,0,0,0,0,0,0,0,0,0,0,0,0,0,0,0,0,0,0,0,0,0,0,0,0,0,0,0,0,0,0,0,0,0,0,0,0,0,0,0,0],"sum_hessian":[8.3896E4,5.0713E4,3.3183E4,4.3926E4,6.787E3,2.4776E4,8.407E3,1.5034E4,2.8892E4,5.868E3,9.19E2,1.6431E4,8.345E3,5.9E3,2.507E3,1.1942E4,3.092E3,1.4124E4,1.4768E4,1.887E3,3.981E3,3.37E2,5.82E2,1.4681E4,1.75E3,7.258E3,1.087E3,5.003E3,8.97E2,2.12E3,3.87E2,2.115E3,9.827E3,2.839E3,2.53E2,4.181E3,9.943E3,1.2892E4,1.876E3,1.141E3,7.46E2,2.95E3,1.031E3,6E0,3.31E2,1.1E2,4.72E2,1.2504E4,2.177E3,1.016E3,7.34E2,1.87E3,5.388E3,8.7E1,1E3,1.948E3,3.055E3,2.65E2,6.32E2,1.286E3,8.34E2,2.5E1,3.62E2],"tree_param":{"num_deleted":"0","num_feature":"57","num_nodes":"63","size_leaf_vector":"1"}},{"base_weights":[2.5843023E-4,-8.1311405E-2,7.9420604E-2,-2.032182E-1,-5.7132978E-2,3.4070432E-2,1.559409E-1,-3.252778E-1,-1.8411185E-1,-8.402983E-2,-2.5868718E-2,4.382153E-2,-8.129363E-2,1.2843591E-1,2.9265252E-1,-3.273994E-1,3.821821E-2,-1.5735756E-1,-2.2352931E-1,-9.530298E-2,-4.2997137E-2,-3.879121E-2,6.2952437E-3,3.1624872E-2,9.1534846E-2,-1.329523E-1,-2.362947E-2,7.986226E-2,1.5082462E-1,3.354441E-1,1.10201426E-1,-1.4175986E-2,-1.9294871E-2,-9.717311E-3,-7.0830765E-3,-1.2973793E-2,-9.904748E-3,-3.4574845E-3,-5.256023E-3,-2.9711744E-3,-1.2664697E-3,-2.74864E-3,-1.4765097E-3,3.0455267E-5,1.8582657E-3,4.1809768E-4,2.1595154E-3,5.142028E-3,-3.3506544E-4,-4.4532674E-3,-9.253972E-3,1.6775032E-4,-2.4689161E-3,4.793233E-3,-1.2899329E-3,6.5605603E-3,9.766961E-3,1.4796356E-2,1.8682461E-2,7.106408E-3,-4.440114E-3],"categories":[],"categories_nodes":[],"categories_segments":[],"categories_sizes":[],"default_left":[0,0,0,0,0,0,0,0,0,0,0,0,0,0,0,0,0,0,0,0,0,0,0,0,0,0,0,0,0,0,0,0,0,0,0,0,0,0,0,0,0,0,0,0,0,0,0,0,0,0,0,0,0,0,0,0,0,0,0,0,0],"id":2,"left_children":[1,3,5,7,9,11,13,15,17,19,21,23,25,27,29,31,-1,33,35,37,39,41,43,45,47,49,51,53,55,57,59,-1,-1,-1,-1,-1,-1,-1,-1,-1,-1,-1,-1,-1,-1,-1,-1,-1,-1,-1,-1,-1,-1,-1,-1,-1,-1,-1,-1,-1,-1],"loss_changes":[5.4089746E2,1.2156207E2,1.4749774E2,1.5810516E1,2.893853E1,3.0028585E1,5.9399963E1,2.338028E0,6.155136E0,8.541885E0,6.6225386E0,1.4309319E1,6.1772156E0,1.4288361E1,2.0592407E1,2.1877441E0,0E0,1.9842377E0,2.0824814E0,3.7019043E0,1.1485643E0,1.6927605E0,7.9715014E-1,5.269665E0,5.5734444E0,2.4634228E0,6.8916494E-1,7.0416336E0,7.8108215E0,3.0593872E0,3.226492E0,0E0,0E0,0E0,0E0,0E0,0E0,0E0,0E0,0E0,0E0,0E0,0E0,0E0,0E0,0E0,0E0,0E0,0E0,0E0,0E0,0E0,0E0,0E0,0E0,0E0,0E0,0E0,0E0,0E0,0E0],"parents":[2147483647,0,0,1,1,2,2,3,3,4,4,5,5,6,6,7,7,8,8,9,9,10,10,11,11,12,12,13,13,14,14,15,15,17,17,18,18,19,19,20,20,21,21,22,22,23,23,24,24,25,25,26,26,27,27,28,28,29,29,30,30],"right_children":[2,4,6,8,10,12,14,16,18,20,22,24,26,28,30,32,-1,34,36,38,40,42,44,46,48,50,52,54,56,58,60,-1,-1,-1,-1,-1,-1,-1,-1,-1,-1,-1,-1,-1,-1,-1,-1,-1,-1,-1,-1,-1,-1,-1,-1,-1,-1,-1,-1,-1,-1],"split_conditions":[2E-1,0E0,7.5E0,-2E-1,1E-1,2.7522936E-2,5E-1,5.8E0,6.666667E-1,7.4E0,7.4E0,3E-1,7.4E0,7.5E0,4.5454544E-3,1E0,3.821821E-2,-1E-1,-1E-1,-1.1764706E-2,7.4E0,7.3E0,7.5E0,7.4E0,9.756098E-3,1E0,3E-1,1.6778523E-2,4E-1,6E-1,5.9314586E-2,-1.4175986E-2,-1.9294871E-2,-9.717311E-3,-7.0830765E-3,-1.2973793E-2,-9.904748E-3,-3.4574845E-3,-5.256023E-3,-2.9711744E-3,-1.2664697E-3,-2.74864E-3,-1.4765097E-3,3.0455267E-5,1.8582657E-3,4.1809768E-4,2.1595154E-3,5.142028E-3,-3.3506544E-4,-4.4532674E-3,-9.253972E-3,1.6775032E-4,-2.4689161E-3,4.793233E-3,-1.2899329E-3,6.5605603E-3,9.766961E-3,1.4796356E-2,1.8682461E-2,7.106408E-3,-4.440114E-3],"split_indices":[35,35,16,35,35,54,35,21,46,17,16,35,17,17,54,46,0,38,35,42,16,17,17,17,54,3,38,54,38,35,54,0,0,0,0,0,0,0,0,0,0,0,0,0,0,0,0,0,0,0,0,0,0,0,0,0,0,0,0,0,0],"split_type":[0,0,0,0,0,0,0,0,0,0,0,0,0,0,0,0,0,0,0,0,0,0,0,0,0,0,0,0,0,0,0,0,0,0,0,0,0,0,0,0,0,0,0,0,0,0,0,0,0,0,0,0,0,0,0,0,0,0,0,0,0],"sum_hessian":[8.3764E4,4.1254E4,4.251E4,6.826E3,3.4428E4,2.6693E4,1.5817E4,9.21E2,5.905E3,1.8504E4,1.5924E4,2.4614E4,2.079E3,1.317E4,2.647E3,9.2E2,1E0,3.522E3,2.383E3,1.4513E4,3.991E3,1.1362E4,4.562E3,1.9606E4,5.008E3,1.095E3,9.84E2,4.158E3,9.012E3,2.143E3,5.04E2,5.3E2,3.9E2,1.044E3,2.478E3,9.82E2,1.401E3,3.966E3,1.0547E4,2.064E3,1.927E3,4.13E3,7.232E3,3.856E3,7.06E2,6.514E3,1.3092E4,4.492E3,5.16E2,5.97E2,4.98E2,4.79E2,5.05E2,3.612E3,5.46E2,6.26E3,2.752E3,1.059E3,1.084E3,4.35E2,6.9E1],"tree_param":{"num_deleted":"0","num_feature":"57","num_nodes":"61","size_leaf_vector":"1"}},{"base_weights":[-7.8501755E-5,-7.7254415E-2,7.514845E-2,-1.9354592E-1,-5.442603E-2,3.2588657E-2,1.4932133E-1,-3.0761236E-1,-1.762573E-1,-8.0059625E-2,-2.44017E-2,4.432864E-2,-6.785218E-2,1.2272516E-1,2.9118893E-1,-3.097475E-1,3.726276E-2,-1.4986134E-1,-2.1407151E-1,-9.090368E-2,-4.026661E-2,-3.7118264E-2,7.243421E-3,3.0081267E-2,9.59511E-2,-1.608519E-1,-2.2998996E-2,1.0415532E-1,1.7597677E-1,3.2100677E-1,1.395753E-1,-1.3498845E-2,-1.8201277E-2,-9.2012845E-3,-6.772019E-3,-1.0741666E-2,3.8161825E-2,-3.348335E-3,-5.0015054E-3,-1.3158167E-3,-2.8285317E-3,-2.152438E-3,-8.0053275E-4,8.387674E-5,1.8763023E-3,2.9323567E-4,2.0297288E-3,3.8578664E-3,7.287516E-3,-5.109514E-3,-1.0639665E-2,-1.3221523E-3,8.496744E-3,3.5558732E-3,6.1397194E-3,9.557928E-3,3.644067E-3,1.43002495E-2,1.8474434E-2,3.8292874E-3,1.079288E-2],"categories":[],"categories_nodes":[],"categories_segments":[],"categories_sizes":[],"default_left":[0,0,0,0,0,0,0,0,0,0,0,0,0,0,0,0,0,0,0,0,0,0,0,0,0,0,0,0,0,0,0,0,0,0,0,0,0,0,0,0,0,0,0,0,0,0,0,0,0,0,0,0,0,0,0,0,0,0,0,0,0],"id":3,"left_children":[1,3,5,7,9,11,13,15,17,19,21,23,25,27,29,31,-1,33,35,37,39,41,43,45,47,49,51,53,55,57,59,-1,-1,-1,-1,-1,-1,-1,-1,-1,-1,-1,-1,-1,-1,-1,-1,-1,-1,-1,-1,-1,-1,-1,-1,-1,-1,-1,-1,-1,-1],"loss_changes":[4.85909E2,1.09640274E2,1.3376765E2,1.3263947E1,2.6567596E1,3.1758158E1,5.822159E1,2.1880112E0,5.809601E0,8.021538E0,6.4053125E0,1.7720718E1,1.1732734E1,1.2822861E1,1.0930817E1,1.7573776E0,0E0,1.654213E0,1.9086533E0,3.1739578E0,8.9841366E-1,1.4143047E0,7.6443446E-1,4.8074913E0,4.846325E0,2.7377758E0,1.2546383E0,5.9161453E0,5.221779E0,3.283783E0,1.8906345E0,0E0,0E0,0E0,0E0,0E0,0E0,0E0,0E0,0E0,0E0,0E0,0E0,0E0,0E0,0E0,0E0,0E0,0E0,0E0,0E0,0E0,0E0,0E0,0E0,0E0,0E0,0E0,0E0,0E0,0E0],"parents":[2147483647,0,0,1,1,2,2,3,3,4,4,5,5,6,6,7,7,8,8,9,9,10,10,11,11,12,12,13,13,14,14,15,15,17,17,18,18,19,19,20,20,21,21,22,22,23,23,24,24,25,25,26,26,27,27,28,28,29,29,30,30],"right_children":[2,4,6,8,10,12,14,16,18,20,22,24,26,28,30,32,-1,34,36,38,40,42,44,46,48,50,52,54,56,58,60,-1,-1,-1,-1,-1,-1,-1,-1,-1,-1,-1,-1,-1,-1,-1,-1,-1,-1,-1,-1,-1,-1,-1,-1,-1,-1,-1,-1,-1,-1],"split_conditions":[2E-1,0E0,7.5E0,-2E-1,1E-1,2.1052632E-2,5E-1,5.8E0,7.5E-1,7.4E0,7.4E0,3E-1,1.4E1,4E-1,6.818182E-3,1E0,3.726276E-2,-1E-1,8.2E0,-1.1764706E-2,-2.3076924E-2,7.4E0,7.5E0,7.4E0,4E-1,1E0,3E-1,7.5E0,8.333334E-3,7.8E0,1.673E2,-1.3498845E-2,-1.8201277E-2,-9.2012845E-3,-6.772019E-3,-1.0741666E-2,3.8161825E-2,-3.348335E-3,-5.0015054E-3,-1.3158167E-3,-2.8285317E-3,-2.152438E-3,-8.0053275E-4,8.387674E-5,1.8763023E-3,2.9323567E-4,2.0297288E-3,3.8578664E-3,7.287516E-3,-5.109514E-3,-1.0639665E-2,-1.3221523E-3,8.496744E-3,3.5558732E-3,6.1397194E-3,9.557928E-3,3.644067E-3,1.43002495E-2,1.8474434E-2,3.8292874E-3,1.079288E-2],"split_indices":[35,35,17,35,35,54,35,20,46,17,16,35,45,35,54,46,0,38,16,42,42,17,17,16,35,3,23,16,54,16,11,0,0,0,0,0,0,0,0,0,0,0,0,0,0,0,0,0,0,0,0,0,0,0,0,0,0,0,0,0,0],"split_type":[0,0,0,0,0,0,0,0,0,0,0,0,0,0,0,0,0,0,0,0,0,0,0,0,0,0,0,0,0,0,0,0,0,0,0,0,0,0,0,0,0,0,0,0,0,0,0,0,0,0,0,0,0,0,0,0,0,0,0,0,0],"sum_hessian":[8.3693E4,4.1312E4,4.2381E4,6.777E3,3.4535E4,2.6931E4,1.545E4,8.89E2,5.888E3,1.8627E4,1.5908E4,2.4114E4,2.817E3,1.3013E4,2.437E3,8.88E2,1E0,3.472E3,2.416E3,1.4635E4,3.992E3,1.135E4,4.558E3,1.8901E4,5.213E3,9.15E2,1.902E3,9.652E3,3.361E3,2.035E3,4.02E2,5.17E2,3.71E2,1.025E3,2.447E3,2.415E3,1E0,4.045E3,1.059E4,2.156E3,1.836E3,8.856E3,2.494E3,3.854E3,7.04E2,5.725E3,1.3176E4,3.788E3,1.425E3,4.32E2,4.83E2,1.87E3,3.2E1,3.485E3,6.167E3,2.928E3,4.33E2,1.187E3,8.48E2,2.22E2,1.8E2],"tree_param":{"num_deleted":"0","num_feature":"57","num_nodes":"61","size_leaf_vector":"1"}},{"base_weights":[-4.6060144E-5,-7.382235E-2,7.171554E-2,-1.8505743E-1,-5.1832426E-2,3.0284738E-2,1.4146984E-1,-2.941076E-1,-1.6841073E-1,-7.6497436E-2,-2.3261026E-2,3.9515413E-2,-6.9152564E-2,1.1708857E-1,2.6368248E-1,-2.5916782E-1,-3.405164E-1,-1.4357634E-1,-2.0476963E-1,-8.6929806E-2,-3.91487E-2,-3.4546435E-2,5.089234E-3,2.8519481E-2,8.366025E-2,-1.1592254E-1,-1.7134925E-2,9.899432E-2,1.6523954E-1,3.0281788E-1,9.584694E-2,-2.2578312E-2,-1.2538518E-2,-1.719839E-2,2.3745645E-3,-8.756106E-3,-6.498908E-3,-1.1929471E-2,-9.017332E-3,-4.780981E-3,-3.2772068E-3,-2.8386356E-3,-1.3978052E-3,-2.0077475E-3,-7.254998E-4,-1.2647933E-5,1.8084612E-3,3.7109302E-4,1.9476404E-3,4.592595E-3,-2.0895335E-5,-7.2397515E-3,-2.7500105E-3,-1.6485241E-3,1.0091865E-3,5.2635954E-3,-6.155736E-4,6.642273E-3,9.864502E-3,-3.588585E-2,1.5207908E-2,3.167117E-3,1.1725075E-2],"categories":[],"categories_nodes":[],"categories_segments":[],"categories_sizes":[],"default_left":[0,0,0,0,0,0,0,0,0,0,0,0,0,0,0,0,0,0,0,0,0,0,0,0,0,0,0,0,0,0,0,0,0,0,0,0,0,0,0,0,0,0,0,0,0,0,0,0,0,0,0,0,0,0,0,0,0,0,0,0,0,0,0],"id":4,"left_children":[1,3,5,7,9,11,13,15,17,19,21,23,25,27,29,31,33,35,37,39,41,43,45,47,49,51,53,55,57,59,61,-1,-1,-1,-1,-1,-1,-1,-1,-1,-1,-1,-1,-1,-1,-1,-1,-1,-1,-1,-1,-1,-1,-1,-1,-1,-1,-1,-1,-1,-1,-1,-1],"loss_changes":[4.441712E2,1.0115494E2,1.2288344E2,1.2297455E1,2.4330475E1,2.4491388E1,4.714737E1,1.3143921E0,5.2866516E0,7.206276E0,5.1244707E0,1.1839226E1,5.4975777E0,1.1469101E1,1.723204E1,6.566696E-1,5.5887604E-1,1.4592514E0,1.8982544E0,2.6696625E0,7.890339E-1,1.2808657E0,7.6005745E-1,4.298829E0,3.361271E0,2.06876E0,6.372279E-1,6.7240067E0,3.6846924E0,3.097168E0,2.2088175E0,0E0,0E0,0E0,0E0,0E0,0E0,0E0,0E0,0E0,0E0,0E0,0E0,0E0,0E0,0E0,0E0,0E0,0E0,0E0,0E0,0E0,0E0,0E0,0E0,0E0,0E0,0E0,0E0,0E0,0E0,0E0,0E0],"parents":[2147483647,0,0,1,1,2,2,3,3,4,4,5,5,6,6,7,7,8,8,9,9,10,10,11,11,12,12,13,13,14,14,15,15,16,16,17,17,18,18,19,19,20,20,21,21,22,22,23,23,24,24,25,25,26,26,27,27,28,28,29,29,30,30],"right_children":[2,4,6,8,10,12,14,16,18,20,22,24,26,28,30,32,34,36,38,40,42,44,46,48,50,52,54,56,58,60,62,-1,-1,-1,-1,-1,-1,-1,-1,-1,-1,-1,-1,-1,-1,-1,-1,-1,-1,-1,-1,-1,-1,-1,-1,-1,-1,-1,-1,-1,-1,-1,-1],"split_conditions":[2E-1,0E0,7.5E0,-2E-1,1E-1,2.6213592E-2,5E-1,1E0,7.5E-1,7.4E0,7.4E0,3E-1,7.4E0,7.6E0,5E-1,1E-1,3.785939E-1,-1E-1,-1E-1,7.3E0,7.3E0,7.4E0,7.5E0,7.4E0,9.756098E-3,6E-1,9E0,2.9166667E-2,4E-1,-5E0,2.27E2,-2.2578312E-2,-1.2538518E-2,-1.719839E-2,2.3745645E-3,-8.756106E-3,-6.498908E-3,-1.1929471E-2,-9.017332E-3,-4.780981E-3,-3.2772068E-3,-2.8386356E-3,-1.3978052E-3,-2.0077475E-3,-7.254998E-4,-1.2647933E-5,1.8084612E-3,3.7109302E-4,1.9476404E-3,4.592595E-3,-2.0895335E-5,-7.2397515E-3,-2.7500105E-3,-1.6485241E-3,1.0091865E-3,5.2635954E-3,-6.155736E-4,6.642273E-3,9.864502E-3,-3.588585E-2,1.5207908E-2,3.167117E-3,1.1725075E-2],"split_indices":[35,35,16,35,35,54,35,46,46,17,16,35,17,17,28,20,23,38,35,16,16,17,17,17,54,20,30,54,38,38,11,0,0,0,0,0,0,0,0,0,0,0,0,0,0,0,0,0,0,0,0,0,0,0,0,0,0,0,0,0,0,0,0],"split_type":[0,0,0,0,0,0,0,0,0,0,0,0,0,0,0,0,0,0,0,0,0,0,0,0,0,0,0,0,0,0,0,0,0,0,0,0,0,0,0,0,0,0,0,0,0,0,0,0,0,0,0,0,0,0,0,0,0,0,0,0,0,0,0],"sum_hessian":[8.3894E4,4.1367E4,4.2527E4,6.826E3,3.4541E4,2.6682E4,1.5845E4,9.01E2,5.925E3,1.8535E4,1.6006E4,2.4417E4,2.265E3,1.3212E4,2.633E3,5.19E2,3.82E2,3.525E3,2.4E3,1.4485E4,4.05E3,1.1451E4,4.555E3,1.9551E4,4.866E3,1.191E3,1.074E3,9.607E3,3.605E3,2.134E3,4.99E2,1.9E1,5E2,3.79E2,3E0,1.056E3,2.469E3,1.001E3,1.399E3,1.0294E4,4.191E3,1.568E3,2.482E3,8.942E3,2.509E3,3.885E3,6.7E2,6.473E3,1.3078E4,4.435E3,4.31E2,8.06E2,3.85E2,7.56E2,3.18E2,9.095E3,5.12E2,1.797E3,1.808E3,2E0,2.132E3,4.06E2,9.3E1],"tree_param":{"num_deleted":"0","num_feature":"57","num_nodes":"63","size_leaf_vector":"1"}},{"base_weights":[-6.27107E-5,-5.7072066E-2,8.7152824E-2,-3.8810365E-2,-1.762509E-1,5.5318084E-2,1.7978603E-1,-7.917151E-2,-1.7788615E-2,-2.6801613E-1,-1.5487361E-1,3.737556E-2,9.066476E-2,1.4477272E-1,2.6248664E-1,-8.655282E-2,-5.0514694E-2,-3.439939E-2,-1.5194531E-3,-3.3473778E-1,-2.3982953E-1,-1.3914815E-1,-1.890077E-1,4.3482937E-2,-3.2741405E-2,1.0114246E-1,5.1888847E-3,1.591776E-1,6.50805E-2,2.8599665E-1,1.3652377E-1,-4.1416283E-3,-6.5390095E-3,-2.2792816E-3,-5.3634434E-3,-1.5230024E-3,-3.7027851E-3,2.9032445E-4,-2.7986418E-3,-3.598296E-2,-1.6310569E-2,-8.9859525E-3,-1.2630801E-2,-7.7459724E-3,-4.958797E-3,-9.50111E-3,3.627182E-2,1.9422238E-3,3.5196242E-3,-4.804851E-3,-4.2838944E-4,3.481466E-3,5.591004E-3,-8.031054E-3,1.0552102E-3,6.52606E-3,8.869468E-3,2.8194901E-5,4.4428417E-3,1.2690681E-2,1.6773673E-2,-4.442182E-3,7.704449E-3],"categories":[],"categories_nodes":[],"categories_segments":[],"categories_sizes":[],"default_left":[0,0,0,0,0,0,0,0,0,0,0,0,0,0,0,0,0,0,0,0,0,0,0,0,0,0,0,0,0,0,0,0,0,0,0,0,0,0,0,0,0,0,0,0,0,0,0,0,0,0,0,0,0,0,0,0,0,0,0,0,0,0,0],"id":5,"left_children":[1,3,5,7,9,11,13,15,17,19,21,23,25,27,29,31,33,35,37,39,41,43,45,47,49,51,53,55,57,59,61,-1,-1,-1,-1,-1,-1,-1,-1,-1,-1,-1,-1,-1,-1,-1,-1,-1,-1,-1,-1,-1,-1,-1,-1,-1,-1,-1,-1,-1,-1,-1,-1],"loss_changes":[4.160823E2,1.1011095E2,9.7512054E1,3.7222794E1,1.310466E1,1.559803E1,2.4415314E1,3.1605072E0,7.795039E0,2.246933E0,2.869522E0,6.997223E0,7.4106064E0,6.7929688E0,7.363632E0,1.9332047E0,8.422775E-1,2.2174873E0,5.822826E0,8.848343E-1,6.000366E-1,2.3176117E0,1.6762619E0,1.8619976E0,1.9919573E0,2.4576569E0,2.3829377E0,2.573227E0,1.3915207E0,3.2268677E0,1.595748E0,0E0,0E0,0E0,0E0,0E0,0E0,0E0,0E0,0E0,0E0,0E0,0E0,0E0,0E0,0E0,0E0,0E0,0E0,0E0,0E0,0E0,0E0,0E0,0E0,0E0,0E0,0E0,0E0,0E0,0E0,0E0,0E0],"parents":[2147483647,0,0,1,1,2,2,3,3,4,4,5,5,6,6,7,7,8,8,9,9,10,10,11,11,12,12,13,13,14,14,15,15,16,16,17,17,18,18,19,19,20,20,21,21,22,22,23,23,24,24,25,25,26,26,27,27,28,28,29,29,30,30],"right_children":[2,4,6,8,10,12,14,16,18,20,22,24,26,28,30,32,34,36,38,40,42,44,46,48,50,52,54,56,58,60,62,-1,-1,-1,-1,-1,-1,-1,-1,-1,-1,-1,-1,-1,-1,-1,-1,-1,-1,-1,-1,-1,-1,-1,-1,-1,-1,-1,-1,-1,-1,-1,-1],"split_conditions":[7.4E0,1E0,7.5333333E0,7.266667E0,7.0333333E0,7.4666667E0,7.6666665E0,1E-1,7.3333335E0,6.9333334E0,2E-1,2.2959184E-2,1.754386E-2,5E-1,4.5454544E-3,5E-1,1.6666668E-2,9.31677E-3,1.4669927E-2,3E0,6.666667E-1,7.2E0,8.1E0,3E-1,1.7E1,3E-1,7E0,4E-1,2.6E1,7.766667E0,6.5E1,-4.1416283E-3,-6.5390095E-3,-2.2792816E-3,-5.3634434E-3,-1.5230024E-3,-3.7027851E-3,2.9032445E-4,-2.7986418E-3,-3.598296E-2,-1.6310569E-2,-8.9859525E-3,-1.2630801E-2,-7.7459724E-3,-4.958797E-3,-9.50111E-3,3.627182E-2,1.9422238E-3,3.5196242E-3,-4.804851E-3,-4.2838944E-4,3.481466E-3,5.591004E-3,-8.031054E-3,1.0552102E-3,6.52606E-3,8.869468E-3,2.8194901E-5,4.4428417E-3,1.2690681E-2,1.6773673E-2,-4.442182E-3,7.704449E-3],"split_indices":[22,48,22,22,22,22,22,35,22,22,50,54,54,28,54,46,54,54,54,37,46,22,16,38,45,35,45,35,45,22,12,0,0,0,0,0,0,0,0,0,0,0,0,0,0,0,0,0,0,0,0,0,0,0,0,0,0,0,0,0,0,0,0],"split_type":[0,0,0,0,0,0,0,0,0,0,0,0,0,0,0,0,0,0,0,0,0,0,0,0,0,0,0,0,0,0,0,0,0,0,0,0,0,0,0,0,0,0,0,0,0,0,0,0,0,0,0,0,0,0,0,0,0,0,0,0,0,0,0],"sum_hessian":[8.3682E4,5.0605E4,3.3077E4,4.3883E4,6.722E3,2.4619E4,8.458E3,1.5026E4,2.8857E4,1.267E3,5.455E3,1.6333E4,8.286E3,5.945E3,2.513E3,1.1944E4,3.082E3,1.4275E4,1.4582E4,3.72E2,8.95E2,3.74E3,1.715E3,1.5026E4,1.307E3,7.38E3,9.06E2,5.033E3,9.12E2,2.116E3,3.97E2,1.1022E4,9.22E2,2.839E3,2.43E2,1.2989E4,1.286E3,1.2852E4,1.73E3,6E0,3.66E2,1.61E2,7.34E2,2.678E3,1.062E3,1.714E3,1E0,1.2822E4,2.204E3,3.59E2,9.48E2,1.872E3,5.508E3,7.8E1,8.28E2,1.961E3,3.072E3,2.47E2,6.65E2,1.287E3,8.29E2,2.8E1,3.69E2],"tree_param":{"num_deleted":"0","num_feature":"57","num_nodes":"63","size_leaf_vector":"1"}},{"base_weights":[-1.6681937E-5,-5.449885E-2,8.292951E-2,-3.6887813E-2,-1.6719976E-1,5.298471E-2,1.7073998E-1,-6.527085E-2,-8.5244905E-3,-1.5093242E-1,-2.7186435E-1,3.6075953E-2,8.602263E-2,1.4320974E-1,2.651731E-1,-8.589146E-2,-4.8185658E-2,-3.584525E-3,-6.3368045E-2,-1.9161479E-1,-1.3110086E-1,-3.266501E-1,-2.4115957E-1,4.2067856E-2,-2.9902434E-2,9.281562E-2,-1.7612662E-2,1.5638383E-1,7.182374E-2,2.809106E-1,9.262725E-2,-2.2930757E-3,-4.4878083E-3,-1.8414538E-3,-3.0001195E-3,8.101088E-4,-8.959942E-4,-7.058953E-3,-2.1629834E-3,-1.0849749E-2,-8.842558E-3,-7.0489207E-3,-5.1353755E-3,-3.7379377E-2,-1.5871212E-2,-8.584297E-3,-1.2761875E-2,1.7464145E-3,2.9600197E-3,-3.46132E-3,1.5058722E-4,5.1505193E-3,3.2122072E-3,-1.6789715E-3,5.352462E-3,8.838548E-3,6.0282885E-3,6.628711E-3,2.5327364E-3,1.4108871E-2,-4.5615923E-2,2.5740503E-3,1.0468031E-2],"categories":[],"categories_nodes":[],"categories_segments":[],"categories_sizes":[],"default_left":[0,0,0,0,0,0,0,0,0,0,0,0,0,0,0,0,0,0,0,0,0,0,0,0,0,0,0,0,0,0,0,0,0,0,0,0,0,0,0,0,0,0,0,0,0,0,0,0,0,0,0,0,0,0,0,0,0,0,0,0,0,0,0],"id":6,"left_children":[1,3,5,7,9,11,13,15,17,19,21,23,25,27,29,31,33,35,37,39,41,43,45,47,49,51,53,55,57,59,61,-1,-1,-1,-1,-1,-1,-1,-1,-1,-1,-1,-1,-1,-1,-1,-1,-1,-1,-1,-1,-1,-1,-1,-1,-1,-1,-1,-1,-1,-1,-1,-1],"loss_changes":[3.7817252E2,1.0022269E2,8.720114E1,3.5160107E1,1.1537018E1,1.3805756E1,2.1850204E1,7.6743774E0,5.9136076E0,4.7107697E0,1.4053268E0,6.473732E0,5.903698E0,6.1108246E0,5.1013947E0,1.5121918E0,1.5910969E0,5.687633E0,2.7980838E0,6.465454E-1,1.0768051E0,9.1833496E-1,4.9248886E-1,1.8242817E0,1.7696879E0,2.265831E0,1.0213279E0,3.975418E0,1.2879953E0,2.8276367E0,7.364433E-1,0E0,0E0,0E0,0E0,0E0,0E0,0E0,0E0,0E0,0E0,0E0,0E0,0E0,0E0,0E0,0E0,0E0,0E0,0E0,0E0,0E0,0E0,0E0,0E0,0E0,0E0,0E0,0E0,0E0,0E0,0E0,0E0],"parents":[2147483647,0,0,1,1,2,2,3,3,4,4,5,5,6,6,7,7,8,8,9,9,10,10,11,11,12,12,13,13,14,14,15,15,16,16,17,17,18,18,19,19,20,20,21,21,22,22,23,23,24,24,25,25,26,26,27,27,28,28,29,29,30,30],"right_children":[2,4,6,8,10,12,14,16,18,20,22,24,26,28,30,32,34,36,38,40,42,44,46,48,50,52,54,56,58,60,62,-1,-1,-1,-1,-1,-1,-1,-1,-1,-1,-1,-1,-1,-1,-1,-1,-1,-1,-1,-1,-1,-1,-1,-1,-1,-1,-1,-1,-1,-1,-1,-1],"split_conditions":[7.4E0,1E0,7.5333333E0,7.3E0,1.1E0,7.4666667E0,7.7E0,7.233333E0,2.6213592E-2,7.1E0,6.9333334E0,2.2959184E-2,3.076923E-2,2E-1,2.7522936E-2,8E-1,8E-1,7E-1,6E-1,7.0333333E0,7.233333E0,3E0,4.6E0,7.4333334E0,6E-1,6E-1,1.5E1,5E-1,1.3333334E-1,1.59E1,1.1E3,-2.2930757E-3,-4.4878083E-3,-1.8414538E-3,-3.0001195E-3,8.101088E-4,-8.959942E-4,-7.058953E-3,-2.1629834E-3,-1.0849749E-2,-8.842558E-3,-7.0489207E-3,-5.1353755E-3,-3.7379377E-2,-1.5871212E-2,-8.584297E-3,-1.2761875E-2,1.7464145E-3,2.9600197E-3,-3.46132E-3,1.5058722E-4,5.1505193E-3,3.2122072E-3,-1.6789715E-3,5.352462E-3,8.838548E-3,6.0282885E-3,6.628711E-3,2.5327364E-3,1.4108871E-2,-4.5615923E-2,2.5740503E-3,1.0468031E-2],"split_indices":[22,48,22,22,36,22,22,22,54,22,22,54,54,28,54,36,36,36,36,22,22,37,37,22,36,36,28,36,26,20,13,0,0,0,0,0,0,0,0,0,0,0,0,0,0,0,0,0,0,0,0,0,0,0,0,0,0,0,0,0,0,0,0],"split_type":[0,0,0,0,0,0,0,0,0,0,0,0,0,0,0,0,0,0,0,0,0,0,0,0,0,0,0,0,0,0,0,0,0,0,0,0,0,0,0,0,0,0,0,0,0,0,0,0,0,0,0,0,0,0,0,0,0,0,0,0,0,0,0],"sum_hessian":[8.3682E4,5.0508E4,3.3174E4,4.3684E4,6.824E3,2.474E4,8.434E3,2.1832E4,2.1852E4,5.909E3,9.15E2,1.6368E4,8.372E3,6.533E3,1.901E3,9.888E3,1.1944E4,2.0049E4,1.803E3,1.932E3,3.977E3,3.24E2,5.91E2,1.5007E4,1.361E3,7.858E3,5.14E2,5.513E3,1.02E3,1.741E3,1.6E2,8.74E2,9.014E3,6.097E3,5.847E3,8.42E3,1.1629E4,3.68E2,1.435E3,7.03E2,1.229E3,2.945E3,1.032E3,5E0,3.19E2,1.03E2,4.88E2,1.0599E4,4.408E3,6.21E2,7.4E2,5.787E3,2.071E3,4.57E2,5.7E1,3.509E3,2.004E3,2.61E2,7.59E2,1.74E3,1E0,1.2E2,4E1],"tree_param":{"num_deleted":"0","num_feature":"57","num_nodes":"63","size_leaf_vector":"1"}},{"base_weights":[-4.120962E-4,-5.2071124E-2,7.837741E-2,-3.5489425E-2,-1.5858185E-1,3.932093E-2,1.4112934E-1,-7.280679E-2,-1.6086532E-2,-2.5721034E-1,-1.4315082E-1,4.654725E-2,-1.5271339E-2,1.1681924E-1,2.4034216E-1,-7.9498075E-2,-4.6900146E-2,-3.1902622E-2,-9.6561963E-4,-2.2820944E-1,-2.966578E-1,-1.8253633E-1,-1.2412415E-1,3.760803E-2,7.676833E-2,-5.908944E-2,8.97581E-3,1.2640274E-1,5.3702824E-2,2.5949788E-1,1.3563566E-1,-3.7952166E-3,-6.1223237E-3,-2.1148724E-3,-4.6665105E-3,-1.4105226E-3,-3.4831667E-3,2.9243316E-4,-2.406662E-3,-1.1123379E-2,-3.0803163E-2,-1.5336879E-2,-7.944717E-3,-1.0572488E-2,-8.271147E-3,-6.7372792E-3,-4.6611703E-3,1.580447E-3,2.6058059E-3,3.2710375E-3,4.4918614E-3,-1.8460222E-4,-4.928092E-3,1.3449267E-3,-7.89549E-4,5.310885E-3,7.876643E-3,-3.8381462E-4,3.7677286E-3,1.1508327E-2,1.5255366E-2,5.1455717E-3,1.1553499E-2],"categories":[],"categories_nodes":[],"categories_segments":[],"categories_sizes":[],"default_left":[0,0,0,0,0,0,0,0,0,0,0,0,0,0,0,0,0,0,0,0,0,0,0,0,0,0,0,0,0,0,0,0,0,0,0,0,0,0,0,0,0,0,0,0,0,0,0,0,0,0,0,0,0,0,0,0,0,0,0,0,0,0,0],"id":7,"left_children":[1,3,5,7,9,11,13,15,17,19,21,23,25,27,29,31,33,35,37,39,41,43,45,47,49,51,53,55,57,59,61,-1,-1,-1,-1,-1,-1,-1,-1,-1,-1,-1,-1,-1,-1,-1,-1,-1,-1,-1,-1,-1,-1,-1,-1,-1,-1,-1,-1,-1,-1,-1,-1],"loss_changes":[3.4101822E2,8.935167E1,8.129381E1,3.169746E1,1.0296677E1,8.072565E0,3.063211E1,2.5800476E0,6.8876576E0,9.3230057E-1,4.3657455E0,4.8657227E0,2.544831E0,6.1600494E0,4.9456177E0,1.8074265E0,6.406965E-1,1.9512663E0,4.740538E0,9.727669E-1,4.393196E-1,8.758812E-1,1.2712479E0,1.2036877E0,5.895939E-1,1.8546383E0,6.842358E-1,5.5336E0,1.802778E0,2.7043457E0,1.1607981E0,0E0,0E0,0E0,0E0,0E0,0E0,0E0,0E0,0E0,0E0,0E0,0E0,0E0,0E0,0E0,0E0,0E0,0E0,0E0,0E0,0E0,0E0,0E0,0E0,0E0,0E0,0E0,0E0,0E0,0E0,0E0,0E0],"parents":[2147483647,0,0,1,1,2,2,3,3,4,4,5,5,6,6,7,7,8,8,9,9,10,10,11,11,12,12,13,13,14,14,15,15,16,16,17,17,18,18,19,19,20,20,21,21,22,22,23,23,24,24,25,25,26,26,27,27,28,28,29,29,30,30],"right_children":[2,4,6,8,10,12,14,16,18,20,22,24,26,28,30,32,34,36,38,40,42,44,46,48,50,52,54,56,58,60,62,-1,-1,-1,-1,-1,-1,-1,-1,-1,-1,-1,-1,-1,-1,-1,-1,-1,-1,-1,-1,-1,-1,-1,-1,-1,-1,-1,-1,-1,-1,-1,-1],"split_conditions":[7.4E0,1E0,7.5E0,7.266667E0,-2E-1,2E-1,7.6666665E0,1E-1,7.3333335E0,1E0,7.1E0,3E-1,3.8E1,2E-1,6E-1,5E-1,2E-1,1.75E0,4E-1,7E-1,7.1E0,7.0333333E0,7.233333E0,7.4333334E0,4.8E0,3E-1,4.6666667E-1,4E-1,2.5E1,7.766667E0,2.115E2,-3.7952166E-3,-6.1223237E-3,-2.1148724E-3,-4.6665105E-3,-1.4105226E-3,-3.4831667E-3,2.9243316E-4,-2.406662E-3,-1.1123379E-2,-3.0803163E-2,-1.5336879E-2,-7.944717E-3,-1.0572488E-2,-8.271147E-3,-6.7372792E-3,-4.6611703E-3,1.580447E-3,2.6058059E-3,3.2710375E-3,4.4918614E-3,-1.8460222E-4,-4.928092E-3,1.3449267E-3,-7.89549E-4,5.310885E-3,7.876643E-3,-3.8381462E-4,3.7677286E-3,1.1508327E-2,1.5255366E-2,5.1455717E-3,1.1553499E-2],"split_indices":[22,48,22,22,38,28,22,35,22,46,22,35,45,28,28,46,28,28,28,41,16,22,22,22,37,35,26,35,45,22,11,0,0,0,0,0,0,0,0,0,0,0,0,0,0,0,0,0,0,0,0,0,0,0,0,0,0,0,0,0,0,0,0],"split_type":[0,0,0,0,0,0,0,0,0,0,0,0,0,0,0,0,0,0,0,0,0,0,0,0,0,0,0,0,0,0,0,0,0,0,0,0,0,0,0,0,0,0,0,0,0,0,0,0,0,0,0,0,0,0,0,0,0,0,0,0,0,0,0],"sum_hessian":[8.3783E4,5.0605E4,3.3178E4,4.379E4,6.815E3,2.0452E4,1.2726E4,1.4977E4,2.8813E4,9.19E2,5.896E3,1.8063E4,2.389E3,1.0224E4,2.502E3,1.1898E4,3.079E3,1.4079E4,1.4734E4,5.35E2,3.84E2,1.916E3,3.98E3,1.3944E4,4.119E3,8.52E2,1.537E3,8.874E3,1.35E3,2.113E3,3.89E2,1.0984E4,9.14E2,2.805E3,2.74E2,1.2829E4,1.25E3,1.2873E4,1.861E3,5.29E2,6E0,3.56E2,2.8E1,7.06E2,1.21E3,2.957E3,1.023E3,9.872E3,4.072E3,2.212E3,1.907E3,3.56E2,4.96E2,8.94E2,6.43E2,5.388E3,3.486E3,3.51E2,9.99E2,1.291E3,8.22E2,2.92E2,9.7E1],"tree_param":{"num_deleted":"0","num_feature":"57","num_nodes":"63","size_leaf_vector":"1"}},{"base_weights":[-5.5832055E-4,-4.9431343E-2,7.392992E-2,-1.4968225E-1,-3.390122E-2,5.5415157E-2,1.9131657E-1,-2.4386264E-1,-1.3523172E-1,-6.453928E-2,-1.2467781E-2,3.7270136E-2,1.006749E-1,1.6598253E-1,2.553439E-1,-2.4583267E-1,3.5778247E-2,-1.1478005E-1,-1.6421258E-1,-8.174161E-2,-4.740807E-2,-2.8349051E-2,3.6970677E-3,4.3940358E-2,-1.82946E-2,1.09256916E-1,3.5573248E-2,1.8036592E-1,8.6153455E-2,2.7209112E-1,8.064135E-2,-1.060783E-2,-1.44578265E-2,-7.0096864E-3,-5.2070236E-3,-9.471848E-3,-7.3186466E-3,-3.8883728E-3,-5.865145E-3,-2.7373596E-3,-1.6674834E-3,-1.2370953E-3,-4.4744113E-3,5.068576E-4,-2.3199779E-3,1.5449808E-3,3.0827266E-3,-4.9310806E-3,-2.0456733E-4,1.9022293E-5,5.571537E-3,-1.8497374E-3,3.0659155E-3,7.8058154E-3,1.10665895E-2,-6.5475735E-3,4.832543E-3,-4.4856902E-2,1.3697374E-2,2.0489164E-3,1.2004839E-2],"categories":[],"categories_nodes":[],"categories_segments":[],"categories_sizes":[],"default_left":[0,0,0,0,0,0,0,0,0,0,0,0,0,0,0,0,0,0,0,0,0,0,0,0,0,0,0,0,0,0,0,0,0,0,0,0,0,0,0,0,0,0,0,0,0,0,0,0,0,0,0,0,0,0,0,0,0,0,0,0,0],"id":8,"left_children":[1,3,5,7,9,11,13,15,17,19,21,23,25,27,29,31,-1,33,35,37,39,41,43,45,47,49,51,53,55,57,59,-1,-1,-1,-1,-1,-1,-1,-1,-1,-1,-1,-1,-1,-1,-1,-1,-1,-1,-1,-1,-1,-1,-1,-1,-1,-1,-1,-1,-1,-1],"loss_changes":[3.055564E2,7.8883835E1,7.2234146E1,9.179535E0,2.8810505E1,2.3571716E1,7.261841E0,1.8338013E0,3.447853E0,5.3060226E0,6.632321E0,7.6038647E0,4.5730515E0,3.6883621E0,3.690712E0,1.2030602E0,0E0,8.970566E-1,1.0344315E0,1.2444382E0,9.2362595E-1,2.8599691E0,4.125172E0,4.218788E0,2.4958937E0,1.7068329E0,1.7982377E0,2.6605606E0,1.1464665E0,2.718605E0,6.830449E-1,0E0,0E0,0E0,0E0,0E0,0E0,0E0,0E0,0E0,0E0,0E0,0E0,0E0,0E0,0E0,0E0,0E0,0E0,0E0,0E0,0E0,0E0,0E0,0E0,0E0,0E0,0E0,0E0,0E0,0E0],"parents":[2147483647,0,0,1,1,2,2,3,3,4,4,5,5,6,6,7,7,8,8,9,9,10,10,11,11,12,12,13,13,14,14,15,15,17,17,18,18,19,19,20,20,21,21,22,22,23,23,24,24,25,25,26,26,27,27,28,28,29,29,30,30],"right_children":[2,4,6,8,10,12,14,16,18,20,22,24,26,28,30,32,-1,34,36,38,40,42,44,46,48,50,52,54,56,58,60,-1,-1,-1,-1,-1,-1,-1,-1,-1,-1,-1,-1,-1,-1,-1,-1,-1,-1,-1,-1,-1,-1,-1,-1,-1,-1,-1,-1,-1,-1],"split_conditions":[7.4E0,0E0,7.6E0,-2E-1,1E-1,7.5E0,7.733333E0,8.1E0,7.5E-1,7.233333E0,7.3333335E0,1.6666668E-2,1.35E-2,8.333334E-3,2.7522936E-2,1E0,3.5778247E-2,-1E-1,-1E-1,5E-1,6E-1,2.7522936E-2,1.4669927E-2,7.4333334E0,9E0,2E-1,2.5E1,5E-1,5.25E1,-5E0,2.03E2,-1.060783E-2,-1.44578265E-2,-7.0096864E-3,-5.2070236E-3,-9.471848E-3,-7.3186466E-3,-3.8883728E-3,-5.865145E-3,-2.7373596E-3,-1.6674834E-3,-1.2370953E-3,-4.4744113E-3,5.068576E-4,-2.3199779E-3,1.5449808E-3,3.0827266E-3,-4.9310806E-3,-2.0456733E-4,1.9022293E-5,5.571537E-3,-1.8497374E-3,3.0659155E-3,7.8058154E-3,1.10665895E-2,-6.5475735E-3,4.832543E-3,-4.4856902E-2,1.3697374E-2,2.0489164E-3,1.2004839E-2],"split_indices":[22,35,22,35,35,22,22,16,46,22,22,54,54,54,54,46,0,35,35,46,26,54,54,22,45,35,45,35,12,41,11,0,0,0,0,0,0,0,0,0,0,0,0,0,0,0,0,0,0,0,0,0,0,0,0,0,0,0,0,0,0],"split_type":[0,0,0,0,0,0,0,0,0,0,0,0,0,0,0,0,0,0,0,0,0,0,0,0,0,0,0,0,0,0,0,0,0,0,0,0,0,0,0,0,0,0,0,0,0,0,0,0,0,0,0,0,0,0,0,0,0,0,0,0,0],"sum_hessian":[8.3932E4,5.0681E4,3.3251E4,6.796E3,4.3885E4,2.8723E4,4.528E3,9.01E2,5.895E3,1.8061E4,2.5824E4,2.0506E4,8.217E3,3.248E3,1.28E3,9E2,1E0,3.461E3,2.434E3,9.007E3,9.054E3,1.3029E4,1.2795E4,1.831E4,2.196E3,7.258E3,9.59E2,2.75E3,4.98E2,1.167E3,1.13E2,5.11E2,3.89E2,1.015E3,2.446E3,1.002E3,1.432E3,8.107E3,9E2,5.942E3,3.112E3,1.2306E4,7.23E2,1.134E4,1.455E3,1.0551E4,7.759E3,3.28E2,1.868E3,1.43E2,7.115E3,2.5E2,7.09E2,1.732E3,1.018E3,2.2E1,4.76E2,1E0,1.166E3,9.2E1,2.1E1],"tree_param":{"num_deleted":"0","num_feature":"57","num_nodes":"61","size_leaf_vector":"1"}},{"base_weights":[-9.850845E-5,-4.6939697E-2,7.1218945E-2,-3.2126848E-2,-1.4352953E-1,5.3356458E-2,1.8348396E-1,-6.581577E-2,-1.4562857E-2,-2.3398905E-1,-1.2955181E-1,3.6106147E-2,9.61223E-2,1.5038581E-1,2.3010918E-1,-7.3906295E-2,-5.003672E-2,-2.881448E-2,-8.5493876E-4,-2.3687738E-1,4.4577286E-1,-1.0870553E-1,-1.5868668E-1,4.1498303E-2,-3.4652483E-2,1.0166387E-1,1.3144345E-2,1.6430226E-1,7.517098E-2,2.4779703E-1,1.2585545E-1,-3.8556668E-3,-2.0299493E-3,-2.5322118E-3,4.730122E-3,-1.2781034E-3,-3.0620438E-3,1.9978637E-4,-2.6190057E-3,-1.6404038E-2,-1.124334E-2,4.7956607E-3,3.4883793E-2,-6.648544E-3,-4.9248147E-3,-9.2019625E-3,-7.026919E-3,1.4364115E-3,2.917325E-3,-5.168154E-3,-5.7595473E-4,1.9698481E-4,5.195159E-3,-5.4214653E-3,2.172715E-3,4.7499994E-3,8.720293E-3,4.490332E-3,-1.7716958E-3,1.2454861E-2,-4.3735478E-2,4.299638E-3,1.0761528E-2],"categories":[],"categories_nodes":[],"categories_segments":[],"categories_sizes":[],"default_left":[0,0,0,0,0,0,0,0,0,0,0,0,0,0,0,0,0,0,0,0,0,0,0,0,0,0,0,0,0,0,0,0,0,0,0,0,0,0,0,0,0,0,0,0,0,0,0,0,0,0,0,0,0,0,0,0,0,0,0,0,0,0,0],"id":9,"left_children":[1,3,5,7,9,11,13,15,17,19,21,23,25,27,29,31,33,35,37,39,41,43,45,47,49,51,53,55,57,59,61,-1,-1,-1,-1,-1,-1,-1,-1,-1,-1,-1,-1,-1,-1,-1,-1,-1,-1,-1,-1,-1,-1,-1,-1,-1,-1,-1,-1,-1,-1,-1,-1],"loss_changes":[2.8000955E2,7.236481E1,6.659973E1,2.5948227E1,8.43782E0,2.1133102E1,6.9643707E0,1.902771E0,5.630802E0,1.8478203E0,3.4962769E0,7.797779E0,3.7752533E0,2.7594986E0,3.4166489E0,1.0458031E0,4.487095E-1,1.4804878E0,3.6800394E0,8.5131454E-1,2.0624757E-1,8.0678177E-1,1.0583534E0,4.0747185E0,2.2857509E0,1.6784363E0,1.9069881E0,1.5333481E0,6.885054E-1,2.5109253E0,9.3824625E-1,0E0,0E0,0E0,0E0,0E0,0E0,0E0,0E0,0E0,0E0,0E0,0E0,0E0,0E0,0E0,0E0,0E0,0E0,0E0,0E0,0E0,0E0,0E0,0E0,0E0,0E0,0E0,0E0,0E0,0E0,0E0,0E0],"parents":[2147483647,0,0,1,1,2,2,3,3,4,4,5,5,6,6,7,7,8,8,9,9,10,10,11,11,12,12,13,13,14,14,15,15,16,16,17,17,18,18,19,19,20,20,21,21,22,22,23,23,24,24,25,25,26,26,27,27,28,28,29,29,30,30],"right_children":[2,4,6,8,10,12,14,16,18,20,22,24,26,28,30,32,34,36,38,40,42,44,46,48,50,52,54,56,58,60,62,-1,-1,-1,-1,-1,-1,-1,-1,-1,-1,-1,-1,-1,-1,-1,-1,-1,-1,-1,-1,-1,-1,-1,-1,-1,-1,-1,-1,-1,-1,-1,-1],"split_conditions":[7.4E0,1E0,7.6E0,7.266667E0,-2E-1,7.5E0,7.7E0,7.233333E0,7.3333335E0,7.234178E-1,7.5E-1,2.7522936E-2,2.7522936E-2,2E-1,4.5454544E-3,1E-1,2.6457512E-1,1.75E0,2.6666667E-2,-4E-1,7.5E0,-1E-1,-1E-1,7.4333334E0,1.5E1,2E-1,1.3E1,4E-1,6.25E-2,1.59E1,1.1E3,-3.8556668E-3,-2.0299493E-3,-2.5322118E-3,4.730122E-3,-1.2781034E-3,-3.0620438E-3,1.9978637E-4,-2.6190057E-3,-1.6404038E-2,-1.124334E-2,4.7956607E-3,3.4883793E-2,-6.648544E-3,-4.9248147E-3,-9.2019625E-3,-7.026919E-3,1.4364115E-3,2.917325E-3,-5.168154E-3,-5.7595473E-4,1.9698481E-4,5.195159E-3,-5.4214653E-3,2.172715E-3,4.7499994E-3,8.720293E-3,4.490332E-3,-1.7716958E-3,1.2454861E-2,-4.3735478E-2,4.299638E-3,1.0761528E-2],"split_indices":[22,48,22,22,35,22,22,22,22,23,46,54,54,28,54,35,23,28,54,38,17,38,38,22,45,35,45,35,54,20,13,0,0,0,0,0,0,0,0,0,0,0,0,0,0,0,0,0,0,0,0,0,0,0,0,0,0,0,0,0,0,0,0],"split_type":[0,0,0,0,0,0,0,0,0,0,0,0,0,0,0,0,0,0,0,0,0,0,0,0,0,0,0,0,0,0,0,0,0,0,0,0,0,0,0,0,0,0,0,0,0,0,0,0,0,0,0,0,0,0,0,0,0,0,0,0,0,0,0],"sum_hessian":[8.3819E4,5.0592E4,3.3227E4,4.3867E4,6.725E3,2.8668E4,4.559E3,1.503E4,2.8837E4,8.97E2,5.828E3,2.0431E4,8.237E3,2.67E3,1.889E3,9.929E3,5.101E3,1.4134E4,1.4703E4,8.94E2,3E0,3.402E3,2.426E3,1.8986E4,1.445E3,7.72E3,5.17E2,2.251E3,4.19E2,1.613E3,2.76E2,9.053E3,8.76E2,5.081E3,2E1,1.285E4,1.284E3,1.3437E4,1.266E3,1E2,7.94E2,2E0,1E0,1.001E3,2.401E3,1.006E3,1.42E3,1.0805E4,8.181E3,3.62E2,1.083E3,1.74E2,7.546E3,1.02E2,4.15E2,2.89E2,1.962E3,3.71E2,4.8E1,1.612E3,1E0,1.93E2,8.3E1],"tree_param":{"num_deleted":"0","num_feature":"57","num_nodes":"63","size_leaf_vector":"1"}},{"base_weights":[1.8223109E-4,-4.4257328E-2,6.776384E-2,-1.365186E-1,-3.002363E-2,4.7213007E-2,1.5753068E-1,-2.2315499E-1,-1.2289791E-1,-5.3545155E-2,-6.6901143E-3,2.8694255E-2,7.5762615E-2,1.23711616E-1,2.0537446E-1,4.346541E-1,-2.259081E-1,-1.5639561E-1,-1.0706863E-1,-7.0286654E-2,-3.9719496E-2,-1.6573361E-3,-4.721364E-2,3.383246E-2,-2.8342962E-2,8.214163E-2,-2.1446193E-2,1.3607517E-1,5.4455705E-2,2.225278E-1,1.1682541E-1,3.4011696E-2,4.6358095E-3,-3.1359334E-2,-1.1054901E-2,-8.910527E-3,-7.184657E-3,-5.933141E-3,-4.3326686E-3,-3.672889E-3,-1.8935902E-3,-2.1513929E-3,-6.7223725E-4,-7.5428153E-4,8.5558643E-4,-6.2022605E-3,-1.2026108E-3,4.0850857E-5,1.8217163E-3,5.7406935E-5,-3.259559E-3,2.6982396E-3,4.5407987E-3,-7.609002E-3,-6.0400274E-5,5.218011E-3,7.341263E-3,3.3029055E-3,-1.918883E-3,9.23494E-3,1.3105831E-2,-4.0184464E-3,6.4118067E-3],"categories":[],"categories_nodes":[],"categories_segments":[],"categories_sizes":[],"default_left":[0,0,0,0,0,0,0,0,0,0,0,0,0,0,0,0,0,0,0,0,0,0,0,0,0,0,0,0,0,0,0,0,0,0,0,0,0,0,0,0,0,0,0,0,0,0,0,0,0,0,0,0,0,0,0,0,0,0,0,0,0,0,0],"id":10,"left_children":[1,3,5,7,9,11,13,15,17,19,21,23,25,27,29,31,33,35,37,39,41,43,45,47,49,51,53,55,57,59,61,-1,-1,-1,-1,-1,-1,-1,-1,-1,-1,-1,-1,-1,-1,-1,-1,-1,-1,-1,-1,-1,-1,-1,-1,-1,-1,-1,-1,-1,-1,-1,-1],"loss_changes":[2.5124016E2,6.625348E1,6.1194946E1,7.8962097E0,2.3991093E1,1.4266064E1,9.942734E0,1.7325859E0,3.048767E0,5.025608E0,4.4722595E0,4.803444E0,6.595112E0,3.0774384E0,3.8239365E0,1.9552845E-1,1.5348969E0,4.5955658E-1,9.076958E-1,9.9785995E-1,1.0308056E0,4.9225807E0,4.2940035E0,1.2876053E0,1.4767767E0,2.41745E0,1.7148412E0,1.0076065E0,5.9985685E-1,3.1117783E0,9.55647E-1,0E0,0E0,0E0,0E0,0E0,0E0,0E0,0E0,0E0,0E0,0E0,0E0,0E0,0E0,0E0,0E0,0E0,0E0,0E0,0E0,0E0,0E0,0E0,0E0,0E0,0E0,0E0,0E0,0E0,0E0,0E0,0E0],"parents":[2147483647,0,0,1,1,2,2,3,3,4,4,5,5,6,6,7,7,8,8,9,9,10,10,11,11,12,12,13,13,14,14,15,15,16,16,17,17,18,18,19,19,20,20,21,21,22,22,23,23,24,24,25,25,26,26,27,27,28,28,29,29,30,30],"right_children":[2,4,6,8,10,12,14,16,18,20,22,24,26,28,30,32,34,36,38,40,42,44,46,48,50,52,54,56,58,60,62,-1,-1,-1,-1,-1,-1,-1,-1,-1,-1,-1,-1,-1,-1,-1,-1,-1,-1,-1,-1,-1,-1,-1,-1,-1,-1,-1,-1,-1,-1,-1,-1],"split_conditions":[7.4E0,0E0,7.5666666E0,-2E-1,7.3E0,7.4666667E0,7.6666665E0,-1.2E0,7.1E0,7.233333E0,1.4669927E-2,2.2959184E-2,3.0269058E-2,2E-1,4.5454544E-3,3E0,-7E-1,7.0333333E0,7.2E0,1E-1,2E-1,2E-1,1E1,2E-1,3E-1,3E-1,7E0,4E-1,9.539392E-1,6E-1,6.5E1,3.4011696E-2,4.6358095E-3,-3.1359334E-2,-1.1054901E-2,-8.910527E-3,-7.184657E-3,-5.933141E-3,-4.3326686E-3,-3.672889E-3,-1.8935902E-3,-2.1513929E-3,-6.7223725E-4,-7.5428153E-4,8.5558643E-4,-6.2022605E-3,-1.2026108E-3,4.0850857E-5,1.8217163E-3,5.7406935E-5,-3.259559E-3,2.6982396E-3,4.5407987E-3,-7.609002E-3,-6.0400274E-5,5.218011E-3,7.341263E-3,3.3029055E-3,-1.918883E-3,9.23494E-3,1.3105831E-2,-4.0184464E-3,6.4118067E-3],"split_indices":[22,35,22,35,22,22,22,39,22,22,54,54,54,28,54,18,35,22,22,35,38,35,45,35,35,35,45,35,25,35,12,0,0,0,0,0,0,0,0,0,0,0,0,0,0,0,0,0,0,0,0,0,0,0,0,0,0,0,0,0,0,0,0],"split_type":[0,0,0,0,0,0,0,0,0,0,0,0,0,0,0,0,0,0,0,0,0,0,0,0,0,0,0,0,0,0,0,0,0,0,0,0,0,0,0,0,0,0,0,0,0,0,0,0,0,0,0,0,0,0,0,0,0,0,0,0,0,0,0],"sum_hessian":[8.3652E4,5.0466E4,3.3186E4,6.743E3,4.3723E4,2.7006E4,6.18E3,9.13E2,5.83E3,2.1771E4,2.1952E4,1.6384E4,1.0622E4,3.624E3,2.556E3,3E0,9.1E2,1.866E3,3.964E3,9.842E3,1.1929E4,1.953E4,2.422E3,1.5032E4,1.352E3,9.969E3,6.53E2,3.073E3,5.51E2,2.139E3,4.17E2,1E0,2E0,9E0,9.01E2,6.79E2,1.187E3,2.522E3,1.442E3,8.961E3,8.81E2,1.0591E4,1.338E3,1.1388E4,8.142E3,5.59E2,1.863E3,1.101E3,1.3931E4,7.5E2,6.02E2,2.351E3,7.618E3,8.6E1,5.67E2,7.83E2,2.29E3,4.91E2,6E1,1.098E3,1.041E3,2.2E1,3.95E2],"tree_param":{"num_deleted":"0","num_feature":"57","num_nodes":"63","size_leaf_vector":"1"}},{"base_weights":[-2.8817044E-4,-4.9912464E-2,5.4117598E-2,-3.5525948E-2,-1.290749E-1,2.5550667E-2,1.1554013E-1,-5.964913E-2,-1.906981E-2,-1.962866E-1,-1.1364182E-1,3.1989045E-2,-2.4848666E-2,9.5501825E-2,1.9641438E-1,-6.714484E-2,-4.5059137E-2,-1.5760355E-2,-6.402475E-2,-2.6466548E-1,-1.809358E-1,-1.3951603E-1,-1.01071745E-1,2.188091E-2,5.3444527E-2,-1.0382718E-1,-8.452938E-3,1.00562505E-1,6.9616307E-3,2.1286528E-1,1.0841374E-1,-3.183961E-3,-4.5506004E-3,-2.0694088E-3,-3.063576E-3,-1.2180663E-3,3.9884067E-4,-5.885975E-3,-1.5925168E-3,-1.2532085E-2,-3.2665893E-2,-9.740989E-3,-6.997637E-3,-7.019789E-3,3.3161398E-2,-5.5895727E-3,-3.6148224E-3,-4.688267E-5,1.3499215E-3,2.1309785E-3,3.2836292E-3,-8.101199E-3,-2.3409883E-3,5.019515E-4,-1.8341675E-3,4.568746E-3,6.8894685E-3,-4.86073E-3,1.6431321E-3,8.909839E-3,1.2469752E-2,6.3294894E-3,-1.9212564E-3],"categories":[],"categories_nodes":[],"categories_segments":[],"categories_sizes":[],"default_left":[0,0,0,0,0,0,0,0,0,0,0,0,0,0,0,0,0,0,0,0,0,0,0,0,0,0,0,0,0,0,0,0,0,0,0,0,0,0,0,0,0,0,0,0,0,0,0,0,0,0,0,0,0,0,0,0,0,0,0,0,0,0,0],"id":11,"left_children":[1,3,5,7,9,11,13,15,17,19,21,23,25,27,29,31,33,35,37,39,41,43,45,47,49,51,53,55,57,59,61,-1,-1,-1,-1,-1,-1,-1,-1,-1,-1,-1,-1,-1,-1,-1,-1,-1,-1,-1,-1,-1,-1,-1,-1,-1,-1,-1,-1,-1,-1,-1,-1],"loss_changes":[2.2539099E2,4.970323E1,6.985676E1,1.4658798E1,6.909981E0,8.822123E0,2.0436203E1,1.624115E0,3.2594795E0,1.2206879E0,1.7386246E0,5.219284E0,3.9736276E0,4.528885E0,3.5755997E0,7.9678726E-1,2.9024887E-1,4.180226E0,2.5795994E0,9.776392E-1,5.2305984E-1,1.2986145E0,1.109581E0,1.9166808E0,1.0077248E0,1.723248E0,1.3347462E0,3.2424622E0,1.4808079E0,2.586235E0,1.075923E0,0E0,0E0,0E0,0E0,0E0,0E0,0E0,0E0,0E0,0E0,0E0,0E0,0E0,0E0,0E0,0E0,0E0,0E0,0E0,0E0,0E0,0E0,0E0,0E0,0E0,0E0,0E0,0E0,0E0,0E0,0E0,0E0],"parents":[2147483647,0,0,1,1,2,2,3,3,4,4,5,5,6,6,7,7,8,8,9,9,10,10,11,11,12,12,13,13,14,14,15,15,16,16,17,17,18,18,19,19,20,20,21,21,22,22,23,23,24,24,25,25,26,26,27,27,28,28,29,29,30,30],"right_children":[2,4,6,8,10,12,14,16,18,20,22,24,26,28,30,32,34,36,38,40,42,44,46,48,50,52,54,56,58,60,62,-1,-1,-1,-1,-1,-1,-1,-1,-1,-1,-1,-1,-1,-1,-1,-1,-1,-1,-1,-1,-1,-1,-1,-1,-1,-1,-1,-1,-1,-1,-1,-1],"split_conditions":[7.366667E0,1E0,7.5E0,7.266667E0,7.0333333E0,1.6666668E-2,7.6666665E0,7.233333E0,2.6666667E-2,6.9E0,-1E-1,7.4333334E0,9E0,3.0269058E-2,4.5454544E-3,5E-1,3.19E2,2E-1,1.6E1,4E-1,4E0,8.1E0,7.2E0,2E-1,3E-1,3.3333334E-1,3E-1,7.6E0,1.3E1,6E-1,6.338028E-2,-3.183961E-3,-4.5506004E-3,-2.0694088E-3,-3.063576E-3,-1.2180663E-3,3.9884067E-4,-5.885975E-3,-1.5925168E-3,-1.2532085E-2,-3.2665893E-2,-9.740989E-3,-6.997637E-3,-7.019789E-3,3.3161398E-2,-5.5895727E-3,-3.6148224E-3,-4.688267E-5,1.3499215E-3,2.1309785E-3,3.2836292E-3,-8.101199E-3,-2.3409883E-3,5.019515E-4,-1.8341675E-3,4.568746E-3,6.8894685E-3,-4.86073E-3,1.6431321E-3,8.909839E-3,1.2469752E-2,6.3294894E-3,-1.9212564E-3],"split_indices":[22,48,22,22,22,54,22,22,54,22,38,22,45,54,54,46,56,38,45,41,29,16,22,35,35,26,38,22,45,35,54,0,0,0,0,0,0,0,0,0,0,0,0,0,0,0,0,0,0,0,0,0,0,0,0,0,0,0,0,0,0,0,0],"split_type":[0,0,0,0,0,0,0,0,0,0,0,0,0,0,0,0,0,0,0,0,0,0,0,0,0,0,0,0,0,0,0,0,0,0,0,0,0,0,0,0,0,0,0,0,0,0,0,0,0,0,0,0,0,0,0,0,0,0,0,0,0,0,0],"sum_hessian":[8.3481E4,4.366E4,3.9821E4,3.6948E4,6.712E3,2.7182E4,1.2639E4,1.498E4,2.1968E4,1.25E3,5.462E3,2.4105E4,3.077E3,1.0132E4,2.507E3,9.889E3,5.091E3,2.0465E4,1.503E3,2.25E2,1.025E3,1.78E3,3.682E3,1.639E4,7.715E3,5.27E2,2.55E3,9.583E3,5.49E2,2.11E3,3.97E2,8.642E3,1.247E3,4.159E3,9.32E2,1.5025E4,5.44E3,5.61E2,9.42E2,2.19E2,6E0,7.61E2,2.64E2,1.779E3,1E0,2.678E3,1.004E3,2.999E3,1.3391E4,4.099E3,3.616E3,2.59E2,2.68E2,1.539E3,1.011E3,7.691E3,1.892E3,1.08E2,4.41E2,1.087E3,1.023E3,3.54E2,4.3E1],"tree_param":{"num_deleted":"0","num_feature":"57","num_nodes":"63","size_leaf_vector":"1"}},{"base_weights":[2.271369E-4,-3.991407E-2,6.137669E-2,-1.2190936E-1,-2.7332164E-2,3.8873978E-2,1.2729491E-1,-1.984303E-1,-1.10226884E-1,-5.3384457E-2,-9.2028165E-3,4.3507867E-2,-2.4245499E-2,1.0696214E-1,1.9725445E-1,-2.0022278E-1,3.2332372E-2,-1.3151747E-1,-8.972971E-2,-6.647961E-2,-4.0178742E-2,-2.247221E-2,4.3341178E-3,3.062385E-2,6.714735E-2,-8.8488415E-2,-2.901811E-3,1.1766573E-1,4.8832454E-2,2.0759776E-1,8.278376E-2,-1.2227554E-2,-8.786646E-3,-7.4839653E-3,-5.88241E-3,-5.768645E-3,-4.0943357E-3,-3.135598E-3,-4.9902922E-3,-2.379462E-3,-1.3531924E-3,-9.482746E-4,-3.1187555E-3,4.8013875E-4,-1.8987274E-3,-1.1050868E-3,1.602094E-3,3.5398302E-3,5.949481E-4,-7.2213598E-3,-1.7387212E-3,-4.9050694E-4,3.2291987E-3,5.4240427E-3,8.650644E-3,5.035276E-3,1.4003731E-3,-1.4986207E-3,1.0570686E-2,-9.938696E-3,4.7846814E-3],"categories":[],"categories_nodes":[],"categories_segments":[],"categories_sizes":[],"default_left":[0,0,0,0,0,0,0,0,0,0,0,0,0,0,0,0,0,0,0,0,0,0,0,0,0,0,0,0,0,0,0,0,0,0,0,0,0,0,0,0,0,0,0,0,0,0,0,0,0,0,0,0,0,0,0,0,0,0,0,0,0],"id":12,"left_children":[1,3,5,7,9,11,13,15,17,19,21,23,25,27,29,31,-1,33,35,37,39,41,43,45,47,49,51,53,55,57,59,-1,-1,-1,-1,-1,-1,-1,-1,-1,-1,-1,-1,-1,-1,-1,-1,-1,-1,-1,-1,-1,-1,-1,-1,-1,-1,-1,-1,-1,-1],"loss_changes":[2.0573833E2,5.218255E1,4.9250504E1,5.9635696E0,2.0713531E1,7.2467575E0,1.1971207E1,1.4314804E0,2.515503E0,3.099247E0,4.6492186E0,7.01585E0,2.3120131E0,4.0542374E0,2.2045746E0,8.7900543E-1,0E0,6.763191E-1,5.705662E-1,1.1115608E0,8.628273E-1,1.8194041E0,2.851665E0,1.118639E0,1.6312294E0,1.2420344E0,5.886464E-1,2.7648087E0,1.0883303E0,1.6037064E0,5.9029305E-1,0E0,0E0,0E0,0E0,0E0,0E0,0E0,0E0,0E0,0E0,0E0,0E0,0E0,0E0,0E0,0E0,0E0,0E0,0E0,0E0,0E0,0E0,0E0,0E0,0E0,0E0,0E0,0E0,0E0,0E0],"parents":[2147483647,0,0,1,1,2,2,3,3,4,4,5,5,6,6,7,7,8,8,9,9,10,10,11,11,12,12,13,13,14,14,15,15,17,17,18,18,19,19,20,20,21,21,22,22,23,23,24,24,25,25,26,26,27,27,28,28,29,29,30,30],"right_children":[2,4,6,8,10,12,14,16,18,20,22,24,26,28,30,32,-1,34,36,38,40,42,44,46,48,50,52,54,56,58,60,-1,-1,-1,-1,-1,-1,-1,-1,-1,-1,-1,-1,-1,-1,-1,-1,-1,-1,-1,-1,-1,-1,-1,-1,-1,-1,-1,-1,-1,-1],"split_conditions":[7.4E0,0E0,7.5333333E0,-2E-1,1E-1,2.7522936E-2,7.7E0,1E1,7.133333E0,7.233333E0,7.3333335E0,3E-1,1.4E1,5E-1,2.7522936E-2,6.9333334E0,3.2332372E-2,7.0666666E0,-1E-1,5E-1,5.6666666E-1,1.6304348E-2,1.5789473E-2,1E-1,1.3540622E-2,2.6666668E-1,1.5E1,5E-1,2E-1,3E-1,-6.222222E-3,-1.2227554E-2,-8.786646E-3,-7.4839653E-3,-5.88241E-3,-5.768645E-3,-4.0943357E-3,-3.135598E-3,-4.9902922E-3,-2.379462E-3,-1.3531924E-3,-9.482746E-4,-3.1187555E-3,4.8013875E-4,-1.8987274E-3,-1.1050868E-3,1.602094E-3,3.5398302E-3,5.949481E-4,-7.2213598E-3,-1.7387212E-3,-4.9050694E-4,3.2291987E-3,5.4240427E-3,8.650644E-3,5.035276E-3,1.4003731E-3,-1.4986207E-3,1.0570686E-2,-9.938696E-3,4.7846814E-3],"split_indices":[22,35,22,35,35,54,22,20,22,22,22,35,45,28,54,22,0,22,38,46,26,54,54,35,54,26,28,35,20,35,55,0,0,0,0,0,0,0,0,0,0,0,0,0,0,0,0,0,0,0,0,0,0,0,0,0,0,0,0,0,0],"split_type":[0,0,0,0,0,0,0,0,0,0,0,0,0,0,0,0,0,0,0,0,0,0,0,0,0,0,0,0,0,0,0,0,0,0,0,0,0,0,0,0,0,0,0,0,0,0,0,0,0,0,0,0,0,0,0,0,0,0,0,0,0],"sum_hessian":[8.3814E4,5.0598E4,3.3216E4,6.729E3,4.3869E4,2.4765E4,8.451E3,8.88E2,5.841E3,1.7998E4,2.5871E4,2.3073E4,1.692E3,6.551E3,1.9E3,8.87E2,1E0,2.86E3,2.981E3,9.031E3,8.967E3,1.3068E4,1.2803E4,1.4938E4,8.135E3,4.2E2,1.272E3,5.53E3,1.021E3,1.741E3,1.59E2,3.11E2,5.76E2,1.231E3,1.629E3,6.92E2,2.289E3,8.119E3,9.12E2,5.723E3,3.244E3,1.2016E4,1.052E3,1.1388E4,1.415E3,3.89E2,1.4549E4,7.629E3,5.06E2,2.04E2,2.16E2,1.156E3,1.16E2,4.747E3,7.83E2,2.9E2,7.31E2,2.7E1,1.714E3,6E0,1.53E2],"tree_param":{"num_deleted":"0","num_feature":"57","num_nodes":"61","size_leaf_vector":"1"}},{"base_weights":[-1.4300762E-6,-4.7083177E-2,4.596882E-2,-1.1540118E-1,-3.3524483E-2,3.0779049E-2,1.2344584E-1,-1.481086E-1,-9.081121E-2,-4.9475368E-2,-1.4999371E-2,3.6780287E-2,-4.588711E-2,9.543784E-2,1.7715764E-1,-2.000971E-1,-1.3383442E-1,-1.0834591E-1,-6.9703594E-2,-6.883582E-2,-4.30418E-2,-2.300683E-2,4.999717E-3,2.1811087E-2,6.7622244E-2,-1.1892602E-1,-5.819406E-3,4.556975E-2,1.0847627E-1,1.9837464E-1,6.699105E-2,-2.6739353E-2,-9.737302E-3,-6.724217E-3,3.152406E-2,-5.082013E-3,-6.4742193E-3,-3.5296332E-3,3.520982E-2,-4.0579713E-3,-3.0511871E-3,-2.5746895E-3,-1.3278848E-3,-1.6774287E-3,-8.480077E-4,5.3530897E-4,-3.504136E-4,3.2187195E-4,1.4039795E-3,3.2016654E-3,6.8502924E-3,-8.55112E-3,-3.5592671E-3,-9.0486277E-4,1.5246928E-3,2.227604E-3,2.2707244E-2,5.8003967E-3,2.1974095E-3,-2.3888094E-2,1.0018643E-2,4.5687445E-3,-4.449672E-3],"categories":[],"categories_nodes":[],"categories_segments":[],"categories_sizes":[],"default_left":[0,0,0,0,0,0,0,0,0,0,0,0,0,0,0,0,0,0,0,0,0,0,0,0,0,0,0,0,0,0,0,0,0,0,0,0,0,0,0,0,0,0,0,0,0,0,0,0,0,0,0,0,0,0,0,0,0,0,0,0,0,0,0],"id":13,"left_children":[1,3,5,7,9,11,13,15,17,19,21,23,25,27,29,31,33,35,37,39,41,43,45,47,49,51,53,55,57,59,61,-1,-1,-1,-1,-1,-1,-1,-1,-1,-1,-1,-1,-1,-1,-1,-1,-1,-1,-1,-1,-1,-1,-1,-1,-1,-1,-1,-1,-1,-1,-1,-1],"loss_changes":[1.8067868E2,3.8183807E1,4.968773E1,5.4542465E0,1.0162167E1,1.6249382E1,1.0369026E1,2.1119308E0,1.4188347E0,2.2887802E0,2.5524952E0,1.5111427E1,7.4874573E0,2.9400215E0,5.4998245E0,9.4582176E-1,1.1781845E0,2.6522255E-1,1.2083273E0,4.242611E-1,1.9251938E0,7.1957874E-1,3.122936E-1,2.1218033E0,2.6355705E0,2.2194176E0,7.3808366E-1,3.2365644E-1,1.7319221E0,2.7511978E0,1.4727175E0,0E0,0E0,0E0,0E0,0E0,0E0,0E0,0E0,0E0,0E0,0E0,0E0,0E0,0E0,0E0,0E0,0E0,0E0,0E0,0E0,0E0,0E0,0E0,0E0,0E0,0E0,0E0,0E0,0E0,0E0,0E0,0E0],"parents":[2147483647,0,0,1,1,2,2,3,3,4,4,5,5,6,6,7,7,8,8,9,9,10,10,11,11,12,12,13,13,14,14,15,15,16,16,17,17,18,18,19,19,20,20,21,21,22,22,23,23,24,24,25,25,26,26,27,27,28,28,29,29,30,30],"right_children":[2,4,6,8,10,12,14,16,18,20,22,24,26,28,30,32,34,36,38,40,42,44,46,48,50,52,54,56,58,60,62,-1,-1,-1,-1,-1,-1,-1,-1,-1,-1,-1,-1,-1,-1,-1,-1,-1,-1,-1,-1,-1,-1,-1,-1,-1,-1,-1,-1,-1,-1,-1,-1],"split_conditions":[2E-1,0E0,7.6E0,-1E-1,1E-1,2.7522936E-2,5E-1,7E0,7.2E0,6E0,7.4E0,3E-1,1.9E1,3E-1,1.3157895E-2,-6E-1,8.4E0,2.9166667E-2,8.1E0,2E0,1E-1,7.3E0,1.99E2,7.4E0,5E-1,2.6666668E-1,7.5E0,8.2E0,1.3761468E-2,7E0,6.25E-2,-2.6739353E-2,-9.737302E-3,-6.724217E-3,3.152406E-2,-5.082013E-3,-6.4742193E-3,-3.5296332E-3,3.520982E-2,-4.0579713E-3,-3.0511871E-3,-2.5746895E-3,-1.3278848E-3,-1.6774287E-3,-8.480077E-4,5.3530897E-4,-3.504136E-4,3.2187195E-4,1.4039795E-3,3.2016654E-3,6.8502924E-3,-8.55112E-3,-3.5592671E-3,-9.0486277E-4,1.5246928E-3,2.227604E-3,2.2707244E-2,5.8003967E-3,2.1974095E-3,-2.3888094E-2,1.0018643E-2,4.5687445E-3,-4.449672E-3],"split_indices":[35,35,16,35,35,54,35,16,16,45,16,35,45,35,54,35,17,42,16,45,23,17,56,16,35,26,17,17,54,12,54,0,0,0,0,0,0,0,0,0,0,0,0,0,0,0,0,0,0,0,0,0,0,0,0,0,0,0,0,0,0,0,0],"split_type":[0,0,0,0,0,0,0,0,0,0,0,0,0,0,0,0,0,0,0,0,0,0,0,0,0,0,0,0,0,0,0,0,0,0,0,0,0,0,0,0,0,0,0,0,0,0,0,0,0,0,0,0,0,0,0,0,0,0,0,0,0,0,0],"sum_hessian":[8.3477E4,4.1241E4,4.2236E4,6.827E3,3.4414E4,3.5315E4,6.921E3,2.926E3,3.901E3,1.8488E4,1.5926E4,3.2753E4,2.562E3,4.552E3,2.369E3,6.26E2,2.3E3,2.126E3,1.775E3,4.605E3,1.3883E4,1.1376E4,4.55E3,2.2054E4,1.0699E4,9.06E2,1.656E3,9.46E2,3.606E3,1.985E3,3.84E2,8E0,6.18E2,2.299E3,1E0,1.622E3,5.04E2,1.774E3,1E0,1.778E3,2.827E3,9.172E3,4.711E3,4.139E3,7.237E3,3.09E3,1.46E3,6.393E3,1.5661E4,1.0176E4,5.23E2,4.31E2,4.75E2,1.24E3,4.16E2,9.45E2,1E0,3.227E3,3.79E2,5E0,1.98E3,3.33E2,5.1E1],"tree_param":{"num_deleted":"0","num_feature":"57","num_nodes":"63","size_leaf_vector":"1"}},{"base_weights":[-3.0758715E-4,-4.3234054E-2,4.6544667E-2,-3.095028E-2,-1.1190442E-1,2.2243949E-2,9.879305E-2,-5.1660083E-2,-1.68843E-2,-1.007479E-1,-1.8373947E-1,2.7463743E-2,-1.8735148E-2,8.2224175E-2,1.6601652E-1,-5.6050837E-2,-3.3869516E-2,-1.4230857E-2,-5.5342406E-2,-1.2850347E-1,-8.7269045E-2,-1.5812649E-1,-2.3162174E-1,1.8672038E-2,4.5995954E-2,-8.6855315E-2,-4.1944007E-3,8.889286E-2,3.339807E-2,1.8053538E-1,8.961069E-2,-3.9410284E-3,-2.6172025E-3,-1.8145911E-3,1.1685791E-3,-1.0888318E-3,2.671572E-4,-5.0137998E-3,-1.4068654E-3,-6.637326E-3,-2.8772657E-3,-4.920939E-3,-3.8797462E-3,-1.4719809E-2,-7.463272E-3,-1.8102897E-2,-1.016055E-2,-1.3983127E-3,1.0255652E-3,8.385025E-4,2.44634E-3,-2.9871294E-3,-1.03419125E-2,6.3822995E-4,-1.5292092E-3,3.6740347E-3,5.627579E-3,3.8721152E-3,5.846793E-4,9.074082E-3,-4.294854E-2,2.7413266E-3,7.5790896E-3],"categories":[],"categories_nodes":[],"categories_segments":[],"categories_sizes":[],"default_left":[0,0,0,0,0,0,0,0,0,0,0,0,0,0,0,0,0,0,0,0,0,0,0,0,0,0,0,0,0,0,0,0,0,0,0,0,0,0,0,0,0,0,0,0,0,0,0,0,0,0,0,0,0,0,0,0,0,0,0,0,0,0,0],"id":14,"left_children":[1,3,5,7,9,11,13,15,17,19,21,23,25,27,29,31,33,35,37,39,41,43,45,47,49,51,53,55,57,59,61,-1,-1,-1,-1,-1,-1,-1,-1,-1,-1,-1,-1,-1,-1,-1,-1,-1,-1,-1,-1,-1,-1,-1,-1,-1,-1,-1,-1,-1,-1,-1,-1],"loss_changes":[1.6883403E2,3.6937363E1,5.094658E1,1.0818569E1,5.279335E0,5.861885E0,1.4151566E1,1.1630859E0,2.251257E0,2.1206017E0,1.0171299E0,3.9526825E0,3.055194E0,3.3138046E0,2.7489853E0,9.996376E-1,4.156108E-1,3.060944E0,1.7275124E0,5.3845596E-1,3.932743E-1,6.180725E-1,1.007576E0,1.4143438E0,6.6209984E-1,1.7273993E0,1.1443055E0,3.252266E0,1.1679202E0,2.166542E0,8.440716E-1,0E0,0E0,0E0,0E0,0E0,0E0,0E0,0E0,0E0,0E0,0E0,0E0,0E0,0E0,0E0,0E0,0E0,0E0,0E0,0E0,0E0,0E0,0E0,0E0,0E0,0E0,0E0,0E0,0E0,0E0,0E0,0E0],"parents":[2147483647,0,0,1,1,2,2,3,3,4,4,5,5,6,6,7,7,8,8,9,9,10,10,11,11,12,12,13,13,14,14,15,15,16,16,17,17,18,18,19,19,20,20,21,21,22,22,23,23,24,24,25,25,26,26,27,27,28,28,29,29,30,30],"right_children":[2,4,6,8,10,12,14,16,18,20,22,24,26,28,30,32,34,36,38,40,42,44,46,48,50,52,54,56,58,60,62,-1,-1,-1,-1,-1,-1,-1,-1,-1,-1,-1,-1,-1,-1,-1,-1,-1,-1,-1,-1,-1,-1,-1,-1,-1,-1,-1,-1,-1,-1,-1,-1],"split_conditions":[7.366667E0,1E0,7.5E0,7.266667E0,3E-1,1.6666668E-2,7.6666665E0,1E-1,2.7522936E-2,7.1E0,2.5E-1,7.4333334E0,9E0,1.1764706E-2,4.5454544E-3,2E0,2.6457512E-1,2E-1,1.7E1,1.1E1,7.1666665E0,1E-1,-4E-1,1E-1,2E-1,6.338028E-2,3E-1,4E-1,2E-1,1.59E1,1E3,-3.9410284E-3,-2.6172025E-3,-1.8145911E-3,1.1685791E-3,-1.0888318E-3,2.671572E-4,-5.0137998E-3,-1.4068654E-3,-6.637326E-3,-2.8772657E-3,-4.920939E-3,-3.8797462E-3,-1.4719809E-2,-7.463272E-3,-1.8102897E-2,-1.016055E-2,-1.3983127E-3,1.0255652E-3,8.385025E-4,2.44634E-3,-2.9871294E-3,-1.03419125E-2,6.3822995E-4,-1.5292092E-3,3.6740347E-3,5.627579E-3,3.8721152E-3,5.846793E-4,9.074082E-3,-4.294854E-2,2.7413266E-3,7.5790896E-3],"split_indices":[22,48,22,22,50,54,22,38,54,22,27,22,45,54,54,45,23,35,45,30,22,26,38,35,38,54,38,35,20,20,13,0,0,0,0,0,0,0,0,0,0,0,0,0,0,0,0,0,0,0,0,0,0,0,0,0,0,0,0,0,0,0,0],"split_type":[0,0,0,0,0,0,0,0,0,0,0,0,0,0,0,0,0,0,0,0,0,0,0,0,0,0,0,0,0,0,0,0,0,0,0,0,0,0,0,0,0,0,0,0,0,0,0,0,0,0,0,0,0,0,0,0,0,0,0,0,0,0,0],"sum_hessian":[8.3945E4,4.3809E4,4.0136E4,3.7164E4,6.645E3,2.7397E4,1.2739E4,1.5028E4,2.2136E4,5.755E3,8.9E2,2.4304E4,3.093E3,1.0223E4,2.516E3,1.2047E4,2.981E3,2.0711E4,1.425E3,1.876E3,3.879E3,5.84E2,3.06E2,1.6489E4,7.815E3,5.42E2,2.551E3,8.992E3,1.231E3,2.112E3,4.04E2,1.68E3,1.0367E4,2.862E3,1.19E2,1.4952E4,5.759E3,5.35E2,8.9E2,1.768E3,1.08E2,1.793E3,2.086E3,3.3E1,5.51E2,5.2E1,2.54E2,6.23E2,1.5866E4,7.16E2,7.099E3,4.44E2,9.8E1,1.551E3,1E3,5.45E3,3.542E3,4.04E2,8.27E2,2.111E3,1E0,2.61E2,1.43E2],"tree_param":{"num_deleted":"0","num_feature":"57","num_nodes":"63","size_leaf_vector":"1"}},{"base_weights":[-6.5528126E-5,-3.4344032E-2,5.2293986E-2,-2.3441713E-2,-1.0474864E-1,3.6579907E-2,1.2173416E-1,-4.5343988E-2,-8.144682E-3,-1.6197883E-1,-9.1574736E-2,2.186821E-2,5.89481E-2,9.959726E-2,1.7176051E-1,-5.695419E-2,-3.3731833E-2,-4.278266E-3,-4.5035202E-2,-2.0149162E-1,-1.4466669E-1,-8.8960074E-2,-1.9300689E-1,2.5751945E-2,-2.1667106E-2,6.3777074E-2,-1.3598357E-2,1.0497682E-1,2.1795621E-2,1.8446848E-1,8.845568E-2,-3.851673E-3,-2.6494465E-3,-1.4934415E-3,-2.769337E-3,-7.6779624E-4,5.9705245E-4,-1.7868162E-3,-8.326679E-3,-9.763648E-3,-3.576694E-2,-5.316765E-3,-7.647359E-3,-5.18435E-3,-3.603421E-3,2.4196194E-2,-1.0368043E-2,-1.3414845E-3,1.3397302E-3,1.1940902E-4,-2.5519175E-3,2.071007E-3,3.529456E-3,8.185801E-4,-2.929798E-3,1.5930281E-3,5.489677E-3,-1.1612613E-3,2.701929E-3,7.710792E-3,1.068379E-2,2.8706703E-3,8.929557E-3],"categories":[],"categories_nodes":[],"categories_segments":[],"categories_sizes":[],"default_left":[0,0,0,0,0,0,0,0,0,0,0,0,0,0,0,0,0,0,0,0,0,0,0,0,0,0,0,0,0,0,0,0,0,0,0,0,0,0,0,0,0,0,0,0,0,0,0,0,0,0,0,0,0,0,0,0,0,0,0,0,0,0,0],"id":15,"left_children":[1,3,5,7,9,11,13,15,17,19,21,23,25,27,29,31,33,35,37,39,41,43,45,47,49,51,53,55,57,59,61,-1,-1,-1,-1,-1,-1,-1,-1,-1,-1,-1,-1,-1,-1,-1,-1,-1,-1,-1,-1,-1,-1,-1,-1,-1,-1,-1,-1,-1,-1,-1,-1],"loss_changes":[1.5043703E2,3.8867695E1,3.6165695E1,1.4691471E1,5.0798492E0,8.890442E0,6.731003E0,2.4206161E0,3.6794E0,8.0361557E-1,1.4196548E0,2.7601771E0,3.7638168E0,1.7617264E0,1.9402733E0,7.005272E-1,7.4470425E-1,4.2021556E0,2.7395692E0,9.899149E-1,2.3934364E-1,1.3152847E0,1.4038701E0,8.222647E-1,9.482093E-1,1.5178261E0,9.0737927E-1,1.380146E0,4.0643108E-1,1.3652153E0,6.6844654E-1,0E0,0E0,0E0,0E0,0E0,0E0,0E0,0E0,0E0,0E0,0E0,0E0,0E0,0E0,0E0,0E0,0E0,0E0,0E0,0E0,0E0,0E0,0E0,0E0,0E0,0E0,0E0,0E0,0E0,0E0,0E0,0E0],"parents":[2147483647,0,0,1,1,2,2,3,3,4,4,5,5,6,6,7,7,8,8,9,9,10,10,11,11,12,12,13,13,14,14,15,15,16,16,17,17,18,18,19,19,20,20,21,21,22,22,23,23,24,24,25,25,26,26,27,27,28,28,29,29,30,30],"right_children":[2,4,6,8,10,12,14,16,18,20,22,24,26,28,30,32,34,36,38,40,42,44,46,48,50,52,54,56,58,60,62,-1,-1,-1,-1,-1,-1,-1,-1,-1,-1,-1,-1,-1,-1,-1,-1,-1,-1,-1,-1,-1,-1,-1,-1,-1,-1,-1,-1,-1,-1,-1,-1],"split_conditions":[7.4E0,1E0,7.5666666E0,1E-1,7.0333333E0,7.4666667E0,7.7E0,7.233333E0,1.5789473E-2,6.9333334E0,4E-1,2.3333333E-2,3.0269058E-2,3.0269058E-2,1.5686275E-2,7.2E0,3.06E2,2E-1,2.5E-1,1E0,6.666667E-1,7.2E0,1E-1,1E-1,3E-1,3E-1,4E-1,3E-1,2.2E0,7.766667E0,2.115E2,-3.851673E-3,-2.6494465E-3,-1.4934415E-3,-2.769337E-3,-7.6779624E-4,5.9705245E-4,-1.7868162E-3,-8.326679E-3,-9.763648E-3,-3.576694E-2,-5.316765E-3,-7.647359E-3,-5.18435E-3,-3.603421E-3,2.4196194E-2,-1.0368043E-2,-1.3414845E-3,1.3397302E-3,1.1940902E-4,-2.5519175E-3,2.071007E-3,3.529456E-3,8.185801E-4,-2.929798E-3,1.5930281E-3,5.489677E-3,-1.1612613E-3,2.701929E-3,7.710792E-3,1.068379E-2,2.8706703E-3,8.929557E-3],"split_indices":[22,48,22,35,22,22,22,22,54,22,50,54,54,54,54,16,56,35,46,0,46,16,34,35,35,35,35,35,34,22,11,0,0,0,0,0,0,0,0,0,0,0,0,0,0,0,0,0,0,0,0,0,0,0,0,0,0,0,0,0,0,0,0],"split_type":[0,0,0,0,0,0,0,0,0,0,0,0,0,0,0,0,0,0,0,0,0,0,0,0,0,0,0,0,0,0,0,0,0,0,0,0,0,0,0,0,0,0,0,0,0,0,0,0,0,0,0,0,0,0,0,0,0,0,0,0,0,0,0],"sum_hessian":[8.3817E4,5.0656E4,3.3161E4,4.3866E4,6.79E3,2.7044E4,6.117E3,1.8035E4,2.5831E4,1.267E3,5.523E3,1.6318E4,1.0726E4,4.244E3,1.873E3,9.012E3,9.023E3,2.3384E4,2.447E3,3.81E2,8.86E2,5.387E3,1.36E2,1.4984E4,1.334E3,1.0058E4,6.68E2,3.968E3,2.76E2,1.623E3,2.5E2,1.479E3,7.533E3,7.663E3,1.36E3,1.3898E4,9.486E3,2.275E3,1.72E2,3.78E2,3E0,1.62E2,7.24E2,2.872E3,2.515E3,2E0,1.34E2,2.89E2,1.4695E4,7.32E2,6.02E2,2.354E3,7.704E3,4E2,2.68E2,2.47E2,3.721E3,1.14E2,1.62E2,8.02E2,8.21E2,1.88E2,6.2E1],"tree_param":{"num_deleted":"0","num_feature":"57","num_nodes":"63","size_leaf_vector":"1"}},{"base_weights":[4.613562E-5,-3.8647287E-2,4.218864E-2,-9.978764E-2,-2.7607014E-2,2.0254906E-2,8.90725E-2,-1.6465625E-1,-8.957927E-2,-4.6788037E-2,-1.4537403E-2,2.5308784E-2,-1.9007683E-2,7.179777E-2,1.4272183E-1,4.1639563E-1,-1.6716407E-1,-7.3853314E-2,-1.11377396E-1,-5.1278174E-2,-2.938556E-2,-1.18808085E-2,-4.9734067E-2,1.7036261E-2,4.2873025E-2,-8.226478E-2,-6.4955037E-3,7.810617E-2,2.419677E-2,1.5694812E-1,7.374665E-2,5.8812844E-3,3.0317638E-2,-1.1205371E-2,-7.5488514E-3,-5.2681756E-3,-3.4812947E-3,-6.605364E-3,-4.8447805E-3,-2.4306185E-3,-4.10144E-3,-1.6309737E-3,2.028338E-3,-9.2565827E-4,2.7120867E-4,-5.1527163E-3,-1.538352E-3,-1.1388005E-3,9.246249E-4,-6.684833E-3,2.1703516E-3,-3.0761508E-3,-9.301308E-3,4.534246E-4,-1.4754207E-3,3.2702803E-3,4.9807713E-3,-1.3894222E-3,2.1074403E-3,7.788962E-3,5.36321E-2,4.50623E-3,-1.4772944E-3],"categories":[],"categories_nodes":[],"categories_segments":[],"categories_sizes":[],"default_left":[0,0,0,0,0,0,0,0,0,0,0,0,0,0,0,0,0,0,0,0,0,0,0,0,0,0,0,0,0,0,0,0,0,0,0,0,0,0,0,0,0,0,0,0,0,0,0,0,0,0,0,0,0,0,0,0,0,0,0,0,0,0,0],"id":16,"left_children":[1,3,5,7,9,11,13,15,17,19,21,23,25,27,29,31,33,35,37,39,41,43,45,47,49,51,53,55,57,59,61,-1,-1,-1,-1,-1,-1,-1,-1,-1,-1,-1,-1,-1,-1,-1,-1,-1,-1,-1,-1,-1,-1,-1,-1,-1,-1,-1,-1,-1,-1,-1,-1],"loss_changes":[1.363771E2,2.9414772E1,4.1155754E1,4.3747253E0,9.252113E0,5.413639E0,1.1792122E1,1.3619709E0,1.9491272E0,1.1597099E0,2.047608E0,3.5050478E0,2.451314E0,2.8868408E0,3.0121727E0,8.32935E-2,7.5914955E-1,4.2193985E-1,6.880951E-1,9.5754814E-1,6.9638085E-1,2.3465626E0,1.5398796E0,9.528885E-1,7.260027E-1,1.0657234E0,9.328446E-1,2.3050232E0,1.0599685E0,2.4629707E0,9.1209865E-1,0E0,0E0,0E0,0E0,0E0,0E0,0E0,0E0,0E0,0E0,0E0,0E0,0E0,0E0,0E0,0E0,0E0,0E0,0E0,0E0,0E0,0E0,0E0,0E0,0E0,0E0,0E0,0E0,0E0,0E0,0E0,0E0],"parents":[2147483647,0,0,1,1,2,2,3,3,4,4,5,5,6,6,7,7,8,8,9,9,10,10,11,11,12,12,13,13,14,14,15,15,16,16,17,17,18,18,19,19,20,20,21,21,22,22,23,23,24,24,25,25,26,26,27,27,28,28,29,29,30,30],"right_children":[2,4,6,8,10,12,14,16,18,20,22,24,26,28,30,32,34,36,38,40,42,44,46,48,50,52,54,56,58,60,62,-1,-1,-1,-1,-1,-1,-1,-1,-1,-1,-1,-1,-1,-1,-1,-1,-1,-1,-1,-1,-1,-1,-1,-1,-1,-1,-1,-1,-1,-1,-1,-1],"split_conditions":[7.366667E0,0E0,7.5E0,-2E-1,7.266667E0,1.4669927E-2,7.633333E0,-1.2E0,7.5E-1,1E-1,2.6213592E-2,7.4333334E0,9E0,1.0526316E-2,4.5454544E-3,7.5E0,6.9E0,9E-1,-1E-1,5E-1,2.6457512E-1,2E-1,8E0,1E-1,-5E-1,6.521739E-2,3E-1,4E-1,2.6E1,1.4502873E0,2.9E0,5.8812844E-3,3.0317638E-2,-1.1205371E-2,-7.5488514E-3,-5.2681756E-3,-3.4812947E-3,-6.605364E-3,-4.8447805E-3,-2.4306185E-3,-4.10144E-3,-1.6309737E-3,2.028338E-3,-9.2565827E-4,2.7120867E-4,-5.1527163E-3,-1.538352E-3,-1.1388005E-3,9.246249E-4,-6.684833E-3,2.1703516E-3,-3.0761508E-3,-9.301308E-3,4.534246E-4,-1.4754207E-3,3.2702803E-3,4.9807713E-3,-1.3894222E-3,2.1074403E-3,7.788962E-3,5.36321E-2,4.50623E-3,-1.4772944E-3],"split_indices":[22,35,22,35,22,54,22,39,46,35,54,22,45,54,54,17,22,33,35,46,23,35,45,50,39,54,35,35,45,23,52,0,0,0,0,0,0,0,0,0,0,0,0,0,0,0,0,0,0,0,0,0,0,0,0,0,0,0,0,0,0,0,0],"split_type":[0,0,0,0,0,0,0,0,0,0,0,0,0,0,0,0,0,0,0,0,0,0,0,0,0,0,0,0,0,0,0,0,0,0,0,0,0,0,0,0,0,0,0,0,0,0,0,0,0,0,0,0,0,0,0,0,0,0,0,0,0,0,0],"sum_hessian":[8.3632E4,4.3599E4,4.0033E4,6.666E3,3.6933E4,2.7276E4,1.2757E4,9.03E2,5.763E3,1.4963E4,2.197E4,2.4168E4,3.108E3,9.653E3,3.104E3,3E0,9E2,3.353E3,2.41E3,1.1888E4,3.075E3,2.0432E4,1.538E3,1.6435E4,7.733E3,5.11E2,2.597E3,8.521E3,1.132E3,2.571E3,5.33E2,2E0,1E0,1.95E2,7.05E2,3.91E2,2.962E3,9.85E2,1.425E3,1.0945E4,9.43E2,2.941E3,1.34E2,1.4775E4,5.657E3,4.01E2,1.137E3,5.77E2,1.5858E4,2.2E1,7.711E3,4.28E2,8.3E1,1.547E3,1.05E3,5.363E3,3.158E3,2.89E2,8.43E2,2.569E3,2E0,4.61E2,7.2E1],"tree_param":{"num_deleted":"0","num_feature":"57","num_nodes":"63","size_leaf_vector":"1"}},{"base_weights":[-1.5467134E-5,-3.6584217E-2,3.9735045E-2,-9.341297E-2,-2.6076932E-2,1.8622033E-2,8.534698E-2,-1.4627725E-1,-8.1598826E-2,-4.402476E-2,-1.3896418E-2,2.3266591E-2,-1.8084891E-2,7.078188E-2,1.4481351E-1,-1.903705E-1,-1.277246E-1,-1.0275097E-1,-7.201361E-2,-4.9439088E-2,-3.363924E-2,-1.1444021E-2,-4.853301E-2,1.7890906E-2,4.5803633E-2,-8.527184E-2,-6.069558E-3,7.6582246E-2,2.8806683E-2,3.5744436E-2,1.5194269E-1,-2.5364673E-2,-9.029881E-3,-4.435914E-3,-7.145708E-3,-5.1776743E-3,2.9559692E-2,-4.106628E-3,-2.3852445E-3,-2.5248844E-3,-0E0,-1.5289191E-3,-2.3851027E-3,-8.943346E-4,2.6665544E-4,-4.5411023E-3,-1.1012326E-3,8.733075E-5,1.1031387E-3,2.1008356E-3,4.81275E-3,-6.9694454E-3,-1.4944837E-3,5.082213E-4,-1.5204732E-3,3.1972553E-3,4.8118853E-3,3.6892649E-3,3.2704917E-4,1.2464504E-3,2.710416E-2,8.129686E-3,4.5362487E-3],"categories":[],"categories_nodes":[],"categories_segments":[],"categories_sizes":[],"default_left":[0,0,0,0,0,0,0,0,0,0,0,0,0,0,0,0,0,0,0,0,0,0,0,0,0,0,0,0,0,0,0,0,0,0,0,0,0,0,0,0,0,0,0,0,0,0,0,0,0,0,0,0,0,0,0,0,0,0,0,0,0,0,0],"id":17,"left_children":[1,3,5,7,9,11,13,15,17,19,21,23,25,27,29,31,33,35,37,39,41,43,45,47,49,51,53,55,57,59,61,-1,-1,-1,-1,-1,-1,-1,-1,-1,-1,-1,-1,-1,-1,-1,-1,-1,-1,-1,-1,-1,-1,-1,-1,-1,-1,-1,-1,-1,-1,-1,-1],"loss_changes":[1.2152577E2,2.598703E1,3.8563126E1,4.207821E0,8.028309E0,4.669737E0,1.0944725E1,9.5661736E-1,1.101593E0,8.2533646E-1,1.8536062E0,2.9382582E0,2.4719074E0,2.4665298E0,1.9127312E0,9.6389675E-1,4.8317814E-1,9.742222E-1,9.251957E-1,5.119171E-1,2.1023893E-1,2.2123218E0,1.6065784E0,1.3200331E0,8.7588596E-1,1.3725672E0,1.0336324E0,2.1994133E0,1.2333204E0,7.786073E-1,1.483715E0,0E0,0E0,0E0,0E0,0E0,0E0,0E0,0E0,0E0,0E0,0E0,0E0,0E0,0E0,0E0,0E0,0E0,0E0,0E0,0E0,0E0,0E0,0E0,0E0,0E0,0E0,0E0,0E0,0E0,0E0,0E0,0E0],"parents":[2147483647,0,0,1,1,2,2,3,3,4,4,5,5,6,6,7,7,8,8,9,9,10,10,11,11,12,12,13,13,14,14,15,15,16,16,17,17,18,18,19,19,20,20,21,21,22,22,23,23,24,24,25,25,26,26,27,27,28,28,29,29,30,30],"right_children":[2,4,6,8,10,12,14,16,18,20,22,24,26,28,30,32,34,36,38,40,42,44,46,48,50,52,54,56,58,60,62,-1,-1,-1,-1,-1,-1,-1,-1,-1,-1,-1,-1,-1,-1,-1,-1,-1,-1,-1,-1,-1,-1,-1,-1,-1,-1,-1,-1,-1,-1,-1,-1],"split_conditions":[7.366667E0,0E0,7.5E0,7.0333333E0,7.266667E0,1.6666668E-2,7.6666665E0,6.9333334E0,-1E-1,7.233333E0,2.7522936E-2,3E-1,8E0,1.1764706E-2,4E-1,-7E-1,1E0,8.1E0,7.2E0,2E-1,3.22E2,2E-1,1.7E1,2E-1,2E-1,3E-1,3E-1,4E-1,2E-1,1.7E0,4.5454544E-3,-2.5364673E-2,-9.029881E-3,-4.435914E-3,-7.145708E-3,-5.1776743E-3,2.9559692E-2,-4.106628E-3,-2.3852445E-3,-2.5248844E-3,-0E0,-1.5289191E-3,-2.3851027E-3,-8.943346E-4,2.6665544E-4,-4.5411023E-3,-1.1012326E-3,8.733075E-5,1.1031387E-3,2.1008356E-3,4.81275E-3,-6.9694454E-3,-1.4944837E-3,5.082213E-4,-1.5204732E-3,3.1972553E-3,4.8118853E-3,3.6892649E-3,3.2704917E-4,1.2464504E-3,2.710416E-2,8.129686E-3,4.5362487E-3],"split_indices":[22,38,22,22,22,54,22,22,35,22,54,35,45,54,35,35,31,16,22,35,56,35,45,38,23,26,35,35,20,21,54,0,0,0,0,0,0,0,0,0,0,0,0,0,0,0,0,0,0,0,0,0,0,0,0,0,0,0,0,0,0,0,0],"split_type":[0,0,0,0,0,0,0,0,0,0,0,0,0,0,0,0,0,0,0,0,0,0,0,0,0,0,0,0,0,0,0,0,0,0,0,0,0,0,0,0,0,0,0,0,0,0,0,0,0,0,0,0,0,0,0,0,0,0,0,0,0,0,0],"sum_hessian":[8.36E4,4.3544E4,4.0056E4,6.792E3,3.6752E4,2.7384E4,1.2672E4,1.237E3,5.555E3,1.4854E4,2.1898E4,2.4311E4,3.073E3,1.0182E4,2.49E3,3.62E2,8.75E2,1.726E3,3.829E3,9.755E3,5.099E3,2.0454E4,1.444E3,1.9634E4,4.677E3,4.64E2,2.609E3,8.943E3,1.239E3,1.54E2,2.336E3,9E0,3.53E2,2.49E2,6.26E2,1.725E3,1E0,2.699E3,1.13E3,9.551E3,2.04E2,4.196E3,9.03E2,1.4783E4,5.671E3,5.54E2,8.9E2,4.037E3,1.5597E4,4.354E3,3.23E2,2.33E2,2.31E2,1.563E3,1.046E3,5.449E3,3.494E3,4.08E2,8.31E2,1.52E2,2E0,1.987E3,3.49E2],"tree_param":{"num_deleted":"0","num_feature":"57","num_nodes":"63","size_leaf_vector":"1"}},{"base_weights":[1.2587175E-4,-3.4796413E-2,3.8332973E-2,-9.018261E-2,-2.4753764E-2,1.8494854E-2,8.093386E-2,-1.3869742E-1,-7.868523E-2,-4.1962277E-2,-1.3129534E-2,2.2869598E-2,-1.6000153E-2,6.713612E-2,1.3680892E-1,-1.7485116E-1,-1.23400584E-1,-1.8203294E-1,-7.598364E-2,-5.8319904E-2,-3.867096E-2,-2.7391374E-2,-8.2779275E-3,1.5386599E-2,3.8739156E-2,-7.605283E-2,-4.8834356E-3,7.2946504E-2,2.6373547E-2,1.4880408E-1,7.4500166E-2,-9.587367E-3,-2.1668067E-3,-4.2727515E-3,-6.616129E-3,-1.1122569E-2,-5.488166E-3,-4.3398268E-3,-3.0096327E-3,-9.3202776E-4,-3.1737671E-3,-2.2233427E-3,-1.6075637E-3,-1.7282473E-3,-6.3931727E-4,-2.4474176E-4,-2.032669E-3,-1.1946107E-3,8.4024266E-4,1.8074651E-3,3.7337465E-3,-2.6702604E-3,-9.354516E-3,4.8642137E-4,-1.3439319E-3,3.0075193E-3,4.62874E-3,-1.5616965E-3,2.0607784E-3,6.097586E-3,8.864082E-3,-1.5111767E-4,5.0422465E-3],"categories":[],"categories_nodes":[],"categories_segments":[],"categories_sizes":[],"default_left":[0,0,0,0,0,0,0,0,0,0,0,0,0,0,0,0,0,0,0,0,0,0,0,0,0,0,0,0,0,0,0,0,0,0,0,0,0,0,0,0,0,0,0,0,0,0,0,0,0,0,0,0,0,0,0,0,0,0,0,0,0,0,0],"id":18,"left_children":[1,3,5,7,9,11,13,15,17,19,21,23,25,27,29,31,33,35,37,39,41,43,45,47,49,51,53,55,57,59,61,-1,-1,-1,-1,-1,-1,-1,-1,-1,-1,-1,-1,-1,-1,-1,-1,-1,-1,-1,-1,-1,-1,-1,-1,-1,-1,-1,-1,-1,-1,-1,-1],"loss_changes":[1.11979744E2,2.4374477E1,3.3860188E1,3.7201767E0,7.4190674E0,4.1280518E0,9.786148E0,6.598053E-1,1.4800682E0,7.9351616E-1,1.5294509E0,2.8764563E0,2.0450377E0,2.4072914E0,1.8492928E0,8.0813694E-1,2.7465725E-1,3.425417E-1,8.8622665E-1,5.01812E-1,4.6185303E-1,5.835266E-1,1.8069682E0,9.189203E-1,7.0963955E-1,1.1705167E0,8.3695E-1,2.2238274E0,1.09499E0,1.5619545E0,8.47435E-1,0E0,0E0,0E0,0E0,0E0,0E0,0E0,0E0,0E0,0E0,0E0,0E0,0E0,0E0,0E0,0E0,0E0,0E0,0E0,0E0,0E0,0E0,0E0,0E0,0E0,0E0,0E0,0E0,0E0,0E0,0E0,0E0],"parents":[2147483647,0,0,1,1,2,2,3,3,4,4,5,5,6,6,7,7,8,8,9,9,10,10,11,11,12,12,13,13,14,14,15,15,16,16,17,17,18,18,19,19,20,20,21,21,22,22,23,23,24,24,25,25,26,26,27,27,28,28,29,29,30,30],"right_children":[2,4,6,8,10,12,14,16,18,20,22,24,26,28,30,32,34,36,38,40,42,44,46,48,50,52,54,56,58,60,62,-1,-1,-1,-1,-1,-1,-1,-1,-1,-1,-1,-1,-1,-1,-1,-1,-1,-1,-1,-1,-1,-1,-1,-1,-1,-1,-1,-1,-1,-1,-1,-1],"split_conditions":[7.366667E0,0E0,7.5E0,7.0333333E0,7.266667E0,1.6666668E-2,7.6666665E0,6.9333334E0,-3E-1,7.2E0,1E-1,7.4333334E0,8E0,1.0526316E-2,4.5454544E-3,1E1,6.666667E-1,2.7E0,7.1666665E0,2E-1,2.8430316E-8,6.666667E-1,9.691314E-3,1E-1,4E-1,6.338028E-2,3E-1,4E-1,1.9E1,6E-1,1.32E2,-9.587367E-3,-2.1668067E-3,-4.2727515E-3,-6.616129E-3,-1.1122569E-2,-5.488166E-3,-4.3398268E-3,-3.0096327E-3,-9.3202776E-4,-3.1737671E-3,-2.2233427E-3,-1.6075637E-3,-1.7282473E-3,-6.3931727E-4,-2.4474176E-4,-2.032669E-3,-1.1946107E-3,8.4024266E-4,1.8074651E-3,3.7337465E-3,-2.6702604E-3,-9.354516E-3,4.8642137E-4,-1.3439319E-3,3.0075193E-3,4.62874E-3,-1.5616965E-3,2.0607784E-3,6.097586E-3,8.864082E-3,-1.5111767E-4,5.0422465E-3],"split_indices":[22,35,22,22,22,54,22,22,38,22,35,22,45,54,54,30,46,19,22,26,23,26,54,50,35,54,35,35,45,35,11,0,0,0,0,0,0,0,0,0,0,0,0,0,0,0,0,0,0,0,0,0,0,0,0,0,0,0,0,0,0,0,0],"split_type":[0,0,0,0,0,0,0,0,0,0,0,0,0,0,0,0,0,0,0,0,0,0,0,0,0,0,0,0,0,0,0,0,0,0,0,0,0,0,0,0,0,0,0,0,0,0,0,0,0,0,0,0,0,0,0,0,0,0,0,0,0,0,0],"sum_hessian":[8.3923E4,4.3845E4,4.0078E4,6.727E3,3.7118E4,2.7347E4,1.2731E4,1.285E3,5.442E3,1.496E4,2.2158E4,2.4272E4,3.075E3,1.0213E4,2.518E3,3.77E2,9.08E2,1.36E2,5.306E3,2.498E3,1.2462E4,5.618E3,1.654E4,1.65E4,7.772E3,4.78E2,2.597E3,8.936E3,1.277E3,2.109E3,4.09E2,3.33E2,4.4E1,1.77E2,7.31E2,8.5E1,5.1E1,3.143E3,2.163E3,2.9E2,2.208E3,6.586E3,5.876E3,3.762E3,1.856E3,1.4979E4,1.561E3,5.72E2,1.5928E4,7.254E3,5.18E2,3.99E2,7.9E1,1.558E3,1.039E3,5.415E3,3.521E3,2.6E2,1.017E3,1.09E3,1.019E3,1.03E2,3.06E2],"tree_param":{"num_deleted":"0","num_feature":"57","num_nodes":"63","size_leaf_vector":"1"}},{"base_weights":[-2.1925724E-4,-3.398403E-2,3.6719065E-2,-8.251381E-2,-2.3491466E-2,1.7551996E-2,7.754737E-2,-1.1528946E-1,-6.727846E-2,-3.7145186E-2,-1.1463803E-2,2.1850744E-2,-1.331636E-2,6.236867E-2,1.2507893E-1,-1.7490968E-1,-1.0489965E-1,-5.781273E-2,-8.536201E-2,-8.8745E-2,-3.553882E-2,-8.355959E-3,-4.0776774E-2,1.6584676E-2,4.4114374E-2,6.30881E-3,-3.9817516E-2,6.7577146E-2,2.5934312E-2,3.22288E-2,1.3336869E-1,-2.138055E-2,-8.311588E-3,-9.869538E-3,-5.115533E-3,-7.6745107E-4,-3.0500123E-3,-4.494421E-3,-2.894923E-4,-4.6083187E-3,2.4057657E-2,-1.5118712E-3,-2.2605234E-3,-7.859139E-4,3.2484176E-4,-1.2834336E-3,-6.31582E-3,1.9656445E-6,1.0042384E-3,1.9912526E-3,5.752224E-3,1.0122814E-3,-4.5338203E-4,-4.1786316E-3,-1.2762318E-3,3.3929013E-3,-3.564655E-2,-1.3071502E-3,2.0704342E-3,2.3593043E-3,-5.163284E-3,7.231967E-3,3.5046672E-3],"categories":[],"categories_nodes":[],"categories_segments":[],"categories_sizes":[],"default_left":[0,0,0,0,0,0,0,0,0,0,0,0,0,0,0,0,0,0,0,0,0,0,0,0,0,0,0,0,0,0,0,0,0,0,0,0,0,0,0,0,0,0,0,0,0,0,0,0,0,0,0,0,0,0,0,0,0,0,0,0,0,0,0],"id":19,"left_children":[1,3,5,7,9,11,13,15,17,19,21,23,25,27,29,31,33,35,37,39,41,43,45,47,49,51,53,55,57,59,61,-1,-1,-1,-1,-1,-1,-1,-1,-1,-1,-1,-1,-1,-1,-1,-1,-1,-1,-1,-1,-1,-1,-1,-1,-1,-1,-1,-1,-1,-1,-1,-1],"loss_changes":[1.04231895E2,2.2220749E1,3.122028E1,3.8489304E0,5.8909492E0,3.6054144E0,9.170723E0,1.4768791E0,8.883114E-1,1.3778534E0,1.7342122E0,2.7888288E0,1.7292597E0,1.8231888E0,2.3521385E0,6.6337013E-1,4.5222092E-1,4.634056E-1,6.439924E-1,9.9011326E-1,8.2720184E-1,1.8892976E0,2.3426666E0,1.1150184E0,1.3663626E0,4.0954053E-1,8.712537E-1,1.8371964E0,9.801215E-1,5.1605535E-1,1.9859047E0,0E0,0E0,0E0,0E0,0E0,0E0,0E0,0E0,0E0,0E0,0E0,0E0,0E0,0E0,0E0,0E0,0E0,0E0,0E0,0E0,0E0,0E0,0E0,0E0,0E0,0E0,0E0,0E0,0E0,0E0,0E0,0E0],"parents":[2147483647,0,0,1,1,2,2,3,3,4,4,5,5,6,6,7,7,8,8,9,9,10,10,11,11,12,12,13,13,14,14,15,15,16,16,17,17,18,18,19,19,20,20,21,21,22,22,23,23,24,24,25,25,26,26,27,27,28,28,29,29,30,30],"right_children":[2,4,6,8,10,12,14,16,18,20,22,24,26,28,30,32,34,36,38,40,42,44,46,48,50,52,54,56,58,60,62,-1,-1,-1,-1,-1,-1,-1,-1,-1,-1,-1,-1,-1,-1,-1,-1,-1,-1,-1,-1,-1,-1,-1,-1,-1,-1,-1,-1,-1,-1,-1,-1],"split_conditions":[7.366667E0,7.2E0,7.5E0,-1E-1,1E-1,2E-1,7.633333E0,6.9333334E0,8E-1,-1E-1,5E-1,3E-1,3E-1,1.2E0,4E-1,6.5666666E0,1E-1,3E0,1.1E1,2.7E0,2.19E2,2E-1,3E-1,2E-1,2.081666E-1,1.88E2,1.815E2,9E-1,2.07E2,4.163332E-1,2E-1,-2.138055E-2,-8.311588E-3,-9.869538E-3,-5.115533E-3,-7.6745107E-4,-3.0500123E-3,-4.494421E-3,-2.894923E-4,-4.6083187E-3,2.4057657E-2,-1.5118712E-3,-2.2605234E-3,-7.859139E-4,3.2484176E-4,-1.2834336E-3,-6.31582E-3,1.9656445E-6,1.0042384E-3,1.9912526E-3,5.752224E-3,1.0122814E-3,-4.5338203E-4,-4.1786316E-3,-1.2762318E-3,3.3929013E-3,-3.564655E-2,-1.3071502E-3,2.0704342E-3,2.3593043E-3,-5.163284E-3,7.231967E-3,3.5046672E-3],"split_indices":[22,22,22,38,35,28,22,22,46,38,28,35,50,28,35,22,26,30,30,41,56,35,35,35,23,56,12,35,12,23,28,0,0,0,0,0,0,0,0,0,0,0,0,0,0,0,0,0,0,0,0,0,0,0,0,0,0,0,0,0,0,0,0],"split_type":[0,0,0,0,0,0,0,0,0,0,0,0,0,0,0,0,0,0,0,0,0,0,0,0,0,0,0,0,0,0,0,0,0,0,0,0,0,0,0,0,0,0,0,0,0,0,0,0,0,0,0,0,0,0,0,0,0,0,0,0,0,0,0],"sum_hessian":[8.357E4,4.3662E4,3.9908E4,7.759E3,3.5903E4,2.7161E4,1.2747E4,2.458E3,5.301E3,1.681E4,1.9093E4,2.3844E4,3.317E3,9.665E3,3.082E3,3.61E2,2.097E3,3.486E3,1.815E3,5.04E2,1.6306E4,1.7267E4,1.826E3,1.9288E4,4.556E3,1.904E3,1.413E3,8.453E3,1.212E3,2.54E2,2.828E3,1E1,3.51E2,5.4E1,2.043E3,2.46E2,3.24E3,1.716E3,9.9E1,5.02E2,2E0,1.0542E4,5.764E3,1.1549E4,5.718E3,1.554E3,2.72E2,3.373E3,1.5915E4,4.299E3,2.57E2,1.002E3,9.02E2,3.45E2,1.068E3,8.451E3,2E0,2.76E2,9.36E2,2.3E2,2.4E1,2.398E3,4.3E2],"tree_param":{"num_deleted":"0","num_feature":"57","num_nodes":"63","size_leaf_vector":"1"}},{"base_weights":[-7.806668E-5,-2.6767021E-2,4.0768497E-2,-7.73509E-2,-1.7690832E-2,3.0285526E-2,1.0734531E-1,-1.0928646E-1,-6.27006E-2,-3.466231E-2,-6.077409E-3,1.6646622E-2,4.8540812E-2,1.1339659E-1,2.072068E-2,-1.5203601E-1,-9.700656E-2,-5.342948E-2,-8.02569E-2,-8.645132E-2,-3.315075E-2,-2.5862132E-3,-3.7653264E-2,1.9871242E-2,-1.8810345E-2,5.2415565E-2,-1.2907852E-2,8.484338E-2,1.3703167E-1,9.306071E-2,-9.358953E-3,-8.1530865E-3,-3.0090522E-3,-9.64152E-3,-4.714336E-3,-7.768452E-4,-2.8094607E-3,7.774795E-3,-4.0588765E-3,-9.546778E-3,-3.698681E-3,-1.8412814E-3,-9.7566063E-4,-5.6689995E-4,4.9470726E-4,-4.6427464E-3,-4.7719717E-4,5.736502E-4,1.3002659E-3,-2.9642552E-3,-1.635507E-4,1.6119893E-3,2.894572E-3,-3.2139157E-3,1.2200333E-3,-0E0,4.644665E-3,6.89417E-3,-4.2942297E-2,6.0001328E-3,-1.969512E-3,8.8509166E-4,-5.9880107E-3],"categories":[],"categories_nodes":[],"categories_segments":[],"categories_sizes":[],"default_left":[0,0,0,0,0,0,0,0,0,0,0,0,0,0,0,0,0,0,0,0,0,0,0,0,0,0,0,0,0,0,0,0,0,0,0,0,0,0,0,0,0,0,0,0,0,0,0,0,0,0,0,0,0,0,0,0,0,0,0,0,0,0,0],"id":20,"left_children":[1,3,5,7,9,11,13,15,17,19,21,23,25,27,29,31,33,35,37,39,41,43,45,47,49,51,53,55,57,59,61,-1,-1,-1,-1,-1,-1,-1,-1,-1,-1,-1,-1,-1,-1,-1,-1,-1,-1,-1,-1,-1,-1,-1,-1,-1,-1,-1,-1,-1,-1,-1,-1],"loss_changes":[9.124869E1,2.3232433E1,2.3068172E1,3.5785103E0,8.456692E0,7.1085835E0,2.3420486E0,1.2296982E0,8.422394E-1,1.3501797E0,2.8060522E0,1.8713474E0,2.9137154E0,2.8026085E0,6.5332574E-1,5.1070404E-1,4.4386673E-1,3.541956E-1,4.0020275E-1,6.008172E-1,8.429184E-1,2.507854E0,3.9223857E0,7.6878786E-1,8.501812E-1,1.2590885E0,1.3931426E0,1.2974577E0,1.9938354E0,3.2681483E-1,6.367227E-1,0E0,0E0,0E0,0E0,0E0,0E0,0E0,0E0,0E0,0E0,0E0,0E0,0E0,0E0,0E0,0E0,0E0,0E0,0E0,0E0,0E0,0E0,0E0,0E0,0E0,0E0,0E0,0E0,0E0,0E0,0E0,0E0],"parents":[2147483647,0,0,1,1,2,2,3,3,4,4,5,5,6,6,7,7,8,8,9,9,10,10,11,11,12,12,13,13,14,14,15,15,16,16,17,17,18,18,19,19,20,20,21,21,22,22,23,23,24,24,25,25,26,26,27,27,28,28,29,29,30,30],"right_children":[2,4,6,8,10,12,14,16,18,20,22,24,26,28,30,32,34,36,38,40,42,44,46,48,50,52,54,56,58,60,62,-1,-1,-1,-1,-1,-1,-1,-1,-1,-1,-1,-1,-1,-1,-1,-1,-1,-1,-1,-1,-1,-1,-1,-1,-1,-1,-1,-1,-1,-1,-1,-1],"split_conditions":[7.4E0,7.2E0,7.6E0,-1E-1,1E-1,7.4666667E0,3.076923E-2,6.9666667E0,8E-1,-1E-1,1.4669927E-2,2.2959184E-2,3.0269058E-2,5E-1,2.1666667E0,1E1,1E-1,3E0,6.7E0,-3E-1,7.3E0,2E-1,1.4E1,4.6E0,7.4E0,3E-1,4.4E1,3E-1,1.59E1,4.5045046E-3,7.438017E-2,-8.1530865E-3,-3.0090522E-3,-9.64152E-3,-4.714336E-3,-7.768452E-4,-2.8094607E-3,7.774795E-3,-4.0588765E-3,-9.546778E-3,-3.698681E-3,-1.8412814E-3,-9.7566063E-4,-5.6689995E-4,4.9470726E-4,-4.6427464E-3,-4.7719717E-4,5.736502E-4,1.3002659E-3,-2.9642552E-3,-1.635507E-4,1.6119893E-3,2.894572E-3,-3.2139157E-3,1.2200333E-3,-0E0,4.644665E-3,6.89417E-3,-4.2942297E-2,6.0001328E-3,-1.969512E-3,8.8509166E-4,-5.9880107E-3],"split_indices":[22,22,22,35,35,22,54,22,46,35,54,54,54,35,24,30,20,30,16,35,22,35,45,37,17,35,45,35,20,53,54,0,0,0,0,0,0,0,0,0,0,0,0,0,0,0,0,0,0,0,0,0,0,0,0,0,0,0,0,0,0,0,0],"split_type":[0,0,0,0,0,0,0,0,0,0,0,0,0,0,0,0,0,0,0,0,0,0,0,0,0,0,0,0,0,0,0,0,0,0,0,0,0,0,0,0,0,0,0,0,0,0,0,0,0,0,0,0,0,0,0,0,0,0,0,0,0,0,0],"sum_hessian":[8.3702E4,5.0626E4,3.3076E4,7.699E3,4.2927E4,2.8579E4,4.497E3,2.417E3,5.282E3,1.7436E4,2.5491E4,1.6362E4,1.2217E4,4.202E3,2.95E2,5.35E2,1.882E3,3.463E3,1.819E3,4.91E2,1.6945E4,2.2957E4,2.534E3,1.5001E4,1.361E3,1.1494E4,7.23E2,1.907E3,2.295E3,8.7E1,2.08E2,4.76E2,5.9E1,4.9E1,1.833E3,2.38E2,3.225E3,6E0,1.813E3,5E1,4.41E2,1.3341E4,3.604E3,1.3499E4,9.458E3,8.53E2,1.681E3,6.34E3,8.661E3,3.75E2,9.86E2,2.459E3,9.035E3,3.05E2,4.18E2,1.66E2,1.741E3,2.294E3,1E0,7.3E1,1.4E1,1.67E2,4.1E1],"tree_param":{"num_deleted":"0","num_feature":"57","num_nodes":"63","size_leaf_vector":"1"}},{"base_weights":[-7.6628115E-5,-2.583372E-2,3.8918E-2,-1.7742572E-2,-7.79967E-2,2.8904676E-2,1.02142066E-1,-3.1652223E-2,-4.0220744E-3,-1.0103334E-1,-6.055247E-2,1.6250825E-2,4.594018E-2,1.0122227E-1,9.000157E-1,-4.070219E-2,-2.4096284E-2,-1.2856245E-3,-3.45864E-2,-1.4172515E-1,-9.13778E-2,-6.7430854E-2,-3.1855874E-2,1.913339E-2,-1.6195595E-2,5.0877877E-2,1.1368112E-2,8.898488E-2,1.4651778E-1,4.9768735E-2,1.04645E-2,-2.1568867E-3,-1.0777555E-3,-1.1699277E-3,-5.594512E-3,-3.7027695E-4,3.8126187E-4,-4.12763E-3,-6.449727E-4,-5.199361E-5,-7.6071173E-3,-4.597261E-3,2.8735993E-2,-3.735273E-3,-2.6705419E-3,-6.5610963E-3,-1.3341443E-3,9.730082E-4,-6.4261626E-3,-2.1041601E-3,2.3540219E-4,2.8352293E-3,1.4406154E-3,-2.5124992E-3,1.1865998E-3,4.6924804E-3,8.6824683E-4,7.733814E-3,-6.4372094E-3],"categories":[],"categories_nodes":[],"categories_segments":[],"categories_sizes":[],"default_left":[0,0,0,0,0,0,0,0,0,0,0,0,0,0,0,0,0,0,0,0,0,0,0,0,0,0,0,0,0,0,0,0,0,0,0,0,0,0,0,0,0,0,0,0,0,0,0,0,0,0,0,0,0,0,0,0,0,0,0],"id":21,"left_children":[1,3,5,7,9,11,13,15,17,19,21,23,25,27,29,31,33,35,37,39,41,43,45,47,49,51,53,55,57,-1,-1,-1,-1,-1,-1,-1,-1,-1,-1,-1,-1,-1,-1,-1,-1,-1,-1,-1,-1,-1,-1,-1,-1,-1,-1,-1,-1,-1,-1],"loss_changes":[8.426586E1,2.1314388E1,2.1111187E1,8.34492E0,2.703514E0,6.203888E0,3.156002E0,1.4777069E0,1.8386571E0,1.1106186E0,7.5082207E-1,1.5472922E0,2.088787E0,2.4893532E0,5.4597855E-4,4.5310783E-1,7.0943785E-1,1.1027606E0,1.8691044E0,7.99366E-1,8.9805794E-1,3.007946E-1,3.672508E-1,7.245612E-1,7.3285806E-1,1.3705215E0,1.1702491E0,1.2387428E0,2.1918736E0,0E0,0E0,0E0,0E0,0E0,0E0,0E0,0E0,0E0,0E0,0E0,0E0,0E0,0E0,0E0,0E0,0E0,0E0,0E0,0E0,0E0,0E0,0E0,0E0,0E0,0E0,0E0,0E0,0E0,0E0],"parents":[2147483647,0,0,1,1,2,2,3,3,4,4,5,5,6,6,7,7,8,8,9,9,10,10,11,11,12,12,13,13,14,14,15,15,16,16,17,17,18,18,19,19,20,20,21,21,22,22,23,23,24,24,25,25,26,26,27,27,28,28],"right_children":[2,4,6,8,10,12,14,16,18,20,22,24,26,28,30,32,34,36,38,40,42,44,46,48,50,52,54,56,58,-1,-1,-1,-1,-1,-1,-1,-1,-1,-1,-1,-1,-1,-1,-1,-1,-1,-1,-1,-1,-1,-1,-1,-1,-1,-1,-1,-1,-1,-1],"split_conditions":[7.4E0,1E0,7.6E0,7.3E0,-1E-1,7.4666667E0,7.234178E-1,7.233333E0,2.6666667E-2,6.9666667E0,7.233333E0,2.4E-2,1.3540622E-2,7.766667E0,1.31E1,1.61E2,6.338028E-2,2E-1,1.4E1,3E0,8.1E0,7.2E0,-3E-1,9E-1,6E-1,6E-1,1.3E1,3.1578947E-2,3.5118845E-1,4.9768735E-2,1.04645E-2,-2.1568867E-3,-1.0777555E-3,-1.1699277E-3,-5.594512E-3,-3.7027695E-4,3.8126187E-4,-4.12763E-3,-6.449727E-4,-5.199361E-5,-7.6071173E-3,-4.597261E-3,2.8735993E-2,-3.735273E-3,-2.6705419E-3,-6.5610963E-3,-1.3341443E-3,9.730082E-4,-6.4261626E-3,-2.1041601E-3,2.3540219E-4,2.8352293E-3,1.4406154E-3,-2.5124992E-3,1.1865998E-3,4.6924804E-3,8.6824683E-4,7.733814E-3,-6.4372094E-3],"split_indices":[22,48,22,22,38,22,23,22,54,22,22,54,54,22,20,45,54,38,45,30,16,16,41,36,36,36,45,54,23,0,0,0,0,0,0,0,0,0,0,0,0,0,0,0,0,0,0,0,0,0,0,0,0,0,0,0,0,0,0],"split_type":[0,0,0,0,0,0,0,0,0,0,0,0,0,0,0,0,0,0,0,0,0,0,0,0,0,0,0,0,0,0,0,0,0,0,0,0,0,0,0,0,0,0,0,0,0,0,0,0,0,0,0,0,0,0,0,0,0,0,0],"sum_hessian":[8.3897E4,5.0526E4,3.3371E4,4.3744E4,6.782E3,2.8811E4,4.56E3,2.1718E4,2.2026E4,2.918E3,3.864E3,1.6536E4,1.2275E4,4.556E3,4E0,9.874E3,1.1844E4,2.022E4,1.806E3,5.55E2,2.363E3,3.113E3,7.51E2,1.519E4,1.346E3,1.0738E4,1.537E3,3.591E3,9.65E2,3E0,1E0,8.754E3,1.12E3,1.1753E4,9.1E1,1.1994E4,8.226E3,5.6E2,1.246E3,3.9E1,5.16E2,2.362E3,1E0,2.042E3,1.071E3,3.5E1,7.16E2,1.5158E4,3.2E1,6.03E2,7.43E2,8.49E3,2.248E3,2.55E2,1.282E3,3.361E3,2.3E2,9.38E2,2.7E1],"tree_param":{"num_deleted":"0","num_feature":"57","num_nodes":"59","size_leaf_vector":"1"}},{"base_weights":[7.210056E-4,-2.3627127E-2,3.7593618E-2,-5.2576616E-2,-1.0939871E-2,2.3663443E-2,7.872093E-2,-9.522709E-2,-4.4184823E-2,-2.5865668E-2,-4.924017E-3,1.5856052E-2,3.9078426E-2,6.564121E-2,1.240714E-1,-1.4773685E-1,-8.656702E-2,-3.7524853E-2,-6.311701E-2,-3.1991806E-2,-1.2951606E-2,-1.8530929E-3,-3.1305205E-2,1.871013E-2,-7.977881E-3,4.3767493E-2,4.4418625E-3,7.243933E-2,2.8212028E-2,1.2258001E-1,4.9199414E-2,-3.146537E-2,-7.0771533E-3,-9.2851985E-3,-4.178136E-3,-1.9512862E-3,-5.559087E-4,-3.3198998E-3,-7.244611E-4,-4.061683E-3,-1.4872832E-3,-5.2637025E-4,-2.1979231E-3,-4.888427E-4,4.6560937E-4,-8.6552295E-4,-4.1532964E-3,5.448322E-4,1.2310058E-3,4.5334865E-4,-1.5762033E-3,2.119337E-3,7.390833E-3,-3.8104758E-3,8.294546E-4,3.2997888E-3,5.6521287E-3,3.8570054E-3,4.494694E-4,6.6388766E-3,3.0850058E-3],"categories":[],"categories_nodes":[],"categories_segments":[],"categories_sizes":[],"default_left":[0,0,0,0,0,0,0,0,0,0,0,0,0,0,0,0,0,0,0,0,0,0,0,0,0,0,0,0,0,0,0,0,0,0,0,0,0,0,0,0,0,0,0,0,0,0,0,0,0,0,0,0,0,0,0,0,0,0,0,0,0],"id":22,"left_children":[1,3,5,7,9,11,13,15,17,19,21,23,25,27,29,31,33,35,37,39,41,43,45,47,49,51,53,55,57,59,-1,-1,-1,-1,-1,-1,-1,-1,-1,-1,-1,-1,-1,-1,-1,-1,-1,-1,-1,-1,-1,-1,-1,-1,-1,-1,-1,-1,-1,-1,-1],"loss_changes":[7.514102E1,1.8507038E1,1.9058945E1,5.4783363E0,3.144073E0,2.9868908E0,4.967388E0,1.11063E0,1.6060295E0,7.912879E-1,2.0210197E0,1.1245694E0,1.3521099E0,1.6517277E0,2.1823444E0,8.8973284E-1,6.035633E-1,3.711443E-1,5.2303886E-1,7.4080706E-1,2.380051E-1,1.9807382E0,1.8733566E0,6.77392E-1,7.1009624E-1,1.0316696E0,9.7499305E-1,1.4217072E0,9.396852E-1,1.1395111E0,0E0,0E0,0E0,0E0,0E0,0E0,0E0,0E0,0E0,0E0,0E0,0E0,0E0,0E0,0E0,0E0,0E0,0E0,0E0,0E0,0E0,0E0,0E0,0E0,0E0,0E0,0E0,0E0,0E0,0E0,0E0],"parents":[2147483647,0,0,1,1,2,2,3,3,4,4,5,5,6,6,7,7,8,8,9,9,10,10,11,11,12,12,13,13,14,14,15,15,16,16,17,17,18,18,19,19,20,20,21,21,22,22,23,23,24,24,25,25,26,26,27,27,28,28,29,29],"right_children":[2,4,6,8,10,12,14,16,18,20,22,24,26,28,30,32,34,36,38,40,42,44,46,48,50,52,54,56,58,60,-1,-1,-1,-1,-1,-1,-1,-1,-1,-1,-1,-1,-1,-1,-1,-1,-1,-1,-1,-1,-1,-1,-1,-1,-1,-1,-1,-1,-1,-1,-1],"split_conditions":[7.4E0,7.233333E0,7.5333333E0,-1E-1,1E-1,7.4666667E0,7.7E0,6.9333334E0,5E-1,6E-1,5E-1,1E0,2.2E0,2E-1,1.4502873E0,5E0,1E-1,1E-1,1.1E1,-1E-1,5.625E-1,2E-1,3E-1,4.6E0,3E-1,5E-1,1.72E2,5E-1,2E-1,6E-1,4.9199414E-2,-3.146537E-2,-7.0771533E-3,-9.2851985E-3,-4.178136E-3,-1.9512862E-3,-5.559087E-4,-3.3198998E-3,-7.244611E-4,-4.061683E-3,-1.4872832E-3,-5.2637025E-4,-2.1979231E-3,-4.888427E-4,4.6560937E-4,-8.6552295E-4,-4.1532964E-3,5.448322E-4,1.2310058E-3,4.5334865E-4,-1.5762033E-3,2.119337E-3,7.390833E-3,-3.8104758E-3,8.294546E-4,3.2997888E-3,5.6521287E-3,3.8570054E-3,4.494694E-4,6.6388766E-3,3.0850058E-3],"split_indices":[22,22,22,35,35,22,22,22,46,26,28,28,28,28,23,11,26,35,30,35,43,35,35,37,35,35,12,35,21,28,0,0,0,0,0,0,0,0,0,0,0,0,0,0,0,0,0,0,0,0,0,0,0,0,0,0,0,0,0,0,0],"split_type":[0,0,0,0,0,0,0,0,0,0,0,0,0,0,0,0,0,0,0,0,0,0,0,0,0,0,0,0,0,0,0,0,0,0,0,0,0,0,0,0,0,0,0,0,0,0,0,0,0,0,0,0,0,0,0,0,0,0,0,0,0],"sum_hessian":[8.3693E4,5.0406E4,3.3287E4,1.5356E4,3.505E4,2.4868E4,8.419E3,2.521E3,1.2835E4,1.0063E4,2.4987E4,1.6513E4,8.355E3,6.538E3,1.881E3,3.53E2,2.168E3,9.501E3,3.334E3,6.819E3,3.244E3,2.2386E4,2.601E3,1.4751E4,1.762E3,7.356E3,9.99E2,5.53E3,1.008E3,1.879E3,2E0,3E0,3.5E2,6.1E1,2.107E3,8.986E3,5.15E2,3.121E3,2.13E2,2.94E2,6.525E3,3.013E3,2.31E2,1.3099E4,9.287E3,2.05E3,5.51E2,6.361E3,8.39E3,1.02E3,7.42E2,7.262E3,9.4E1,1.29E2,8.7E2,4.777E3,7.53E2,2.82E2,7.26E2,1.607E3,2.72E2],"tree_param":{"num_deleted":"0","num_feature":"57","num_nodes":"61","size_leaf_vector":"1"}},{"base_weights":[-3.143406E-4,-2.323444E-2,3.4659237E-2,-1.5837617E-2,-7.133666E-2,2.4134656E-2,8.111865E-2,-2.87446E-2,-3.0506954E-3,-1.1311104E-1,-6.1782237E-2,1.4291429E-2,3.9323535E-2,7.139672E-2,1.337454E-1,-3.369169E-2,-1.7991161E-2,3.2606425E-3,-7.4760118E-3,-4.516217E-1,-1.1158407E-1,-1.4387569E-1,-5.973073E-2,1.901165E-2,2.4346996E-3,-5.3710267E-2,4.055298E-2,1.2349531E-2,7.508684E-2,1.3575244E-1,-4.1873775E-2,-1.492675E-3,-2.2387037E-3,-1.1140554E-3,-3.7099788E-4,-3.1944932E-4,3.556848E-4,-1.1610879E-3,-2.3033081E-4,1.6181087E-3,-3.0285412E-2,-6.1038383E-3,-3.38609E-3,1.8142747E-2,-7.962408E-3,-3.3302126E-3,-2.1141958E-3,5.4672395E-4,1.2929527E-3,-9.1764657E-4,3.0844522E-4,-1.185181E-3,-9.554376E-3,-3.079023E-2,2.034189E-3,1.2706328E-3,-1.0305227E-2,2.827365E-3,4.156814E-3,6.604486E-3,3.3697512E-2],"categories":[],"categories_nodes":[],"categories_segments":[],"categories_sizes":[],"default_left":[0,0,0,0,0,0,0,0,0,0,0,0,0,0,0,0,0,0,0,0,0,0,0,0,0,0,0,0,0,0,0,0,0,0,0,0,0,0,0,0,0,0,0,0,0,0,0,0,0,0,0,0,0,0,0,0,0,0,0,0,0],"id":23,"left_children":[1,3,5,7,9,11,13,15,17,19,21,23,25,27,29,31,33,35,37,39,41,43,45,47,49,51,53,55,57,59,-1,-1,-1,-1,-1,-1,-1,-1,-1,-1,-1,-1,-1,-1,-1,-1,-1,-1,-1,-1,-1,-1,-1,-1,-1,-1,-1,-1,-1,-1,-1],"loss_changes":[6.7151115E1,1.7997017E1,1.6203575E1,7.2365675E0,2.6668549E0,4.0370617E0,3.1026688E0,1.1553841E0,6.160437E-1,5.404415E-1,8.9598083E-1,9.1644096E-1,1.216608E0,1.1172638E0,1.899231E0,6.2677765E-1,3.0914426E-1,3.3756846E-1,5.829241E-1,4.498136E-1,5.4712486E-1,1.0656629E0,6.2919235E-1,6.450181E-1,3.6225876E-1,5.4285926E-1,8.682556E-1,8.6325216E-1,7.0749474E-1,1.7050533E0,0E0,0E0,0E0,0E0,0E0,0E0,0E0,0E0,0E0,0E0,0E0,0E0,0E0,0E0,0E0,0E0,0E0,0E0,0E0,0E0,0E0,0E0,0E0,0E0,0E0,0E0,0E0,0E0,0E0,0E0,0E0],"parents":[2147483647,0,0,1,1,2,2,3,3,4,4,5,5,6,6,7,7,8,8,9,9,10,10,11,11,12,12,13,13,14,14,15,15,16,16,17,17,18,18,19,19,20,20,21,21,22,22,23,23,24,24,25,25,26,26,27,27,28,28,29,29],"right_children":[2,4,6,8,10,12,14,16,18,20,22,24,26,28,30,32,34,36,38,40,42,44,46,48,50,52,54,56,58,60,-1,-1,-1,-1,-1,-1,-1,-1,-1,-1,-1,-1,-1,-1,-1,-1,-1,-1,-1,-1,-1,-1,-1,-1,-1,-1,-1,-1,-1,-1,-1],"split_conditions":[7.4E0,1E0,7.5666666E0,7.3E0,7.0333333E0,7.4666667E0,7.766667E0,1E-1,1.17E2,-1.1E0,-3E-1,1.7E2,1E-1,3E-1,1.59E1,2E-1,2.8666666E0,7.3333335E0,1E-1,1E0,6E0,9E0,7.2E0,4.6E0,2E-1,1.0969656E0,6E0,4.5092496E-1,7.6E0,5.8E0,-4.1873775E-2,-1.492675E-3,-2.2387037E-3,-1.1140554E-3,-3.7099788E-4,-3.1944932E-4,3.556848E-4,-1.1610879E-3,-2.3033081E-4,1.6181087E-3,-3.0285412E-2,-6.1038383E-3,-3.38609E-3,1.8142747E-2,-7.962408E-3,-3.3302126E-3,-2.1141958E-3,5.4672395E-4,1.2929527E-3,-9.1764657E-4,3.0844522E-4,-1.185181E-3,-9.554376E-3,-3.079023E-2,2.034189E-3,1.2706328E-3,-1.0305227E-2,2.827365E-3,4.156814E-3,6.604486E-3,3.3697512E-2],"split_indices":[22,48,22,22,22,22,22,38,56,35,38,56,35,35,20,46,24,22,35,0,29,56,22,37,38,25,16,23,22,20,0,0,0,0,0,0,0,0,0,0,0,0,0,0,0,0,0,0,0,0,0,0,0,0,0,0,0,0,0,0,0],"split_type":[0,0,0,0,0,0,0,0,0,0,0,0,0,0,0,0,0,0,0,0,0,0,0,0,0,0,0,0,0,0,0,0,0,0,0,0,0,0,0,0,0,0,0,0,0,0,0,0,0,0,0,0,0,0,0,0,0,0,0,0,0],"sum_hessian":[8.3771E4,5.0608E4,3.3163E4,4.3866E4,6.742E3,2.7041E4,6.122E3,2.1826E4,2.204E4,1.251E3,5.491E3,1.6413E4,1.0628E4,5.171E3,9.51E2,1.4941E4,6.885E3,9.075E3,1.2965E4,4E0,1.247E3,1.31E2,5.36E3,1.1733E4,4.68E3,1.37E2,1.0491E4,3.06E2,4.865E3,9.5E2,1E0,1.1107E4,3.834E3,4.89E3,1.995E3,2.582E3,6.493E3,1.992E3,1.0973E4,1E0,3E0,1.003E3,2.44E2,3E0,1.28E2,3.839E3,1.521E3,5.391E3,6.342E3,7.08E2,3.972E3,1.14E2,2.3E1,1E0,1.049E4,2.9E2,1.6E1,1.479E3,3.386E3,9.45E2,5E0],"tree_param":{"num_deleted":"0","num_feature":"57","num_nodes":"61","size_leaf_vector":"1"}},{"base_weights":[-8.055135E-5,-2.5903067E-2,2.8080482E-2,-1.8290281E-2,-6.824086E-2,1.6739743E-2,7.055756E-2,-3.1291716E-2,-9.481549E-3,-1.2105578E-1,-6.1298113E-2,8.198968E-3,2.8395336E-2,5.643E-2,1.0295024E-1,-3.22945E-2,6.2441775E-3,-7.6533817E-3,-3.5261232E-2,-3.1189668E-1,-1.1647198E-1,2.3636548E-2,-6.157645E-2,1.11265695E-2,-1.6032057E-2,3.2927424E-2,-4.306956E-3,6.299548E-2,1.603028E-2,1.03666596E-1,-4.0826928E-2,-1.7633782E-3,-9.980219E-4,1.8175704E-3,-6.3640894E-3,-6.091997E-4,2.4070659E-4,-3.6354852E-3,-6.29739E-4,-1.9275127E-2,-0E0,-6.7472504E-3,-3.0491916E-3,-3.8043335E-3,-2.659345E-3,5.1999104E-4,4.1243336E-3,7.503799E-5,-2.7293449E-3,1.6607003E-3,-1.6696585E-2,-4.002868E-3,2.1113455E-4,-1.3436859E-3,3.2573082E-3,2.9549717E-3,-1.01496546E-4,4.504253E-3,6.8434007E-3],"categories":[],"categories_nodes":[],"categories_segments":[],"categories_sizes":[],"default_left":[0,0,0,0,0,0,0,0,0,0,0,0,0,0,0,0,0,0,0,0,0,0,0,0,0,0,0,0,0,0,0,0,0,0,0,0,0,0,0,0,0,0,0,0,0,0,0,0,0,0,0,0,0,0,0,0,0,0,0],"id":24,"left_children":[1,3,5,7,9,11,13,15,17,19,21,23,25,27,29,31,33,35,37,39,41,-1,43,45,47,49,51,53,55,57,-1,-1,-1,-1,-1,-1,-1,-1,-1,-1,-1,-1,-1,-1,-1,-1,-1,-1,-1,-1,-1,-1,-1,-1,-1,-1,-1,-1,-1],"loss_changes":[6.1008003E1,1.4096577E1,1.9321087E1,4.244546E0,2.4193687E0,3.1493826E0,3.847046E0,5.6662273E-1,1.0380393E0,5.961628E-1,8.645191E-1,1.2969455E0,1.9875317E0,1.5536385E0,1.7022266E0,5.2886105E-1,1.5553316E0,1.1678982E0,1.2306855E0,4.2681873E-1,7.471037E-1,0E0,7.0064926E-1,8.3622384E-1,1.3357093E0,1.2177372E0,1.0598118E0,9.8454094E-1,6.49099E-1,1.1206989E0,0E0,0E0,0E0,0E0,0E0,0E0,0E0,0E0,0E0,0E0,0E0,0E0,0E0,0E0,0E0,0E0,0E0,0E0,0E0,0E0,0E0,0E0,0E0,0E0,0E0,0E0,0E0,0E0,0E0],"parents":[2147483647,0,0,1,1,2,2,3,3,4,4,5,5,6,6,7,7,8,8,9,9,10,10,11,11,12,12,13,13,14,14,15,15,16,16,17,17,18,18,19,19,20,20,22,22,23,23,24,24,25,25,26,26,27,27,28,28,29,29],"right_children":[2,4,6,8,10,12,14,16,18,20,22,24,26,28,30,32,34,36,38,40,42,-1,44,46,48,50,52,54,56,58,-1,-1,-1,-1,-1,-1,-1,-1,-1,-1,-1,-1,-1,-1,-1,-1,-1,-1,-1,-1,-1,-1,-1,-1,-1,-1,-1,-1,-1],"split_conditions":[7.366667E0,1E0,7.5333333E0,7.266667E0,7E0,7.4333334E0,7.6666665E0,2E-1,2.7522936E-2,1E-1,-1E0,9.691314E-3,1.6666668E-2,1.1764706E-2,1.59E1,1.11E2,2E-1,2E-1,1.7E1,3.77E2,4E0,2.3636548E-2,-1E-1,4E-1,3E-1,4.5825756E-1,7E0,-3E-1,2E-1,7.8E0,-4.0826928E-2,-1.7633782E-3,-9.980219E-4,1.8175704E-3,-6.3640894E-3,-6.091997E-4,2.4070659E-4,-3.6354852E-3,-6.29739E-4,-1.9275127E-2,-0E0,-6.7472504E-3,-3.0491916E-3,-3.8043335E-3,-2.659345E-3,5.1999104E-4,4.1243336E-3,7.503799E-5,-2.7293449E-3,1.6607003E-3,-1.6696585E-2,-4.002868E-3,2.1113455E-4,-1.3436859E-3,3.2573082E-3,2.9549717E-3,-1.01496546E-4,4.504253E-3,6.8434007E-3],"split_indices":[22,48,22,22,22,22,22,38,54,33,35,54,54,54,20,45,28,38,45,12,29,0,38,35,50,23,45,39,20,22,0,0,0,0,0,0,0,0,0,0,0,0,0,0,0,0,0,0,0,0,0,0,0,0,0,0,0,0,0],"split_type":[0,0,0,0,0,0,0,0,0,0,0,0,0,0,0,0,0,0,0,0,0,0,0,0,0,0,0,0,0,0,0,0,0,0,0,0,0,0,0,0,0,0,0,0,0,0,0,0,0,0,0,0,0,0,0,0,0,0,0],"sum_hessian":[8.3894E4,4.3766E4,4.0128E4,3.7099E4,6.667E3,3.1675E4,8.453E3,1.4978E4,2.2121E4,7.71E2,5.896E3,1.8286E4,1.3389E4,5.89E3,2.563E3,1.4591E4,3.87E2,2.0661E4,1.46E3,1.6E1,7.55E2,2E0,5.894E3,1.6319E4,1.967E3,1.1762E4,1.627E3,5.064E3,8.26E2,2.562E3,1E0,1.1749E4,2.842E3,3.17E2,7E1,1.516E4,5.501E3,5.48E2,9.12E2,1.3E1,3E0,5.64E2,1.91E2,2.152E3,3.742E3,1.6157E4,1.62E2,1.351E3,6.16E2,1.1754E4,8E0,1.65E2,1.462E3,1.17E2,4.947E3,2.45E2,5.81E2,1.823E3,7.39E2],"tree_param":{"num_deleted":"0","num_feature":"57","num_nodes":"59","size_leaf_vector":"1"}},{"base_weights":[2.3216142E-4,-2.4502868E-2,2.7127609E-2,-6.2349882E-2,-1.7460572E-2,1.619497E-2,6.81876E-2,-5.5551678E-2,-1.0806949E-1,-7.6295263E-3,-2.8479908E-2,1.9741792E-2,-1.2556764E-2,9.75578E-2,5.387079E-2,-7.736374E-2,-4.742722E-2,2.008227E-2,-1.10374585E-1,-4.985763E-3,-3.286834E-2,-3.5619516E-2,-2.088518E-2,3.7580192E-2,1.2503598E-2,7.3037874E-3,-2.737169E-2,1.127985E-1,3.3336338E-2,5.8329254E-2,1.9692536E-2,-4.044707E-3,-7.3993683E-4,-2.2626221E-3,-4.882255E-3,-2.2092177E-2,-5.33582E-3,3.351765E-4,-5.3609506E-4,-4.6784757E-3,-1.0866221E-3,-2.4795115E-3,-1.6422311E-3,-1.3255303E-3,-4.977413E-4,-2.9603062E-2,1.8871172E-3,6.9906906E-4,-1.2001474E-3,9.2677446E-4,-7.6455384E-4,-2.4940835E-3,2.6950283E-5,-2.3716139E-2,5.7186936E-3,9.3070895E-4,7.956432E-3,3.0383975E-3,7.8108546E-4,8.9262746E-4,2.83061E-2],"categories":[],"categories_nodes":[],"categories_segments":[],"categories_sizes":[],"default_left":[0,0,0,0,0,0,0,0,0,0,0,0,0,0,0,0,0,0,0,0,0,0,0,0,0,0,0,0,0,0,0,0,0,0,0,0,0,0,0,0,0,0,0,0,0,0,0,0,0,0,0,0,0,0,0,0,0,0,0,0,0],"id":25,"left_children":[1,3,5,7,9,11,13,15,17,19,21,23,25,27,29,31,33,-1,35,37,39,41,43,45,47,49,51,53,55,57,59,-1,-1,-1,-1,-1,-1,-1,-1,-1,-1,-1,-1,-1,-1,-1,-1,-1,-1,-1,-1,-1,-1,-1,-1,-1,-1,-1,-1,-1,-1],"loss_changes":[5.5802242E1,1.1636417E1,1.8030163E1,2.1073132E0,3.9873247E0,3.2377253E0,3.5318794E0,1.041626E0,1.053853E0,1.2956623E0,9.352484E-1,3.6431322E0,1.0270188E0,2.687954E0,8.571911E-1,3.4595394E-1,4.56913E-1,0E0,9.6627045E-1,1.1829249E0,1.2322344E0,3.3682346E-1,5.140636E-1,7.992134E-1,1.0840816E0,3.777231E-1,1.2602432E0,2.0836353E0,9.663445E-1,5.147686E-1,5.9507513E-1,0E0,0E0,0E0,0E0,0E0,0E0,0E0,0E0,0E0,0E0,0E0,0E0,0E0,0E0,0E0,0E0,0E0,0E0,0E0,0E0,0E0,0E0,0E0,0E0,0E0,0E0,0E0,0E0,0E0,0E0],"parents":[2147483647,0,0,1,1,2,2,3,3,4,4,5,5,6,6,7,7,8,8,9,9,10,10,11,11,12,12,13,13,14,14,15,15,16,16,18,18,19,19,20,20,21,21,22,22,23,23,24,24,25,25,26,26,27,27,28,28,29,29,30,30],"right_children":[2,4,6,8,10,12,14,16,18,20,22,24,26,28,30,32,34,-1,36,38,40,42,44,46,48,50,52,54,56,58,60,-1,-1,-1,-1,-1,-1,-1,-1,-1,-1,-1,-1,-1,-1,-1,-1,-1,-1,-1,-1,-1,-1,-1,-1,-1,-1,-1,-1,-1,-1],"split_conditions":[7.366667E0,0E0,7.5333333E0,1.1E0,8E-1,1.5686275E-2,4E-1,7.1E0,-1.2E0,5E-1,7.233333E0,6E-1,1E-1,6.818182E-3,6E-1,1.1E1,1.2E1,2.008227E-2,3E0,7E-1,6E-1,7.2E0,6E-1,6E0,8E-1,1E0,6E-1,-3E-1,4E2,2.7522936E-2,9E0,-4.044707E-3,-7.3993683E-4,-2.2626221E-3,-4.882255E-3,-2.2092177E-2,-5.33582E-3,3.351765E-4,-5.3609506E-4,-4.6784757E-3,-1.0866221E-3,-2.4795115E-3,-1.6422311E-3,-1.3255303E-3,-4.977413E-4,-2.9603062E-2,1.8871172E-3,6.9906906E-4,-1.2001474E-3,9.2677446E-4,-7.6455384E-4,-2.4940835E-3,2.6950283E-5,-2.3716139E-2,5.7186936E-3,9.3070895E-4,7.956432E-3,3.0383975E-3,7.8108546E-4,8.9262746E-4,2.83061E-2],"split_indices":[22,38,22,36,36,54,36,16,39,28,22,36,23,54,36,30,30,0,37,36,36,16,26,16,36,3,36,39,11,54,16,0,0,0,0,0,0,0,0,0,0,0,0,0,0,0,0,0,0,0,0,0,0,0,0,0,0,0,0,0,0],"split_type":[0,0,0,0,0,0,0,0,0,0,0,0,0,0,0,0,0,0,0,0,0,0,0,0,0,0,0,0,0,0,0,0,0,0,0,0,0,0,0,0,0,0,0,0,0,0,0,0,0,0,0,0,0,0,0,0,0,0,0,0,0],"sum_hessian":[8.3878E4,4.3692E4,4.0186E4,6.851E3,3.6841E4,3.1739E4,8.447E3,5.968E3,8.83E2,1.9476E4,1.7365E4,2.8257E4,3.482E3,2.764E3,5.683E3,1.614E3,4.354E3,3E0,8.8E2,1.7634E4,1.842E3,8.942E3,8.423E3,8.151E3,2.0106E4,1.485E3,1.997E3,2.232E3,5.32E2,5.024E3,6.59E2,1.526E3,8.8E1,4.177E3,1.77E2,8E0,8.72E2,5.799E3,1.1835E4,2.83E2,1.559E3,1.473E3,7.469E3,5.554E3,2.869E3,1E0,8.15E3,1.9327E4,7.79E2,9.95E2,4.9E2,1.107E3,8.9E2,5E0,2.227E3,4.78E2,5.4E1,4.75E3,2.74E2,6.58E2,1E0],"tree_param":{"num_deleted":"0","num_feature":"57","num_nodes":"61","size_leaf_vector":"1"}},{"base_weights":[-1.8852303E-4,-2.0218438E-2,3.0351741E-2,-5.8823455E-2,-1.3271684E-2,2.1001406E-2,7.154855E-2,-4.9494337E-2,-8.900547E-2,-2.4390902E-2,-3.2095574E-3,1.5150984E-2,3.9166026E-2,6.0999013E-2,1.0991859E-1,-4.701452E-2,-9.536448E-2,-1.3200693E-1,-7.6371066E-2,-2.8438816E-2,-1.5772307E-2,-8.221645E-4,-2.8217094E-2,1.7643742E-2,-1.1285246E-2,4.2941246E-2,9.250256E-3,6.284578E-2,-6.174287E-2,1.1999991E-1,9.285308E-3,-5.9534363E-3,-2.2817827E-3,-1.3576865E-2,-4.4307946E-3,-6.1444826E-3,-1.1300477E-2,-3.8823679E-3,5.9697833E-3,-1.3704618E-3,-3.3195924E-3,-6.4005185E-4,-2.2724941E-3,3.5575722E-4,-3.205136E-4,-7.5101864E-4,-4.1682753E-3,5.9543207E-4,1.2633991E-3,-1.9682886E-3,3.6843782E-4,-5.2773E-3,2.1923487E-3,-4.626035E-3,8.5257366E-4,3.3187212E-3,3.0226988E-4,-4.8543345E-3,4.0974445E-3,2.3405744E-2,5.873739E-3,1.1761641E-3,-1.5429395E-2],"categories":[],"categories_nodes":[],"categories_segments":[],"categories_sizes":[],"default_left":[0,0,0,0,0,0,0,0,0,0,0,0,0,0,0,0,0,0,0,0,0,0,0,0,0,0,0,0,0,0,0,0,0,0,0,0,0,0,0,0,0,0,0,0,0,0,0,0,0,0,0,0,0,0,0,0,0,0,0,0,0,0,0],"id":26,"left_children":[1,3,5,7,9,11,13,15,17,19,21,23,25,27,29,31,33,35,37,39,41,43,45,47,49,51,53,55,57,59,61,-1,-1,-1,-1,-1,-1,-1,-1,-1,-1,-1,-1,-1,-1,-1,-1,-1,-1,-1,-1,-1,-1,-1,-1,-1,-1,-1,-1,-1,-1,-1,-1],"loss_changes":[5.1176617E1,1.3542316E1,1.2752974E1,2.15069E0,4.7885504E0,2.8642397E0,2.4563293E0,6.511507E-1,9.551678E-1,7.047043E-1,1.3396101E0,1.3474836E0,7.369547E-1,1.0942993E0,1.3230906E0,5.335789E-1,2.954092E-1,2.8786802E-1,